FANN_FLO_2.1
num_layers=3
learning_rate=0.700000
connection_rate=1.000000
network_type=0
learning_momentum=0.400000
training_algorithm=0
train_error_function=1
train_stop_function=0
cascade_output_change_fraction=0.010000
quickprop_decay=-0.000100
quickprop_mu=1.750000
rprop_increase_factor=1.200000
rprop_decrease_factor=0.500000
rprop_delta_min=0.000000
rprop_delta_max=50.000000
rprop_delta_zero=0.100000
cascade_output_stagnation_epochs=12
cascade_candidate_change_fraction=0.010000
cascade_candidate_stagnation_epochs=12
cascade_max_out_epochs=150
cascade_min_out_epochs=50
cascade_max_cand_epochs=150
cascade_min_cand_epochs=50
cascade_num_candidate_groups=2
bit_fail_limit=3.49999994039535520000e-001
cascade_candidate_limit=1.00000000000000000000e+003
cascade_weight_multiplier=4.00000005960464480000e-001
cascade_activation_functions_count=10
cascade_activation_functions=3 5 7 8 10 11 14 15 16 17 
cascade_activation_steepnesses_count=4
cascade_activation_steepnesses=2.50000000000000000000e-001 5.00000000000000000000e-001 7.50000000000000000000e-001 1.00000000000000000000e+000 
layer_sizes=49 97 4 
scale_included=0
neurons (num_inputs, activation_function, activation_steepness)=(0, 0, 0.00000000000000000000e+000) (0, 0, 0.00000000000000000000e+000) (0, 0, 0.00000000000000000000e+000) (0, 0, 0.00000000000000000000e+000) (0, 0, 0.00000000000000000000e+000) (0, 0, 0.00000000000000000000e+000) (0, 0, 0.00000000000000000000e+000) (0, 0, 0.00000000000000000000e+000) (0, 0, 0.00000000000000000000e+000) (0, 0, 0.00000000000000000000e+000) (0, 0, 0.00000000000000000000e+000) (0, 0, 0.00000000000000000000e+000) (0, 0, 0.00000000000000000000e+000) (0, 0, 0.00000000000000000000e+000) (0, 0, 0.00000000000000000000e+000) (0, 0, 0.00000000000000000000e+000) (0, 0, 0.00000000000000000000e+000) (0, 0, 0.00000000000000000000e+000) (0, 0, 0.00000000000000000000e+000) (0, 0, 0.00000000000000000000e+000) (0, 0, 0.00000000000000000000e+000) (0, 0, 0.00000000000000000000e+000) (0, 0, 0.00000000000000000000e+000) (0, 0, 0.00000000000000000000e+000) (0, 0, 0.00000000000000000000e+000) (0, 0, 0.00000000000000000000e+000) (0, 0, 0.00000000000000000000e+000) (0, 0, 0.00000000000000000000e+000) (0, 0, 0.00000000000000000000e+000) (0, 0, 0.00000000000000000000e+000) (0, 0, 0.00000000000000000000e+000) (0, 0, 0.00000000000000000000e+000) (0, 0, 0.00000000000000000000e+000) (0, 0, 0.00000000000000000000e+000) (0, 0, 0.00000000000000000000e+000) (0, 0, 0.00000000000000000000e+000) (0, 0, 0.00000000000000000000e+000) (0, 0, 0.00000000000000000000e+000) (0, 0, 0.00000000000000000000e+000) (0, 0, 0.00000000000000000000e+000) (0, 0, 0.00000000000000000000e+000) (0, 0, 0.00000000000000000000e+000) (0, 0, 0.00000000000000000000e+000) (0, 0, 0.00000000000000000000e+000) (0, 0, 0.00000000000000000000e+000) (0, 0, 0.00000000000000000000e+000) (0, 0, 0.00000000000000000000e+000) (0, 0, 0.00000000000000000000e+000) (0, 0, 0.00000000000000000000e+000) (49, 4, 5.00000000000000000000e-001) (49, 4, 5.00000000000000000000e-001) (49, 4, 5.00000000000000000000e-001) (49, 4, 5.00000000000000000000e-001) (49, 4, 5.00000000000000000000e-001) (49, 4, 5.00000000000000000000e-001) (49, 4, 5.00000000000000000000e-001) (49, 4, 5.00000000000000000000e-001) (49, 4, 5.00000000000000000000e-001) (49, 4, 5.00000000000000000000e-001) (49, 4, 5.00000000000000000000e-001) (49, 4, 5.00000000000000000000e-001) (49, 4, 5.00000000000000000000e-001) (49, 4, 5.00000000000000000000e-001) (49, 4, 5.00000000000000000000e-001) (49, 4, 5.00000000000000000000e-001) (49, 4, 5.00000000000000000000e-001) (49, 4, 5.00000000000000000000e-001) (49, 4, 5.00000000000000000000e-001) (49, 4, 5.00000000000000000000e-001) (49, 4, 5.00000000000000000000e-001) (49, 4, 5.00000000000000000000e-001) (49, 4, 5.00000000000000000000e-001) (49, 4, 5.00000000000000000000e-001) (49, 4, 5.00000000000000000000e-001) (49, 4, 5.00000000000000000000e-001) (49, 4, 5.00000000000000000000e-001) (49, 4, 5.00000000000000000000e-001) (49, 4, 5.00000000000000000000e-001) (49, 4, 5.00000000000000000000e-001) (49, 4, 5.00000000000000000000e-001) (49, 4, 5.00000000000000000000e-001) (49, 4, 5.00000000000000000000e-001) (49, 4, 5.00000000000000000000e-001) (49, 4, 5.00000000000000000000e-001) (49, 4, 5.00000000000000000000e-001) (49, 4, 5.00000000000000000000e-001) (49, 4, 5.00000000000000000000e-001) (49, 4, 5.00000000000000000000e-001) (49, 4, 5.00000000000000000000e-001) (49, 4, 5.00000000000000000000e-001) (49, 4, 5.00000000000000000000e-001) (49, 4, 5.00000000000000000000e-001) (49, 4, 5.00000000000000000000e-001) (49, 4, 5.00000000000000000000e-001) (49, 4, 5.00000000000000000000e-001) (49, 4, 5.00000000000000000000e-001) (49, 4, 5.00000000000000000000e-001) (49, 4, 5.00000000000000000000e-001) (49, 4, 5.00000000000000000000e-001) (49, 4, 5.00000000000000000000e-001) (49, 4, 5.00000000000000000000e-001) (49, 4, 5.00000000000000000000e-001) (49, 4, 5.00000000000000000000e-001) (49, 4, 5.00000000000000000000e-001) (49, 4, 5.00000000000000000000e-001) (49, 4, 5.00000000000000000000e-001) (49, 4, 5.00000000000000000000e-001) (49, 4, 5.00000000000000000000e-001) (49, 4, 5.00000000000000000000e-001) (49, 4, 5.00000000000000000000e-001) (49, 4, 5.00000000000000000000e-001) (49, 4, 5.00000000000000000000e-001) (49, 4, 5.00000000000000000000e-001) (49, 4, 5.00000000000000000000e-001) (49, 4, 5.00000000000000000000e-001) (49, 4, 5.00000000000000000000e-001) (49, 4, 5.00000000000000000000e-001) (49, 4, 5.00000000000000000000e-001) (49, 4, 5.00000000000000000000e-001) (49, 4, 5.00000000000000000000e-001) (49, 4, 5.00000000000000000000e-001) (49, 4, 5.00000000000000000000e-001) (49, 4, 5.00000000000000000000e-001) (49, 4, 5.00000000000000000000e-001) (49, 4, 5.00000000000000000000e-001) (49, 4, 5.00000000000000000000e-001) (49, 4, 5.00000000000000000000e-001) (49, 4, 5.00000000000000000000e-001) (49, 4, 5.00000000000000000000e-001) (49, 4, 5.00000000000000000000e-001) (49, 4, 5.00000000000000000000e-001) (49, 4, 5.00000000000000000000e-001) (49, 4, 5.00000000000000000000e-001) (49, 4, 5.00000000000000000000e-001) (49, 4, 5.00000000000000000000e-001) (49, 4, 5.00000000000000000000e-001) (49, 4, 5.00000000000000000000e-001) (49, 4, 5.00000000000000000000e-001) (49, 4, 5.00000000000000000000e-001) (49, 4, 5.00000000000000000000e-001) (49, 4, 5.00000000000000000000e-001) (49, 4, 5.00000000000000000000e-001) (49, 4, 5.00000000000000000000e-001) (49, 4, 5.00000000000000000000e-001) (49, 4, 5.00000000000000000000e-001) (0, 0, 0.00000000000000000000e+000) (97, 4, 5.00000000000000000000e-001) (97, 4, 5.00000000000000000000e-001) (97, 4, 5.00000000000000000000e-001) (0, 0, 0.00000000000000000000e+000) 
connections (connected_to_neuron, weight)=(0, -1.53204083442687990000e-001) (1, -1.09194532036781310000e-001) (2, -7.89235755801200870000e-002) (3, -2.02586486935615540000e-001) (4, -2.89818823337554930000e-001) (5, 1.16173177957534790000e-002) (6, -1.51429578661918640000e-001) (7, -1.59729421138763430000e-001) (8, 2.11455393582582470000e-002) (9, -1.36927485466003420000e-001) (10, -5.81454299390316010000e-003) (11, 2.13372465223073960000e-002) (12, -3.97393882274627690000e-001) (13, -1.97772309184074400000e-001) (14, -1.27254530787467960000e-001) (15, -3.51122766733169560000e-002) (16, 1.11788259819149970000e-002) (17, -1.28862671554088590000e-002) (18, -1.26379370689392090000e-001) (19, -1.05712778866291050000e-001) (20, -9.26668867468833920000e-002) (21, -2.08909898996353150000e-001) (22, -3.88147421181201930000e-002) (23, -1.17030911147594450000e-001) (24, 1.32921576499938960000e-001) (25, 4.11723777651786800000e-002) (26, -5.23513369262218480000e-002) (27, -1.75795748829841610000e-001) (28, -1.47163912653923030000e-001) (29, -2.53634929656982420000e-001) (30, -2.03195303678512570000e-001) (31, -2.26713165640830990000e-001) (32, -7.55193978548049930000e-002) (33, 2.95585300773382190000e-002) (34, -9.12108123302459720000e-002) (35, -1.40714406967163090000e-001) (36, -3.09686571359634400000e-001) (37, -1.25415965914726260000e-001) (38, -1.53969243168830870000e-001) (39, -2.04483836889266970000e-001) (40, -2.00768753886222840000e-001) (41, -3.86307276785373690000e-002) (42, -7.81571399420499800000e-003) (43, -1.22759997844696040000e-001) (44, -3.13451766967773440000e-001) (45, -2.26851534098386760000e-002) (46, -4.98256608843803410000e-002) (47, -1.11849389970302580000e-001) (48, -1.58522403240203860000e+000) (0, 3.36745157837867740000e-002) (1, 2.19458452193066480000e-004) (2, 1.50634184479713440000e-001) (3, -1.23535841703414920000e-001) (4, 1.35152280330657960000e-001) (5, 9.79846715927124020000e-002) (6, -1.48648485541343690000e-001) (7, -4.88949865102767940000e-002) (8, -1.89863946288824080000e-002) (9, 3.67102831602096560000e-001) (10, 3.32975983619689940000e-001) (11, 7.83243998885154720000e-002) (12, -3.15738886594772340000e-001) (13, -2.22485885024070740000e-001) (14, -2.68897742033004760000e-001) (15, -3.99386107921600340000e-001) (16, 6.36777102947235110000e-001) (17, 5.25287270545959470000e-001) (18, 2.33653530478477480000e-001) (19, 2.10642874240875240000e-001) (20, -8.61139222979545590000e-002) (21, 5.61835579574108120000e-002) (22, 2.53769189119338990000e-001) (23, 9.53872442245483400000e-001) (24, 4.38430517911911010000e-001) (25, 5.78221738338470460000e-001) (26, 6.80081725120544430000e-001) (27, 8.88438150286674500000e-002) (28, 6.43793717026710510000e-002) (29, 3.79123300313949580000e-001) (30, 8.00559341907501220000e-001) (31, 1.05019176006317140000e+000) (32, -8.63714516162872310000e-002) (33, 8.84058952331542970000e-001) (34, 8.45446586608886720000e-001) (35, 3.44612658023834230000e-001) (36, 6.41966015100479130000e-002) (37, 5.32586514949798580000e-001) (38, 2.99726963043212890000e-001) (39, 2.78837621212005620000e-001) (40, -1.20178684592247010000e-001) (41, 3.87943387031555180000e-001) (42, -1.76638096570968630000e-001) (43, 8.22882711887359620000e-001) (44, 3.76613676548004150000e-001) (45, 4.34514701366424560000e-001) (46, 9.53150019049644470000e-002) (47, 1.28056064248085020000e-001) (48, -1.45584321022033690000e+000) (0, 1.24073941260576250000e-002) (1, -1.95066064596176150000e-001) (2, -9.27693024277687070000e-002) (3, -2.60075688362121580000e-001) (4, -6.65525570511817930000e-002) (5, -2.40182265639305110000e-001) (6, -2.09278643131256100000e-001) (7, -2.76803314685821530000e-001) (8, 1.05708226561546330000e-001) (9, 1.61245420575141910000e-001) (10, 1.89734533429145810000e-001) (11, 1.76903277635574340000e-001) (12, -1.75951153039932250000e-001) (13, -4.72052127122879030000e-001) (14, -1.46954029798507690000e-001) (15, -1.81385114789009090000e-001) (16, 1.41074299812316890000e-001) (17, 3.51913601160049440000e-001) (18, -5.99866844713687900000e-002) (19, 5.85413239896297450000e-002) (20, 1.97803437709808350000e-001) (21, 1.92827463150024410000e-001) (22, 5.03509461879730220000e-001) (23, 2.13447421789169310000e-001) (24, 1.95679694414138790000e-001) (25, 1.82024277746677400000e-002) (26, 1.92042030394077300000e-002) (27, 8.11776667833328250000e-002) (28, -6.87874341383576390000e-003) (29, -1.02774024009704590000e-001) (30, -1.37224821373820300000e-002) (31, 4.59754049777984620000e-001) (32, -3.27353507280349730000e-001) (33, 2.90775239467620850000e-001) (34, 2.19357371330261230000e-001) (35, -7.03149363398551940000e-002) (36, -1.69933155179023740000e-001) (37, -1.08891263604164120000e-001) (38, 2.71164536476135250000e-001) (39, -1.45463004708290100000e-001) (40, -3.49818110466003420000e-001) (41, 1.12722337245941160000e-001) (42, -1.90178871154785160000e-001) (43, 4.05017919838428500000e-002) (44, 6.36660307645797730000e-002) (45, -6.89098164439201350000e-002) (46, -9.19519290328025820000e-002) (47, -1.62485137581825260000e-001) (48, -1.68465316295623780000e+000) (0, 4.91172611713409420000e-001) (1, 3.76879215240478520000e-001) (2, 7.66942441463470460000e-001) (3, 9.69786167144775390000e-001) (4, -5.25376684963703160000e-002) (5, 1.17678798735141750000e-001) (6, -4.66403901576995850000e-001) (7, 1.21587067842483520000e-001) (8, -7.77401030063629150000e-002) (9, 5.58945596218109130000e-001) (10, 4.88852351903915410000e-001) (11, -1.10070042312145230000e-001) (12, 1.06219458580017090000e+000) (13, 6.41199052333831790000e-001) (14, -5.86325041949748990000e-002) (15, -3.29426646232604980000e-001) (16, -1.44074738025665280000e-001) (17, -5.56193172931671140000e-001) (18, 5.13937808573246000000e-002) (19, 6.69632196426391600000e-001) (20, -2.94061094522476200000e-001) (21, 7.70720839500427250000e-001) (22, 7.21289634704589840000e-001) (23, 7.92721331119537350000e-001) (24, -8.47507953643798830000e-001) (25, -4.40330684185028080000e-001) (26, -7.75503039360046390000e-001) (27, -3.49205285310745240000e-001) (28, 5.79680204391479490000e-001) (29, 2.62507528066635130000e-001) (30, 6.21088206768035890000e-001) (31, 6.55681610107421880000e-001) (32, -1.69149264693260190000e-001) (33, -6.72880828380584720000e-001) (34, -5.53878664970397950000e-001) (35, -8.80403459072113040000e-001) (36, -1.19316148757934570000e+000) (37, -9.45428833365440370000e-002) (38, 7.30732262134552000000e-001) (39, 4.18420463800430300000e-001) (40, -2.95541882514953610000e-001) (41, -4.77214157581329350000e-002) (42, -7.12212264537811280000e-001) (43, -6.82664990425109860000e-001) (44, -4.86008524894714360000e-001) (45, -1.16053330898284910000e+000) (46, 2.50455620698630810000e-003) (47, -1.72519832849502560000e-002) (48, -2.90123653411865230000e+000) (0, -1.24398209154605870000e-001) (1, -1.07386372983455660000e-001) (2, -2.98387169837951660000e-001) (3, -6.52637705206871030000e-002) (4, -5.66976249217987060000e-001) (5, -1.54958710074424740000e-001) (6, -1.28549769520759580000e-001) (7, 1.25318080186843870000e-001) (8, 8.64427760243415830000e-002) (9, -2.86393046379089360000e-001) (10, -9.61028710007667540000e-002) (11, -2.90070861577987670000e-001) (12, -5.43077528476715090000e-001) (13, -1.88215106725692750000e-001) (14, -2.01865896582603450000e-001) (15, 2.49213904142379760000e-001) (16, -1.42468530684709550000e-002) (17, -9.16932076215744020000e-002) (18, -1.55992344021797180000e-001) (19, -5.39821922779083250000e-001) (20, -6.12327992916107180000e-001) (21, -5.45138478279113770000e-001) (22, -3.48955392837524410000e-001) (23, -6.82848691940307620000e-001) (24, 8.40119868516922000000e-002) (25, -2.32537075877189640000e-001) (26, -3.35089445114135740000e-001) (27, -5.41019618511199950000e-001) (28, -5.43950498104095460000e-001) (29, -4.90338683128356930000e-001) (30, -7.24025666713714600000e-001) (31, -8.30764293670654300000e-001) (32, 3.11266064643859860000e-001) (33, -2.65570044517517090000e-001) (34, -2.85637319087982180000e-001) (35, -5.73734700679779050000e-001) (36, -6.72015905380249020000e-001) (37, -4.71898436546325680000e-001) (38, -5.66782951354980470000e-001) (39, -1.12581871449947360000e-001) (40, 1.45691111683845520000e-002) (41, -2.43628859519958500000e-001) (42, -9.30229052901268010000e-002) (43, -7.75602281093597410000e-001) (44, -8.03576767444610600000e-001) (45, -3.49600017070770260000e-001) (46, -1.12369276583194730000e-001) (47, -9.18114185333251950000e-002) (48, -9.69784617424011230000e-001) (0, 1.61859646439552310000e-001) (1, -7.02815875411033630000e-002) (2, -2.46918186545372010000e-001) (3, -3.30767780542373660000e-002) (4, -5.23274600505828860000e-001) (5, -2.66585052013397220000e-001) (6, -2.04256340861320500000e-001) (7, -2.45097115635871890000e-001) (8, 1.93886503577232360000e-001) (9, -2.86408305168151860000e-001) (10, -3.78823041915893550000e-001) (11, -3.69468092918396000000e-001) (12, -1.18622817099094390000e-001) (13, -5.75710311532020570000e-002) (14, 8.92483666539192200000e-002) (15, 8.61886441707611080000e-002) (16, -3.19065541028976440000e-001) (17, -4.58228468894958500000e-001) (18, -2.99509167671203610000e-001) (19, -4.67950314283370970000e-001) (20, -4.09193009138107300000e-001) (21, -3.59247833490371700000e-001) (22, -3.01612883806228640000e-001) (23, -6.00941300392150880000e-001) (24, -1.48628354072570800000e-001) (25, -4.35211598873138430000e-001) (26, -5.12261211872100830000e-001) (27, -4.79836285114288330000e-001) (28, -4.59761083126068120000e-001) (29, -6.28425419330596920000e-001) (30, -6.22858464717864990000e-001) (31, -6.56086206436157230000e-001) (32, -1.49662584066390990000e-001) (33, -6.06579780578613280000e-001) (34, -6.14669740200042720000e-001) (35, -8.72353434562683110000e-001) (36, -5.26739656925201420000e-001) (37, -3.60905200242996220000e-001) (38, -4.30701375007629390000e-001) (39, -4.61243838071823120000e-003) (40, -8.26597958803176880000e-002) (41, -3.63954186439514160000e-001) (42, -1.23219564557075500000e-001) (43, -1.09918951988220210000e+000) (44, -6.57074034214019780000e-001) (45, -4.99311119318008420000e-001) (46, -9.48125272989273070000e-002) (47, 3.38116697967052460000e-002) (48, -5.99255681037902830000e-001) (0, -2.85983651876449580000e-001) (1, -1.12259060144424440000e-001) (2, 9.17852967977523800000e-002) (3, 8.37768390774726870000e-002) (4, -5.19223749637603760000e-001) (5, -1.19019813835620880000e-001) (6, -8.95575135946273800000e-002) (7, 8.28037187457084660000e-002) (8, -1.01892864331603050000e-002) (9, -6.43317475914955140000e-002) (10, -1.44171435385942460000e-003) (11, -2.83570080995559690000e-001) (12, -5.45357048511505130000e-001) (13, -5.69681562483310700000e-002) (14, -3.77086818218231200000e-001) (15, 2.31570988893508910000e-001) (16, -9.87001210451126100000e-002) (17, 5.48562221229076390000e-002) (18, -2.07130625844001770000e-001) (19, -3.25729578733444210000e-001) (20, -6.28964841365814210000e-001) (21, -4.73978906869888310000e-001) (22, -4.38677161931991580000e-001) (23, -6.63028120994567870000e-001) (24, 2.63852655887603760000e-001) (25, -2.13883146643638610000e-001) (26, -2.55689054727554320000e-001) (27, -4.70513224601745610000e-001) (28, -5.88727712631225590000e-001) (29, -2.67951011657714840000e-001) (30, -7.84443318843841550000e-001) (31, -8.13144326210021970000e-001) (32, 2.85713911056518550000e-001) (33, -3.37467372417449950000e-001) (34, -3.21153730154037480000e-001) (35, -5.52788078784942630000e-001) (36, -7.00352072715759280000e-001) (37, -3.42238396406173710000e-001) (38, -4.94624793529510500000e-001) (39, -5.52648603916168210000e-002) (40, -9.28860157728195190000e-002) (41, -3.94079893827438350000e-001) (42, -2.78793841600418090000e-001) (43, -5.92489063739776610000e-001) (44, -7.84715414047241210000e-001) (45, -3.54094445705413820000e-001) (46, -8.01705569028854370000e-002) (47, -4.07234467566013340000e-002) (48, -1.11147189140319820000e+000) (0, -4.86791506409645080000e-002) (1, -7.86301344633102420000e-002) (2, -1.20284125208854680000e-001) (3, -1.78330555558204650000e-001) (4, -2.78922706842422490000e-001) (5, -2.60058864951133730000e-002) (6, -3.70140075683593750000e-002) (7, -1.77287220954895020000e-001) (8, -9.35159772634506230000e-002) (9, -1.48260995745658870000e-001) (10, -9.21154245734214780000e-002) (11, -2.06730097532272340000e-001) (12, -1.85612410306930540000e-001) (13, -1.20900057256221770000e-001) (14, -1.05685167014598850000e-001) (15, 2.69591677933931350000e-002) (16, -9.07359719276428220000e-002) (17, -1.99349597096443180000e-001) (18, -2.37850755453109740000e-001) (19, -2.76759892702102660000e-001) (20, -2.34774991869926450000e-001) (21, -1.82193920016288760000e-001) (22, -9.83220189809799190000e-002) (23, -2.83639460802078250000e-001) (24, -4.97424937784671780000e-002) (25, -1.99851900339126590000e-001) (26, -3.09939622879028320000e-001) (27, -2.66334056854248050000e-001) (28, -3.42735648155212400000e-001) (29, -3.32997053861618040000e-001) (30, -2.48650029301643370000e-001) (31, -2.35944494605064390000e-001) (32, -9.39218606799840930000e-003) (33, -2.12164655327796940000e-001) (34, -2.58426994085311890000e-001) (35, -3.66565763950347900000e-001) (36, -3.94340693950653080000e-001) (37, -3.07698696851730350000e-001) (38, -2.63406723737716670000e-001) (39, -4.41895760595798490000e-002) (40, 5.28565049171447750000e-002) (41, -1.26012355089187620000e-001) (42, -7.20841139554977420000e-002) (43, -3.91215950250625610000e-001) (44, -3.89292925596237180000e-001) (45, -1.45381823182106020000e-001) (46, -9.86578017473220830000e-002) (47, -2.35320404171943660000e-002) (48, -1.39696121215820310000e+000) (0, -3.19794684648513790000e-001) (1, -5.45997023582458500000e-001) (2, -6.26396596431732180000e-001) (3, -5.70440590381622310000e-001) (4, -5.55419445037841800000e-001) (5, -4.79913502931594850000e-002) (6, -1.77250161767005920000e-001) (7, -4.20196354389190670000e-001) (8, -1.77501961588859560000e-001) (9, -6.06621921062469480000e-001) (10, -3.43857914209365840000e-001) (11, -3.44333380460739140000e-001) (12, -7.24509835243225100000e-001) (13, -3.48837077617645260000e-001) (14, -1.24601885676383970000e-001) (15, -2.67168551683425900000e-001) (16, 3.66197586059570310000e-001) (17, -2.30137303471565250000e-001) (18, -3.06264963001012800000e-002) (19, -9.56432521343231200000e-001) (20, -7.04966366291046140000e-001) (21, -6.15375399589538570000e-001) (22, -3.98342132568359380000e-001) (23, -4.98980015516281130000e-001) (24, 6.99899554252624510000e-001) (25, 1.62056297063827510000e-001) (26, -4.21690149232745170000e-003) (27, -4.22865808010101320000e-001) (28, -3.89871567487716670000e-001) (29, -5.87349474430084230000e-001) (30, -4.17822360992431640000e-001) (31, -7.78518557548522950000e-001) (32, -2.63716727495193480000e-001) (33, 2.37243637442588810000e-001) (34, 2.62117445468902590000e-001) (35, -1.07345841825008390000e-001) (36, -5.22667348384857180000e-001) (37, -4.14152413606643680000e-001) (38, -5.89826643466949460000e-001) (39, -4.00962769985198970000e-001) (40, -2.83100992441177370000e-001) (41, -1.76829740405082700000e-001) (42, 4.59296345710754390000e-001) (43, 9.69603955745697020000e-002) (44, -5.38493633270263670000e-001) (45, 4.96526136994361880000e-002) (46, -2.32267737388610840000e-001) (47, -2.74359077215194700000e-001) (48, -1.31672394275665280000e+000) (0, 8.39406028389930730000e-002) (1, -1.05206862092018130000e-001) (2, 1.73915084451437000000e-002) (3, -1.13588616251945500000e-001) (4, -1.88644647598266600000e-001) (5, -5.11561445891857150000e-002) (6, -4.33066450059413910000e-002) (7, 3.27161164022982120000e-003) (8, -1.51478826999664310000e-001) (9, -2.05853790044784550000e-001) (10, -1.00796651095151900000e-002) (11, -6.66966959834098820000e-002) (12, -4.42600667476654050000e-001) (13, -3.97257655858993530000e-002) (14, 7.80071318149566650000e-002) (15, -2.39624962210655210000e-001) (16, -1.32725954055786130000e-001) (17, -2.60832607746124270000e-001) (18, 1.61185525357723240000e-002) (19, -2.63518422842025760000e-001) (20, -3.74417006969451900000e-001) (21, -2.05867722630500790000e-001) (22, -1.96608319878578190000e-001) (23, 2.75820165872573850000e-001) (24, -2.03451797366142270000e-001) (25, -4.92838360369205470000e-002) (26, -5.57107627391815190000e-002) (27, -1.19075722992420200000e-001) (28, -3.22853267192840580000e-001) (29, 2.74425484240055080000e-002) (30, 2.24139541387557980000e-001) (31, 3.47599685192108150000e-001) (32, -8.78501236438751220000e-002) (33, -1.31473004817962650000e-001) (34, 2.05924302339553830000e-001) (35, -9.71421301364898680000e-002) (36, -1.16117902100086210000e-001) (37, -2.73451618850231170000e-002) (38, 1.72650173306465150000e-001) (39, 4.60456199944019320000e-002) (40, 4.71033677458763120000e-002) (41, 8.05031415075063710000e-003) (42, 1.61288902163505550000e-002) (43, -1.85076519846916200000e-001) (44, -1.32133319973945620000e-001) (45, 4.65353392064571380000e-003) (46, -1.01852621883153920000e-002) (47, 7.28754252195358280000e-002) (48, -1.75575637817382810000e+000) (0, -9.38260331749916080000e-002) (1, -4.91922833025455470000e-002) (2, -7.20747262239456180000e-002) (3, -1.20070256292819980000e-001) (4, -2.85350382328033450000e-001) (5, -2.94713854789733890000e-001) (6, -1.40012949705123900000e-001) (7, 5.39123564958572390000e-002) (8, -1.04266054928302760000e-001) (9, -3.95378053188323970000e-001) (10, 3.92327345907688140000e-002) (11, -1.37558311223983760000e-001) (12, -3.72497856616973880000e-001) (13, -3.58222201466560360000e-002) (14, -1.17879815399646760000e-001) (15, -7.64628574252128600000e-002) (16, -3.14725637435913090000e-001) (17, -3.65213721990585330000e-001) (18, -3.49505096673965450000e-002) (19, -3.54467570781707760000e-001) (20, -1.41458183526992800000e-001) (21, -2.36832976341247560000e-001) (22, -1.99938893318176270000e-001) (23, -1.23166002333164220000e-001) (24, -2.31902793049812320000e-001) (25, -2.26021423935890200000e-001) (26, -2.87555754184722900000e-001) (27, -3.55225265026092530000e-001) (28, -2.61036992073059080000e-001) (29, -3.02393496036529540000e-001) (30, -2.82981872558593750000e-001) (31, 2.55898926407098770000e-002) (32, 2.62503009289503100000e-002) (33, -3.02021056413650510000e-001) (34, -4.43832218647003170000e-001) (35, -3.17510247230529790000e-001) (36, -2.54865348339080810000e-001) (37, -1.63079857826232910000e-001) (38, 5.37576414644718170000e-002) (39, -7.16135427355766300000e-002) (40, 1.08526654541492460000e-001) (41, -1.05225451290607450000e-001) (42, -8.56997258961200710000e-003) (43, -5.07368803024291990000e-001) (44, -2.40807175636291500000e-001) (45, -1.90441086888313290000e-001) (46, -1.34985119104385380000e-001) (47, -1.25653976574540140000e-002) (48, -1.45044279098510740000e+000) (0, -2.06109166145324710000e-001) (1, -1.64674907922744750000e-001) (2, -3.36791761219501500000e-002) (3, -8.80581811070442200000e-002) (4, -1.30572900176048280000e-001) (5, -8.36812406778335570000e-002) (6, -1.36030107736587520000e-001) (7, -2.16804277151823040000e-002) (8, -2.42247924208641050000e-001) (9, -1.10299617052078250000e-001) (10, -6.33231503888964650000e-003) (11, 2.78845131397247310000e-002) (12, -3.19408953189849850000e-001) (13, -2.14763879776000980000e-001) (14, -2.18926057219505310000e-001) (15, 6.66991760954260830000e-003) (16, -6.16620704531669620000e-002) (17, -2.26835478097200390000e-002) (18, 3.69368642568588260000e-002) (19, -5.74965141713619230000e-002) (20, -2.57120840251445770000e-002) (21, -3.11641544103622440000e-002) (22, -1.26416189596056940000e-002) (23, -2.04128041863441470000e-001) (24, 3.57751511037349700000e-002) (25, -1.55232334509491920000e-002) (26, -5.69828152656555180000e-002) (27, -2.02321097254753110000e-001) (28, -2.92348444461822510000e-001) (29, -1.46980404853820800000e-001) (30, -9.89027619361877440000e-002) (31, -1.04933276772499080000e-001) (32, 8.38767588138580320000e-002) (33, -3.07660829275846480000e-002) (34, -9.21990722417831420000e-002) (35, -2.32093721628189090000e-001) (36, -1.96684494614601140000e-001) (37, -1.89798220992088320000e-001) (38, -9.03333500027656560000e-002) (39, -1.45477458834648130000e-001) (40, 8.76403450965881350000e-002) (41, 4.13564331829547880000e-002) (42, -1.01632498204708100000e-001) (43, -2.90909498929977420000e-001) (44, -1.73259109258651730000e-001) (45, -1.56252294778823850000e-001) (46, -6.25428259372711180000e-002) (47, -1.45642966032028200000e-001) (48, -1.58418810367584230000e+000) (0, -2.26904451847076420000e-001) (1, -4.03565727174282070000e-002) (2, 1.20144739747047420000e-001) (3, 3.10971960425376890000e-002) (4, 2.47125148773193360000e-001) (5, -2.15701367706060410000e-002) (6, -5.64866185188293460000e-001) (7, -4.02709841728210450000e-001) (8, -4.26892265677452090000e-002) (9, 2.41958484053611760000e-001) (10, 4.13599938154220580000e-001) (11, 1.70868888497352600000e-001) (12, 1.07818590477108960000e-002) (13, -8.31584095954895020000e-001) (14, -7.47111141681671140000e-001) (15, -2.85640675574541090000e-002) (16, 1.63475394248962400000e-001) (17, 5.38302838802337650000e-001) (18, 2.88555860519409180000e-001) (19, 4.43969100713729860000e-001) (20, 2.64456868171691890000e-001) (21, -2.21674218773841860000e-001) (22, 5.53150117397308350000e-001) (23, 1.53339087963104250000e-001) (24, 2.32443735003471370000e-001) (25, 5.89052736759185790000e-002) (26, 5.22744715213775630000e-001) (27, -2.37842142581939700000e-001) (28, -6.03098213672637940000e-001) (29, -2.47016757726669310000e-001) (30, 1.99948661029338840000e-002) (31, 2.82396525144577030000e-001) (32, 7.83645287156105040000e-002) (33, 4.91303950548172000000e-001) (34, 1.47442460060119630000e-001) (35, -5.26903986930847170000e-001) (36, -1.93162009119987490000e-001) (37, -2.77494788169860840000e-001) (38, 1.60961851477622990000e-001) (39, -3.90495061874389650000e-001) (40, 1.82018168270587920000e-002) (41, -2.31032297015190120000e-002) (42, -6.29898965358734130000e-001) (43, -3.05903345346450810000e-001) (44, -2.98912227153778080000e-001) (45, -5.47339439392089840000e-001) (46, -2.48438939452171330000e-001) (47, -2.90888905525207520000e-001) (48, -1.76497590541839600000e+000) (0, -1.15114830434322360000e-001) (1, -1.60828560590744020000e-001) (2, -1.44323319196701050000e-001) (3, -1.81363120675086980000e-001) (4, -9.36124846339225770000e-002) (5, -8.84992405772209170000e-002) (6, -1.29579871892929080000e-001) (7, -1.77058383822441100000e-001) (8, -1.02693336084485050000e-002) (9, -9.99511182308197020000e-002) (10, -1.90196819603443150000e-002) (11, -1.37326708063483240000e-002) (12, -2.93446630239486690000e-001) (13, -1.36376425623893740000e-001) (14, -1.99643373489379880000e-001) (15, -1.38355612754821780000e-001) (16, -5.60829192399978640000e-002) (17, 4.80023548007011410000e-002) (18, -2.12624058127403260000e-001) (19, -1.65976867079734800000e-001) (20, -2.09182292222976680000e-001) (21, -1.99129223823547360000e-001) (22, -1.82698406279087070000e-002) (23, -1.53750076889991760000e-001) (24, 3.46128619275987150000e-003) (25, 2.30946242809295650000e-002) (26, -8.19581151008605960000e-002) (27, -5.16847409307956700000e-002) (28, -1.47296682000160220000e-001) (29, -8.26651379466056820000e-002) (30, -1.54280364513397220000e-001) (31, -1.41951456665992740000e-001) (32, -1.12087614834308620000e-001) (33, -5.54452314972877500000e-002) (34, 1.94957498461008070000e-002) (35, -1.60066515207290650000e-001) (36, -2.21214041113853450000e-001) (37, -2.05910563468933110000e-001) (38, -1.23656943440437320000e-001) (39, -9.82613041996955870000e-002) (40, -1.64447546005249020000e-001) (41, -4.78674545884132390000e-002) (42, -5.28850629925727840000e-002) (43, -1.09463617205619810000e-001) (44, -2.34708458185195920000e-001) (45, 4.05888725072145460000e-003) (46, -1.90056681632995610000e-001) (47, -9.84294340014457700000e-002) (48, -1.55960905551910400000e+000) (0, -2.29532241821289060000e-001) (1, -1.16482213139534000000e-001) (2, -1.06267314404249190000e-002) (3, -2.12467372417449950000e-001) (4, -1.81029781699180600000e-001) (5, -1.09530024230480190000e-001) (6, -2.19332680106163020000e-001) (7, -1.32028967142105100000e-001) (8, -3.60853821039199830000e-002) (9, 5.86203336715698240000e-002) (10, 1.30517035722732540000e-001) (11, -1.58330984413623810000e-002) (12, -3.24505090713500980000e-001) (13, -2.22471877932548520000e-001) (14, -3.03396493196487430000e-001) (15, 1.74060016870498660000e-001) (16, -1.02697107940912250000e-002) (17, 2.51295547932386400000e-002) (18, -1.26342356204986570000e-001) (19, -3.94959636032581330000e-002) (20, -1.56421363353729250000e-001) (21, 2.03649364411830900000e-002) (22, 5.71347139775753020000e-002) (23, -2.95921474695205690000e-001) (24, 1.44657194614410400000e-001) (25, -1.62366069853305820000e-002) (26, -7.71221294999122620000e-002) (27, -2.25923418998718260000e-001) (28, -3.81261467933654790000e-001) (29, -1.57770782709121700000e-001) (30, -2.85307496786117550000e-001) (31, -2.46941789984703060000e-001) (32, -3.01428828388452530000e-002) (33, -5.76462969183921810000e-002) (34, -1.70823603868484500000e-001) (35, -1.79916188120841980000e-001) (36, -3.16028058528900150000e-001) (37, -2.68027782440185550000e-001) (38, -1.18842735886573790000e-001) (39, -2.67737478017807010000e-001) (40, -1.81368533521890640000e-002) (41, -1.28237172961235050000e-001) (42, -1.23221866786479950000e-001) (43, -2.88263767957687380000e-001) (44, -3.85648995637893680000e-001) (45, -2.24716484546661380000e-001) (46, -1.82318568229675290000e-001) (47, -1.51032879948616030000e-001) (48, -1.55198860168457030000e+000) (0, 1.58372789621353150000e-001) (1, -4.70991469919681550000e-002) (2, -2.10217937827110290000e-001) (3, 7.28454142808914180000e-002) (4, -3.26985061168670650000e-001) (5, -2.28097531944513320000e-002) (6, -3.34070593118667600000e-001) (7, -1.97027727961540220000e-001) (8, 1.33912846446037290000e-001) (9, -1.47256746888160710000e-001) (10, -1.42444344237446780000e-003) (11, -3.03987950086593630000e-001) (12, 4.41856123507022860000e-002) (13, -9.74951758980751040000e-002) (14, -1.49886086583137510000e-001) (15, -1.54185473918914790000e-001) (16, 1.48633807897567750000e-001) (17, -1.67210757732391360000e-001) (18, -1.60071820020675660000e-001) (19, -1.08192600309848790000e-001) (20, -2.94185906648635860000e-001) (21, -9.78881642222404480000e-002) (22, -1.64569497108459470000e-001) (23, -1.77621483802795410000e-001) (24, 4.41972464323043820000e-002) (25, -1.45025134086608890000e-001) (26, -1.51172250509262080000e-001) (27, -4.46201264858245850000e-001) (28, 3.38071733713150020000e-002) (29, -1.69931173324584960000e-001) (30, -4.67614866793155670000e-002) (31, -2.51052826642990110000e-001) (32, -3.35901886224746700000e-001) (33, -3.05256575345993040000e-001) (34, -1.53010860085487370000e-001) (35, -3.55243146419525150000e-001) (36, -4.73150670528411870000e-001) (37, -5.80874830484390260000e-002) (38, -1.16838544607162480000e-001) (39, -5.41108958423137660000e-002) (40, -3.09508562088012700000e-001) (41, -3.17358791828155520000e-001) (42, -1.03343032300472260000e-001) (43, -3.73657852411270140000e-001) (44, -4.62729305028915410000e-001) (45, -1.62412032485008240000e-001) (46, -1.18788937106728550000e-002) (47, 1.72191172838211060000e-001) (48, -1.51099753379821780000e+000) (0, -3.47759164869785310000e-002) (1, -1.44198089838027950000e-001) (2, -8.97081941366195680000e-002) (3, -5.45534342527389530000e-002) (4, -2.35896557569503780000e-001) (5, -6.56218528747558590000e-002) (6, -1.60648286342620850000e-001) (7, 1.63347169291228060000e-003) (8, 1.17330858483910560000e-002) (9, -3.25077980756759640000e-001) (10, -9.07107815146446230000e-002) (11, -2.45241463184356690000e-001) (12, -5.86804971098899840000e-002) (13, -7.14334053918719290000e-003) (14, 7.16363042593002320000e-002) (15, -2.07964822649955750000e-001) (16, -1.02425459772348400000e-003) (17, -3.15454781055450440000e-001) (18, -1.07576116919517520000e-001) (19, -1.95663884282112120000e-001) (20, -3.08450013399124150000e-001) (21, -1.90890163183212280000e-001) (22, -8.73921439051628110000e-002) (23, 4.97568324208259580000e-002) (24, -1.52162253856658940000e-001) (25, -2.87907242774963380000e-001) (26, -1.99491038918495180000e-001) (27, -2.18212798237800600000e-001) (28, -2.80195444822311400000e-001) (29, -1.53244316577911380000e-001) (30, -7.55320712924003600000e-002) (31, 3.92031073570251460000e-002) (32, 4.52928282320499420000e-002) (33, -2.41695329546928410000e-001) (34, -1.53615713119506840000e-001) (35, -2.07502439618110660000e-001) (36, -3.47642540931701660000e-001) (37, -1.77333101630210880000e-001) (38, -1.33891537785530090000e-001) (39, -3.95980514585971830000e-002) (40, 3.05623859167099000000e-002) (41, -6.38872683048248290000e-002) (42, -1.87468975782394410000e-001) (43, -1.97201430797576900000e-001) (44, -1.84283331036567690000e-001) (45, -1.58375188708305360000e-001) (46, -5.27487620711326600000e-002) (47, -3.49388010799884800000e-002) (48, -1.57177674770355220000e+000) (0, -2.37855300307273860000e-001) (1, -1.14406161010265350000e-001) (2, -7.32289776206016540000e-002) (3, -1.51087194681167600000e-001) (4, -2.31899887323379520000e-001) (5, -1.68335497379302980000e-001) (6, 3.49858216941356660000e-003) (7, 6.10966682434082030000e-002) (8, -1.46216705441474910000e-001) (9, -1.22075624763965610000e-001) (10, -5.47064691781997680000e-002) (11, -7.82229676842689510000e-002) (12, -3.70024114847183230000e-001) (13, -7.15460553765296940000e-002) (14, -2.37978175282478330000e-001) (15, 1.67252615094184880000e-001) (16, -1.37183800339698790000e-001) (17, -1.31460160017013550000e-001) (18, -9.02154073119163510000e-002) (19, -2.46621757745742800000e-001) (20, -3.51043641567230220000e-002) (21, -2.07160696387290950000e-001) (22, -1.29412084817886350000e-001) (23, -2.45350420475006100000e-001) (24, -1.21415898203849790000e-001) (25, -1.58464163541793820000e-001) (26, -2.63018786907196040000e-001) (27, -2.10292488336563110000e-001) (28, -3.02927523851394650000e-001) (29, -1.20472006499767300000e-001) (30, -2.57898151874542240000e-001) (31, -5.61149530112743380000e-002) (32, 3.08245643973350520000e-002) (33, -8.33037719130516050000e-002) (34, -2.39477962255477910000e-001) (35, -1.43560335040092470000e-001) (36, -1.68524354696273800000e-001) (37, -2.42571696639060970000e-001) (38, -2.97678466886281970000e-002) (39, -1.50892481207847600000e-001) (40, 1.03393055498600010000e-001) (41, -1.21818929910659790000e-002) (42, 4.01056781411170960000e-002) (43, -4.57800209522247310000e-001) (44, -2.67115890979766850000e-001) (45, -2.75166541337966920000e-001) (46, -1.02655984461307530000e-001) (47, -2.10843503475189210000e-001) (48, -1.50872337818145750000e+000) (0, -1.42890363931655880000e-001) (1, -1.13855347037315370000e-001) (2, -1.08691781759262080000e-001) (3, -1.95848211646080020000e-001) (4, -9.81844663619995120000e-002) (5, -1.27047777175903320000e-001) (6, -1.25566557049751280000e-001) (7, 3.13078574836254120000e-002) (8, -1.08843363821506500000e-001) (9, -1.97464525699615480000e-001) (10, -1.21136546134948730000e-001) (11, -7.53788203001022340000e-002) (12, -1.19733408093452450000e-001) (13, -1.31178244948387150000e-001) (14, -1.69167742133140560000e-001) (15, 1.01550696417689320000e-002) (16, -8.45705792307853700000e-002) (17, -1.48327782750129700000e-001) (18, 7.03107640147209170000e-002) (19, 1.12499529495835300000e-002) (20, -9.08305943012237550000e-002) (21, -1.41098290681838990000e-001) (22, 8.24690088629722600000e-002) (23, -1.45763784646987920000e-001) (24, -1.61804512143135070000e-001) (25, -5.40727190673351290000e-002) (26, -8.41508507728576660000e-002) (27, -2.50341687351465230000e-002) (28, -3.00541639328002930000e-001) (29, 3.88182140886783600000e-002) (30, -5.13355471193790440000e-002) (31, -7.50409737229347230000e-002) (32, 9.27136614918708800000e-002) (33, 8.32065567374229430000e-003) (34, -1.59597769379615780000e-002) (35, -9.31992381811141970000e-002) (36, -1.58032059669494630000e-001) (37, -4.75461296737194060000e-002) (38, -5.42483776807785030000e-002) (39, -1.93056210875511170000e-001) (40, -2.45175845921039580000e-002) (41, 3.08183040469884870000e-002) (42, -1.72532312572002410000e-002) (43, -1.82603210210800170000e-001) (44, -1.57434806227684020000e-001) (45, -1.04517608880996700000e-001) (46, -1.44709974527359010000e-001) (47, -2.42016792297363280000e-001) (48, -1.59235966205596920000e+000) (0, 2.13455092161893840000e-002) (1, -1.59377723932266240000e-001) (2, -1.52378141880035400000e-001) (3, 1.52900405228137970000e-002) (4, -1.96443066000938420000e-001) (5, -1.93319767713546750000e-001) (6, -1.12644068896770480000e-001) (7, -1.25821903347969060000e-001) (8, -3.15746366977691650000e-002) (9, -3.74391645193099980000e-001) (10, -1.00434996187686920000e-001) (11, -1.51849046349525450000e-001) (12, -3.66388320922851560000e-001) (13, -1.29813283681869510000e-001) (14, 1.46423354744911190000e-001) (15, -1.76840648055076600000e-001) (16, -3.30835670232772830000e-001) (17, -6.45557641983032230000e-001) (18, -6.68440833687782290000e-002) (19, -3.59465777873992920000e-001) (20, -3.78777652978897090000e-001) (21, -2.52561599016189580000e-001) (22, -1.20065115392208100000e-001) (23, 2.25727364420890810000e-001) (24, -4.32699561119079590000e-001) (25, -4.75968390703201290000e-001) (26, -3.45696002244949340000e-001) (27, -3.60341101884841920000e-001) (28, -4.07893031835556030000e-001) (29, -3.66820335388183590000e-001) (30, -4.86132614314556120000e-002) (31, 2.49100401997566220000e-001) (32, -1.39998570084571840000e-001) (33, -5.68081855773925780000e-001) (34, -2.33677029609680180000e-001) (35, -4.38627660274505620000e-001) (36, -2.51803815364837650000e-001) (37, -1.48029059171676640000e-001) (38, -7.23487511277198790000e-002) (39, -6.36895820498466490000e-002) (40, 7.43149220943450930000e-003) (41, -2.70554155111312870000e-001) (42, -1.53927430510520940000e-002) (43, -4.58120852708816530000e-001) (44, -2.75090783834457400000e-001) (45, -1.47306337952613830000e-001) (46, 2.65521872788667680000e-002) (47, -4.33551743626594540000e-002) (48, -1.53627836704254150000e+000) (0, -9.47748646140098570000e-002) (1, 1.38440921902656560000e-001) (2, 4.94763791561126710000e-001) (3, 2.22304448485374450000e-001) (4, -6.20368063449859620000e-001) (5, -5.83595156669616700000e-001) (6, -4.23021882772445680000e-001) (7, 6.51858821511268620000e-002) (8, 7.06498742103576660000e-001) (9, -3.98543067276477810000e-002) (10, -8.12420696020126340000e-002) (11, -1.18712773546576500000e-002) (12, -8.98492217063903810000e-001) (13, -1.12290300428867340000e-001) (14, -2.12732195854187010000e-001) (15, 2.42925941944122310000e-001) (16, -2.69309699535369870000e-001) (17, -1.77699103951454160000e-002) (18, -3.73761743307113650000e-001) (19, -4.58474904298782350000e-001) (20, -8.57262849807739260000e-001) (21, -8.65325093269348140000e-001) (22, -5.03192126750946040000e-001) (23, -1.13693225383758540000e+000) (24, 8.35176631808280940000e-002) (25, -3.08577269315719600000e-001) (26, -7.50294208526611330000e-001) (27, -5.98608732223510740000e-001) (28, -8.27781081199646000000e-001) (29, -7.36066341400146480000e-001) (30, -1.01713955402374270000e+000) (31, -7.51148283481597900000e-001) (32, -9.65211763978004460000e-002) (33, -7.28149592876434330000e-001) (34, -8.74232828617095950000e-001) (35, -1.53075575828552250000e+000) (36, -9.22130048274993900000e-001) (37, -6.41806066036224370000e-001) (38, -2.13822588324546810000e-001) (39, 1.39488428831100460000e-001) (40, 1.08952909708023070000e-001) (41, -6.63453638553619380000e-001) (42, -4.01413053274154660000e-001) (43, -1.98259699344635010000e+000) (44, -8.02609384059906010000e-001) (45, -5.11323213577270510000e-001) (46, 3.94303143024444580000e-001) (47, 1.42984315752983090000e-001) (48, -2.27311432361602780000e-001) (0, 2.84699276089668270000e-002) (1, -2.02558457851409910000e-001) (2, -7.76670798659324650000e-002) (3, -1.81446582078933720000e-001) (4, -3.72205197811126710000e-001) (5, -1.35074809193611150000e-001) (6, 2.66102571040391920000e-002) (7, 1.23237274587154390000e-001) (8, -1.25197142362594600000e-001) (9, -4.11579191684722900000e-001) (10, -2.00729250907897950000e-001) (11, -2.32076436281204220000e-001) (12, -3.04265439510345460000e-001) (13, -8.09455215930938720000e-002) (14, 5.12415580451488490000e-002) (15, -8.91459360718727110000e-002) (16, -3.88648629188537600000e-001) (17, -3.82142752408981320000e-001) (18, -2.13341236114501950000e-001) (19, -2.54532605409622190000e-001) (20, -2.15933978557586670000e-001) (21, -2.80691444873809810000e-001) (22, -1.32071122527122500000e-001) (23, -1.87589183449745180000e-001) (24, -3.31933587789535520000e-001) (25, -2.68611282110214230000e-001) (26, -2.76178181171417240000e-001) (27, -3.54697823524475100000e-001) (28, -2.78825819492340090000e-001) (29, -1.83339834213256840000e-001) (30, -2.89950162172317500000e-001) (31, -1.05340480804443360000e-001) (32, -1.24253025278449060000e-002) (33, -3.31287235021591190000e-001) (34, -3.55127304792404170000e-001) (35, -4.24081593751907350000e-001) (36, -2.70910054445266720000e-001) (37, -2.84550338983535770000e-001) (38, -1.63561850786209110000e-001) (39, -9.25893411040306090000e-002) (40, 2.69536785781383510000e-002) (41, -1.87496751546859740000e-001) (42, -3.40116024017333980000e-002) (43, -7.01345503330230710000e-001) (44, -3.39656561613082890000e-001) (45, -2.37084075808525090000e-001) (46, -9.12032127380371090000e-002) (47, -1.19234547019004820000e-001) (48, -1.36026513576507570000e+000) (0, -3.32161217927932740000e-001) (1, -4.91749607026577000000e-002) (2, 3.71759831905364990000e-001) (3, 1.93948782980442050000e-002) (4, -1.01274326443672180000e-001) (5, -2.13382259011268620000e-001) (6, -2.06859230995178220000e-001) (7, 7.00704231858253480000e-002) (8, -7.84261450171470640000e-002) (9, 3.21291357278823850000e-001) (10, 3.52205395698547360000e-001) (11, 2.05274894833564760000e-001) (12, -4.39342767000198360000e-001) (13, -4.16878163814544680000e-001) (14, -5.68408846855163570000e-001) (15, 2.20039740204811100000e-001) (16, 6.31051436066627500000e-002) (17, 4.48851674795150760000e-001) (18, 1.59876763820648190000e-001) (19, -8.22749808430671690000e-002) (20, -2.15438067913055420000e-001) (21, -1.11383110284805300000e-001) (22, 8.31832960247993470000e-002) (23, -2.70082831382751460000e-001) (24, 3.63046675920486450000e-001) (25, -1.45305186510086060000e-001) (26, 2.62147206813097000000e-002) (27, -3.94571214914321900000e-001) (28, -4.91235077381134030000e-001) (29, -1.55289798974990840000e-001) (30, -3.43916624784469600000e-001) (31, -2.04747647047042850000e-001) (32, 2.26784780621528630000e-001) (33, 3.01263779401779170000e-002) (34, -6.75141736865043640000e-002) (35, -4.21712696552276610000e-001) (36, -4.97867286205291750000e-001) (37, -3.28087478876113890000e-001) (38, -9.34198275208473210000e-002) (39, -3.61192256212234500000e-001) (40, -6.54563456773757930000e-002) (41, -1.53652697801589970000e-001) (42, -5.07874488830566410000e-001) (43, -4.10613387823104860000e-001) (44, -5.69267451763153080000e-001) (45, -3.51891279220581050000e-001) (46, -2.07669064402580260000e-001) (47, -4.22761291265487670000e-001) (48, -1.72350025177001950000e+000) (0, 4.95191253721714020000e-002) (1, 2.09610775113105770000e-001) (2, 1.37556895613670350000e-001) (3, 1.10860811546444890000e-002) (4, -1.14704430103302000000e-001) (5, -2.47074663639068600000e-001) (6, -2.18925371766090390000e-001) (7, -8.46505463123321530000e-002) (8, 2.02543541789054870000e-001) (9, 3.95898431539535520000e-001) (10, 3.47392588853836060000e-001) (11, 9.04426127672195430000e-002) (12, -3.80745291709899900000e-001) (13, -3.11696290969848630000e-001) (14, -1.57827422022819520000e-001) (15, -6.32950305938720700000e-001) (16, 4.91448909044265750000e-001) (17, 4.94410365819931030000e-001) (18, 4.98768910765647890000e-002) (19, 1.65438741445541380000e-001) (20, -3.57786834239959720000e-001) (21, -7.69507586956024170000e-002) (22, 2.16972716152668000000e-002) (23, 3.12453210353851320000e-001) (24, 5.52232503890991210000e-001) (25, 5.51326215267181400000e-001) (26, 5.41912078857421880000e-001) (27, 3.54271143674850460000e-001) (28, 3.59730511903762820000e-001) (29, 1.49002090096473690000e-001) (30, 4.24855709075927730000e-001) (31, 5.90947151184082030000e-001) (32, -4.65141206979751590000e-001) (33, 3.54844182729721070000e-001) (34, 5.25284647941589360000e-001) (35, 2.80551224946975710000e-001) (36, -1.26239806413650510000e-001) (37, 6.01925373077392580000e-001) (38, 3.49508583545684810000e-001) (39, 7.10527896881103520000e-002) (40, -5.23474276065826420000e-001) (41, -9.31271910667419430000e-002) (42, 1.13587819039821620000e-001) (43, 6.10194027423858640000e-001) (44, 5.22003054618835450000e-001) (45, 3.87979418039321900000e-001) (46, 3.62270236015319820000e-001) (47, 1.83883175253868100000e-001) (48, -1.94826912879943850000e+000) (0, -1.47489756345748900000e-001) (1, -8.59708711504936220000e-002) (2, -6.01512007415294650000e-002) (3, -1.62613660097122190000e-001) (4, -3.88931244611740110000e-001) (5, -1.38087883591651920000e-001) (6, -6.38046711683273320000e-002) (7, -3.04456800222396850000e-002) (8, -2.03112632036209110000e-001) (9, -1.92514061927795410000e-001) (10, -3.79595644772052760000e-002) (11, -4.26715724170207980000e-002) (12, -3.93108367919921880000e-001) (13, -6.17845095694065090000e-002) (14, -9.09666642546653750000e-002) (15, 1.62521630525588990000e-001) (16, -1.54485747218132020000e-001) (17, -7.68680348992347720000e-002) (18, -4.74328063428401950000e-002) (19, -2.77989089488983150000e-001) (20, -2.35016137361526490000e-001) (21, -3.31855505704879760000e-001) (22, -1.91355094313621520000e-001) (23, -3.49704235792160030000e-001) (24, -1.71973466873168950000e-001) (25, -2.23948538303375240000e-001) (26, -4.19451683759689330000e-001) (27, -2.25204601883888240000e-001) (28, -4.82689380645751950000e-001) (29, -1.08626224100589750000e-001) (30, -2.85549283027648930000e-001) (31, -3.38780581951141360000e-001) (32, 1.03559657931327820000e-001) (33, -3.34039986133575440000e-001) (34, -2.84992367029190060000e-001) (35, -4.02866423130035400000e-001) (36, -3.03892165422439580000e-001) (37, -3.00422847270965580000e-001) (38, -2.54336744546890260000e-001) (39, -1.78637593984603880000e-001) (40, 2.03708902001380920000e-001) (41, -1.77256334573030470000e-002) (42, 1.82601697742939000000e-002) (43, -6.99575543403625490000e-001) (44, -4.15863931179046630000e-001) (45, -2.37445652484893800000e-001) (46, -1.18755057454109190000e-001) (47, -1.51098743081092830000e-001) (48, -1.31798124313354490000e+000) (0, -1.85628071427345280000e-001) (1, -2.38032117486000060000e-001) (2, -1.02420598268508910000e-001) (3, -1.42050608992576600000e-001) (4, -4.12001341581344600000e-001) (5, -1.92807704210281370000e-001) (6, 7.78000950813293460000e-002) (7, 2.85955518484115600000e-001) (8, -1.77727088332176210000e-001) (9, -2.51705318689346310000e-001) (10, -1.17474831640720370000e-001) (11, -4.99067381024360660000e-002) (12, -5.62235474586486820000e-001) (13, -6.43858984112739560000e-002) (14, 4.39628325402736660000e-002) (15, 1.88829407095909120000e-001) (16, -3.42452257871627810000e-001) (17, -3.12799483537673950000e-001) (18, -7.72223696112632750000e-002) (19, -3.02331119775772090000e-001) (20, -2.55657345056533810000e-001) (21, -1.13823942840099330000e-001) (22, -6.76320567727088930000e-002) (23, -2.34773546457290650000e-001) (24, -4.19528156518936160000e-001) (25, -8.80810543894767760000e-002) (26, -3.69927465915679930000e-001) (27, -4.07903075218200680000e-001) (28, -2.63525873422622680000e-001) (29, -9.08021405339241030000e-002) (30, -3.91350835561752320000e-001) (31, -2.29865193367004390000e-001) (32, 2.19196632504463200000e-001) (33, -2.99050182104110720000e-001) (34, -3.97112041711807250000e-001) (35, -3.15302491188049320000e-001) (36, -2.50956714153289790000e-001) (37, -2.73134261369705200000e-001) (38, -1.62885323166847230000e-001) (39, -2.05751463770866390000e-001) (40, 3.64888638257980350000e-001) (41, -5.13398759067058560000e-002) (42, 1.37184977531433110000e-001) (43, -7.23482191562652590000e-001) (44, -4.41399812698364260000e-001) (45, -3.22599172592163090000e-001) (46, -9.79061424732208250000e-002) (47, -2.09624633193016050000e-001) (48, -1.34675359725952150000e+000) (0, -5.03069683909416200000e-002) (1, -1.90708473324775700000e-001) (2, -1.59574598073959350000e-001) (3, -1.52175620198249820000e-001) (4, -2.81419515609741210000e-001) (5, -1.62663042545318600000e-001) (6, -1.41713708639144900000e-001) (7, -1.69935375452041630000e-001) (8, 5.43642751872539520000e-002) (9, -1.99874997138977050000e-001) (10, -2.09468245506286620000e-001) (11, -1.72840148210525510000e-001) (12, -1.18997119367122650000e-001) (13, -1.95172339677810670000e-001) (14, -8.35259407758712770000e-002) (15, -1.68654263019561770000e-001) (16, 1.25102475285530090000e-001) (17, -2.53379940986633300000e-002) (18, -2.04006522893905640000e-001) (19, -3.14782470464706420000e-001) (20, -3.82362574338912960000e-001) (21, -1.66163831949234010000e-001) (22, -4.37455959618091580000e-002) (23, -2.41796020418405530000e-002) (24, 1.73489540815353390000e-001) (25, 3.89722362160682680000e-002) (26, -1.05896703898906710000e-002) (27, -1.38154685497283940000e-001) (28, -1.55321598052978520000e-001) (29, -1.12457931041717530000e-001) (30, -8.94045680761337280000e-002) (31, -1.65056973695755000000e-001) (32, -6.31322562694549560000e-002) (33, -1.10822834074497220000e-001) (34, -9.50526818633079530000e-002) (35, -1.83352634310722350000e-001) (36, -3.72352987527847290000e-001) (37, -2.38461911678314210000e-001) (38, -1.16464063525199890000e-001) (39, -8.85233208537101750000e-002) (40, -2.24767953157424930000e-001) (41, -1.97047233581542970000e-001) (42, 1.07154492288827900000e-002) (43, -8.93823057413101200000e-002) (44, -2.70481258630752560000e-001) (45, -1.88955992460250850000e-001) (46, -1.69541105628013610000e-001) (47, -1.13720148801803590000e-001) (48, -1.57750248908996580000e+000) (0, 1.39598309993743900000e-001) (1, -1.72269325703382490000e-002) (2, -2.17001989483833310000e-001) (3, 7.48369470238685610000e-002) (4, -2.03228622674942020000e-001) (5, -1.72601312398910520000e-001) (6, -2.09912896156311040000e-001) (7, -1.26139774918556210000e-001) (8, -5.00360801815986630000e-002) (9, -4.12591874599456790000e-001) (10, -2.87138134241104130000e-001) (11, -3.82160305976867680000e-001) (12, 1.11106120049953460000e-001) (13, -5.67115880548954010000e-002) (14, 9.33932363986968990000e-002) (15, -1.58274829387664790000e-001) (16, -2.60528236627578740000e-001) (17, -6.76704525947570800000e-001) (18, -3.61612230539321900000e-001) (19, -5.53067564964294430000e-001) (20, -4.47686910629272460000e-001) (21, -2.02875122427940370000e-001) (22, -2.21375465393066410000e-001) (23, -1.34910732507705690000e-001) (24, -2.94988811016082760000e-001) (25, -5.52238404750823970000e-001) (26, -4.19966191053390500000e-001) (27, -5.14522314071655270000e-001) (28, -3.32813799381256100000e-001) (29, -5.02473771572113040000e-001) (30, -2.65217363834381100000e-001) (31, -3.45197677612304690000e-001) (32, -2.41193041205406190000e-001) (33, -5.31574428081512450000e-001) (34, -5.77067852020263670000e-001) (35, -8.02474558353424070000e-001) (36, -6.21622323989868160000e-001) (37, -3.11277776956558230000e-001) (38, -4.12487000226974490000e-001) (39, -2.93135903775691990000e-002) (40, 5.68169690668582920000e-002) (41, -3.28223913908004760000e-001) (42, -1.07057094573974610000e-001) (43, -8.50930035114288330000e-001) (44, -5.81474125385284420000e-001) (45, -4.42129164934158330000e-001) (46, -1.23168058693408970000e-001) (47, -1.09848916530609130000e-001) (48, -1.05600035190582280000e+000) (0, -1.96070019155740740000e-002) (1, -1.18275903165340420000e-001) (2, 3.06233298033475880000e-002) (3, -1.31659120321273800000e-001) (4, -2.73323506116867070000e-001) (5, -1.72458335757255550000e-001) (6, -2.44089707732200620000e-001) (7, -1.68624982237815860000e-001) (8, 1.59112423658370970000e-001) (9, 2.48624160885810850000e-001) (10, 1.79144591093063350000e-001) (11, 1.00637756288051610000e-001) (12, -3.15869301557540890000e-001) (13, -4.78037953376770020000e-001) (14, -2.59919881820678710000e-001) (15, -2.25317046046257020000e-001) (16, 3.33276301622390750000e-001) (17, 3.15517008304595950000e-001) (18, -5.69691732525825500000e-002) (19, 7.08523839712142940000e-002) (20, -5.25908172130584720000e-002) (21, 5.77396489679813390000e-002) (22, 1.16847261786460880000e-001) (23, -2.40387134253978730000e-002) (24, 1.15103803575038910000e-001) (25, 1.89930886030197140000e-001) (26, 2.00946837663650510000e-001) (27, 2.70083010196685790000e-001) (28, 2.77903527021408080000e-001) (29, 1.74400433897972110000e-002) (30, 6.74023702740669250000e-002) (31, 3.78057777881622310000e-001) (32, -3.35693746805191040000e-001) (33, 1.83222174644470210000e-001) (34, 1.68331280350685120000e-001) (35, 5.16554787755012510000e-002) (36, -1.43721789121627810000e-001) (37, 9.52935963869094850000e-002) (38, 1.61289632320404050000e-001) (39, 2.62530660256743430000e-003) (40, -3.81614476442337040000e-001) (41, -8.00144970417022710000e-002) (42, -1.35431677103042600000e-001) (43, 8.36698859930038450000e-002) (44, 8.50619450211524960000e-002) (45, 1.94553062319755550000e-001) (46, 2.23545119166374210000e-001) (47, -6.97813406586647030000e-002) (48, -1.74884545803070070000e+000) (0, 9.35500673949718480000e-003) (1, -1.20944358408451080000e-001) (2, -3.11451405286788940000e-001) (3, -2.68039941787719730000e-001) (4, -3.97159606218338010000e-001) (5, 7.47644482180476190000e-003) (6, -2.05898061394691470000e-001) (7, -2.73774445056915280000e-001) (8, -7.23577141761779790000e-002) (9, -3.15821081399917600000e-001) (10, -2.21112057566642760000e-001) (11, -2.30383187532424930000e-001) (12, -3.59197258949279790000e-001) (13, -1.02962724864482880000e-001) (14, -6.51383027434349060000e-002) (15, -1.90017655491828920000e-001) (16, -6.20319461449980740000e-003) (17, -3.04287225008010860000e-001) (18, -3.34716886281967160000e-001) (19, -4.50667858123779300000e-001) (20, -4.75710749626159670000e-001) (21, -3.43398302793502810000e-001) (22, -2.94756114482879640000e-001) (23, -3.66757243871688840000e-001) (24, 2.13193610310554500000e-001) (25, -1.38776242733001710000e-001) (26, -2.46485441923141480000e-001) (27, -4.27930861711502080000e-001) (28, -3.51428419351577760000e-001) (29, -3.96084308624267580000e-001) (30, -2.01494172215461730000e-001) (31, -5.74432611465454100000e-001) (32, -1.90577879548072810000e-001) (33, -2.57374703884124760000e-001) (34, -1.54259532690048220000e-001) (35, -4.22992765903472900000e-001) (36, -5.27627348899841310000e-001) (37, -3.50539863109588620000e-001) (38, -5.50000607967376710000e-001) (39, -1.73252373933792110000e-001) (40, -1.06367267668247220000e-001) (41, -2.64866650104522710000e-001) (42, 1.62860210984945300000e-002) (43, -1.99568167328834530000e-001) (44, -4.52650308609008790000e-001) (45, -1.54849469661712650000e-001) (46, -2.40505099296569820000e-001) (47, -9.56556200981140140000e-002) (48, -1.27690827846527100000e+000) (0, 1.71923916786909100000e-002) (1, -1.33931770920753480000e-001) (2, -1.12796403467655180000e-001) (3, -2.05720782279968260000e-001) (4, -3.04026722908020020000e-001) (5, -2.23799809813499450000e-001) (6, -2.76491008698940280000e-002) (7, -8.87766927480697630000e-002) (8, -1.00911393761634830000e-001) (9, -1.78003326058387760000e-001) (10, -1.82685345411300660000e-001) (11, -1.52331486344337460000e-001) (12, -2.69908577203750610000e-001) (13, -1.28842473030090330000e-001) (14, -1.11887164413928990000e-001) (15, 5.90399727225303650000e-002) (16, -1.43962174654006960000e-001) (17, -1.42989873886108400000e-001) (18, -2.12836891412734990000e-001) (19, -2.09966436028480530000e-001) (20, -1.49778485298156740000e-001) (21, -2.41403639316558840000e-001) (22, -1.40356764197349550000e-001) (23, -1.60039737820625310000e-001) (24, -2.39072263240814210000e-001) (25, -1.12223185598850250000e-001) (26, -2.25522905588150020000e-001) (27, -3.50605964660644530000e-001) (28, -4.09990817308425900000e-001) (29, -2.42145240306854250000e-001) (30, -3.38127762079238890000e-001) (31, -2.87047147750854490000e-001) (32, 9.84208844602108000000e-003) (33, -2.00002923607826230000e-001) (34, -2.00518235564231870000e-001) (35, -3.11821818351745610000e-001) (36, -2.47291699051856990000e-001) (37, -2.73846566677093510000e-001) (38, -1.47422730922698970000e-001) (39, -1.39583386480808260000e-002) (40, 1.32941201329231260000e-001) (41, -3.32021750509738920000e-002) (42, -1.38663247227668760000e-001) (43, -5.20650982856750490000e-001) (44, -3.17640990018844600000e-001) (45, -2.78186410665512080000e-001) (46, -6.27418980002403260000e-002) (47, -1.14521775394678120000e-002) (48, -1.43653690814971920000e+000) (0, -8.29306468367576600000e-002) (1, -8.31562057137489320000e-002) (2, 1.05295851826667790000e-002) (3, -9.80516895651817320000e-002) (4, 1.85791373252868650000e-001) (5, 1.61697387695312500000e-001) (6, -1.77286237478256230000e-001) (7, -2.81476695090532300000e-002) (8, -2.32469022274017330000e-001) (9, 1.49467512965202330000e-001) (10, 2.15584501624107360000e-001) (11, -7.08755180239677430000e-002) (12, -1.39836624264717100000e-001) (13, -2.37903475761413570000e-001) (14, -2.41303950548172000000e-001) (15, -2.16092154383659360000e-001) (16, 2.18215644359588620000e-001) (17, 2.93754011392593380000e-001) (18, 2.71037608385086060000e-001) (19, 1.96934208273887630000e-001) (20, 5.64216170459985730000e-003) (21, -2.75085978209972380000e-002) (22, 1.35249882936477660000e-001) (23, 4.12604689598083500000e-001) (24, 2.05890730023384090000e-001) (25, 1.55016809701919560000e-001) (26, 2.92676806449890140000e-001) (27, -3.20817865431308750000e-002) (28, -2.35988765954971310000e-001) (29, 2.48558953404426570000e-001) (30, 4.37754005193710330000e-001) (31, 4.50573503971099850000e-001) (32, 2.75666359812021260000e-002) (33, 4.00932192802429200000e-001) (34, 4.77961003780364990000e-001) (35, 3.25312137603759770000e-001) (36, -8.41021314263343810000e-002) (37, 3.45425933599472050000e-001) (38, 2.24486976861953740000e-001) (39, 3.22506800293922420000e-002) (40, -3.48007446154952050000e-003) (41, 1.67447581887245180000e-001) (42, -2.12316643446683880000e-002) (43, 5.04322171211242680000e-001) (44, 1.43759161233901980000e-001) (45, 1.35524183511734010000e-001) (46, -1.60440534353256230000e-001) (47, -3.51135395467281340000e-002) (48, -1.66844737529754640000e+000) (0, 7.15471804141998290000e-002) (1, -1.28581166267395020000e-001) (2, -1.63507580757141110000e-001) (3, -1.91315546631813050000e-001) (4, -3.82067590951919560000e-001) (5, -3.40997278690338130000e-001) (6, -3.02015036344528200000e-001) (7, -2.08410039544105530000e-001) (8, 8.65558311343193050000e-002) (9, -5.66600084304809570000e-001) (10, -1.84592097997665410000e-001) (11, -3.07774513959884640000e-001) (12, -4.38562124967575070000e-001) (13, -3.20113450288772580000e-001) (14, 3.81844937801361080000e-002) (15, -3.65841053426265720000e-002) (16, -4.02061194181442260000e-001) (17, -5.78925848007202150000e-001) (18, -2.07857161760330200000e-001) (19, -3.49207401275634770000e-001) (20, -4.28947299718856810000e-001) (21, -3.55856329202651980000e-001) (22, -1.74568712711334230000e-001) (23, -4.56720851361751560000e-002) (24, -4.93014693260192870000e-001) (25, -5.80073535442352290000e-001) (26, -6.38682544231414790000e-001) (27, -5.35389125347137450000e-001) (28, -4.19428616762161250000e-001) (29, -4.19380694627761840000e-001) (30, -2.25371360778808590000e-001) (31, -7.77953043580055240000e-002) (32, -3.55565369129180910000e-001) (33, -7.10798561573028560000e-001) (34, -6.49599432945251460000e-001) (35, -6.84736251831054690000e-001) (36, -3.98927062749862670000e-001) (37, -2.75346279144287110000e-001) (38, -3.94555442035198210000e-002) (39, -1.46811380982398990000e-001) (40, 7.46539905667304990000e-002) (41, -3.64760786294937130000e-001) (42, -6.63643553853034970000e-002) (43, -9.70785677433013920000e-001) (44, -3.67710560560226440000e-001) (45, -2.16712787747383120000e-001) (46, 7.67248868942260740000e-002) (47, 7.41215571761131290000e-002) (48, -1.13998174667358400000e+000) (0, -1.17219313979148860000e-001) (1, -3.30521106719970700000e-001) (2, -3.93619447946548460000e-001) (3, -2.90937721729278560000e-001) (4, -3.99193346500396730000e-001) (5, -1.67913839221000670000e-001) (6, -1.51052206754684450000e-001) (7, -7.50120952725410460000e-002) (8, -4.23499979078769680000e-002) (9, -2.46443733572959900000e-001) (10, -1.91197052597999570000e-001) (11, -2.97333568334579470000e-001) (12, -5.58556199073791500000e-001) (13, -2.34671995043754580000e-001) (14, -1.71576216816902160000e-001) (15, -3.42528782784938810000e-002) (16, 4.38483282923698430000e-002) (17, -2.15594649314880370000e-001) (18, -1.40429675579071040000e-001) (19, -5.91507971286773680000e-001) (20, -5.05144059658050540000e-001) (21, -4.45068329572677610000e-001) (22, -2.72067040205001830000e-001) (23, -3.44138175249099730000e-001) (24, 3.15166711807250980000e-001) (25, -2.39295773208141330000e-002) (26, -1.60975549370050430000e-002) (27, -3.49485963582992550000e-001) (28, -4.46281611919403080000e-001) (29, -4.73388403654098510000e-001) (30, -4.76380556821823120000e-001) (31, -5.99307954311370850000e-001) (32, 4.96972948312759400000e-002) (33, -5.38615286350250240000e-002) (34, -8.82108956575393680000e-002) (35, -2.76819854974746700000e-001) (36, -5.21182000637054440000e-001) (37, -3.72207462787628170000e-001) (38, -6.01540863513946530000e-001) (39, -2.05299913883209230000e-001) (40, -1.45184934139251710000e-001) (41, -1.05297766625881200000e-001) (42, 1.57152697443962100000e-001) (43, -2.41896227002143860000e-001) (44, -4.16302889585495000000e-001) (45, -2.03071564435958860000e-001) (46, -9.34362411499023440000e-002) (47, -1.43527686595916750000e-001) (48, -1.42337489128112790000e+000) (0, -5.03680221736431120000e-002) (1, -2.13251337409019470000e-002) (2, -1.96061804890632630000e-002) (3, -2.47420221567153930000e-001) (4, -7.14517608284950260000e-002) (5, -4.28866082802414890000e-003) (6, -1.07366859912872310000e-001) (7, -5.06789535284042360000e-002) (8, -2.18462318181991580000e-001) (9, 1.20891623198986050000e-001) (10, 3.14585072919726370000e-003) (11, -4.58140261471271510000e-002) (12, -2.40815609693527220000e-001) (13, -3.73804718255996700000e-001) (14, -1.44823640584945680000e-001) (15, -4.97628562152385710000e-002) (16, 6.17030039429664610000e-002) (17, 9.72517654299736020000e-002) (18, 3.13863381743431090000e-002) (19, 5.40597066283226010000e-002) (20, 7.09655210375785830000e-002) (21, 3.45762334764003750000e-002) (22, 1.09122870489954950000e-002) (23, 2.17315778136253360000e-001) (24, 1.48246765136718750000e-001) (25, 7.76802748441696170000e-002) (26, 1.81768015027046200000e-001) (27, 9.86524745821952820000e-002) (28, -9.28592309355735780000e-002) (29, 4.31341342628002170000e-002) (30, 2.46625646948814390000e-001) (31, 2.97032564878463750000e-001) (32, -1.00622229278087620000e-001) (33, 2.06266164779663090000e-001) (34, 2.60867536067962650000e-001) (35, 1.36929035186767580000e-001) (36, -1.28470271825790410000e-001) (37, 9.64388027787208560000e-002) (38, 5.19181154668331150000e-002) (39, -1.78402975201606750000e-001) (40, -7.13554918766021730000e-002) (41, 6.76350966095924380000e-002) (42, -1.25491684302687640000e-002) (43, 1.99808597564697270000e-001) (44, 4.31268326938152310000e-002) (45, -6.78426250815391540000e-002) (46, -1.33734807372093200000e-001) (47, -1.67113423347473140000e-001) (48, -1.63066613674163820000e+000) (0, -1.43141612410545350000e-001) (1, -1.22198671102523800000e-001) (2, 4.45677004754543300000e-002) (3, -2.10247889161109920000e-001) (4, -4.32096160948276520000e-002) (5, 7.72388726472854610000e-002) (6, -1.13480605185031890000e-001) (7, 2.86706760525703430000e-002) (8, -1.56581103801727290000e-001) (9, 5.95853023696690800000e-004) (10, 7.50256404280662540000e-002) (11, 1.22596998699009420000e-003) (12, -2.32124537229537960000e-001) (13, -1.62419378757476810000e-001) (14, -3.93171831965446470000e-002) (15, -1.75681233406066890000e-001) (16, 5.22126741707324980000e-002) (17, 1.05555141344666480000e-002) (18, -4.44120876491069790000e-002) (19, -3.51957157254219060000e-002) (20, -4.13998961448669430000e-002) (21, -6.96371421217918400000e-002) (22, 2.47909147292375560000e-002) (23, 1.04779943823814390000e-001) (24, 8.09836909174919130000e-002) (25, -5.96784800291061400000e-002) (26, 2.56076501682400700000e-003) (27, -1.01230829954147340000e-001) (28, -1.77590876817703250000e-001) (29, -6.92540332674980160000e-002) (30, 8.85598212480545040000e-002) (31, 1.84592023491859440000e-001) (32, -7.53553733229637150000e-002) (33, 6.64637088775634770000e-002) (34, 7.63123556971549990000e-002) (35, 9.77797061204910280000e-002) (36, -3.86421456933021550000e-002) (37, 4.96338717639446260000e-002) (38, 2.55343914031982420000e-002) (39, -1.01094476878643040000e-001) (40, -1.50904320180416110000e-002) (41, 1.51168452575802800000e-002) (42, -5.45001924037933350000e-002) (43, 1.57530717551708220000e-002) (44, 1.48680564016103740000e-002) (45, -6.31212815642356870000e-002) (46, -1.50172576308250430000e-001) (47, -1.22208230197429660000e-001) (48, -1.67630124092102050000e+000) (0, -1.10713779926300050000e-001) (1, -7.34655410051345830000e-002) (2, -1.08240649104118350000e-001) (3, -1.96877166628837590000e-001) (4, -2.19917967915534970000e-001) (5, -1.47891759872436520000e-001) (6, -7.90379270911216740000e-002) (7, -5.30945993959903720000e-002) (8, -7.13367834687232970000e-002) (9, -2.79930233955383300000e-001) (10, -1.56460672616958620000e-001) (11, -9.91419255733489990000e-002) (12, -2.86375045776367190000e-001) (13, -1.64840087294578550000e-001) (14, -1.64418786764144900000e-001) (15, 5.04576452076435090000e-002) (16, -2.38933950662612920000e-001) (17, -1.77766218781471250000e-001) (18, -8.93419310450553890000e-002) (19, -1.62010744214057920000e-001) (20, -1.42684847116470340000e-001) (21, -1.99680507183074950000e-001) (22, -1.61399200558662410000e-001) (23, -2.89858311414718630000e-001) (24, -1.99539229273796080000e-001) (25, -3.62064018845558170000e-002) (26, -3.26527506113052370000e-001) (27, -2.21988916397094730000e-001) (28, -3.58232945203781130000e-001) (29, -2.71970003843307500000e-001) (30, -3.17993223667144780000e-001) (31, -2.82800734043121340000e-001) (32, 1.25812277197837830000e-001) (33, -2.60428309440612790000e-001) (34, -3.66439282894134520000e-001) (35, -4.16582018136978150000e-001) (36, -3.14652323722839360000e-001) (37, -3.23835283517837520000e-001) (38, -1.31854683160781860000e-001) (39, -7.02558234333992000000e-002) (40, 1.49676561355590820000e-001) (41, -9.82356257736682890000e-003) (42, -1.20757028460502620000e-001) (43, -4.73385870456695560000e-001) (44, -3.60677361488342290000e-001) (45, -1.90914317965507510000e-001) (46, -1.20530240237712860000e-001) (47, -1.44251689314842220000e-001) (48, -1.39943099021911620000e+000) (0, -5.50138205289840700000e-002) (1, -1.94323621690273280000e-002) (2, 3.81540171802043910000e-002) (3, -4.90615367889404300000e-002) (4, -9.11399245262146000000e-001) (5, -7.02771306037902830000e-001) (6, -3.24854195117950440000e-001) (7, -9.90710500627756120000e-003) (8, 4.07430768013000490000e-001) (9, -4.12075757980346680000e-001) (10, -3.57730716466903690000e-001) (11, -3.66110146045684810000e-001) (12, -8.28202664852142330000e-001) (13, -2.14193508028984070000e-001) (14, 1.37820333242416380000e-001) (15, 1.62298202514648440000e-001) (16, -6.01313948631286620000e-001) (17, -5.57883441448211670000e-001) (18, -5.45480012893676760000e-001) (19, -5.03508388996124270000e-001) (20, -7.16818213462829590000e-001) (21, -5.45922040939331050000e-001) (22, -2.36845105886459350000e-001) (23, -7.70719110965728760000e-001) (24, -5.26716411113739010000e-001) (25, -6.46956980228424070000e-001) (26, -8.96383762359619140000e-001) (27, -7.86408901214599610000e-001) (28, -5.94816625118255620000e-001) (29, -5.67291140556335450000e-001) (30, -8.13869357109069820000e-001) (31, -5.05813181400299070000e-001) (32, -5.29939889907836910000e-001) (33, -1.01564013957977290000e+000) (34, -1.06482422351837160000e+000) (35, -1.37891936302185060000e+000) (36, -5.74173152446746830000e-001) (37, -4.09687966108322140000e-001) (38, -4.88083288073539730000e-002) (39, -1.60674214363098140000e-001) (40, -4.51009124517440800000e-002) (41, -6.39457345008850100000e-001) (42, 1.66312649846076970000e-001) (43, -2.06455159187316890000e+000) (44, -6.28648579120635990000e-001) (45, -3.93328785896301270000e-001) (46, 1.62867590785026550000e-001) (47, 7.45077803730964660000e-002) (48, -8.18614140152931210000e-002) (0, -6.53271079063415530000e-002) (1, -1.47622853517532350000e-001) (2, -1.78073048591613770000e-001) (3, -2.01990947127342220000e-001) (4, -2.20893219113349910000e-001) (5, -2.63436943292617800000e-001) (6, -8.34806263446807860000e-002) (7, 2.48842183500528340000e-002) (8, -2.24641919136047360000e-001) (9, -2.35799312591552730000e-001) (10, -2.19285003840923310000e-002) (11, -7.92948529124259950000e-002) (12, -3.93066287040710450000e-001) (13, -1.78226664662361150000e-001) (14, -4.20094542205333710000e-002) (15, 8.14489051699638370000e-002) (16, -1.96446061134338380000e-001) (17, -2.06157445907592770000e-001) (18, -1.02004073560237880000e-001) (19, -1.64230704307556150000e-001) (20, -1.93732425570487980000e-001) (21, -1.25694826245307920000e-001) (22, -3.59724685549736020000e-002) (23, -2.61866062879562380000e-001) (24, -2.16117531061172490000e-001) (25, -2.22994551062583920000e-001) (26, -3.55146646499633790000e-001) (27, -1.48169800639152530000e-001) (28, -4.05316114425659180000e-001) (29, -7.33414366841316220000e-002) (30, -2.15083077549934390000e-001) (31, -2.01095208525657650000e-001) (32, 5.79183250665664670000e-002) (33, -2.77297586202621460000e-001) (34, -2.20096617937088010000e-001) (35, -2.86182165145874020000e-001) (36, -1.51465728878974910000e-001) (37, -2.95295417308807370000e-001) (38, -1.11461557447910310000e-001) (39, -2.38789752125740050000e-001) (40, 7.79641866683959960000e-002) (41, 3.85712720453739170000e-002) (42, 6.42264038324356080000e-002) (43, -6.00519955158233640000e-001) (44, -2.75154024362564090000e-001) (45, -1.63034766912460330000e-001) (46, -1.08098968863487240000e-001) (47, -2.47540622949600220000e-001) (48, -1.41128897666931150000e+000) (0, -1.02727621793746950000e-001) (1, -2.38244190812110900000e-001) (2, -5.56716144084930420000e-001) (3, -3.09856265783309940000e-001) (4, -7.32003509998321530000e-001) (5, -1.56387254595756530000e-001) (6, -1.62117004394531250000e-001) (7, 1.33698135614395140000e-001) (8, -6.27499520778656010000e-001) (9, -6.05123579502105710000e-001) (10, -3.26445430517196660000e-001) (11, -3.44651281833648680000e-001) (12, -5.39847731590271000000e-001) (13, 3.19011718034744260000e-001) (14, 1.69630497694015500000e-001) (15, 1.03674001991748810000e-001) (16, -3.62432599067687990000e-001) (17, -8.40241193771362300000e-001) (18, 1.00187227129936220000e-001) (19, -7.34355598688125610000e-002) (20, 4.08456614241003990000e-003) (21, 6.68092191219329830000e-001) (22, 6.92421197891235350000e-001) (23, 5.59340238571166990000e-001) (24, -4.08401101827621460000e-001) (25, -4.64432775974273680000e-001) (26, -2.60723143815994260000e-001) (27, -2.59056210517883300000e-001) (28, 3.53968232870101930000e-001) (29, 2.98819422721862790000e-001) (30, 8.85032892227172850000e-001) (31, 5.35691201686859130000e-001) (32, 8.08192715048789980000e-002) (33, -3.92842113971710210000e-001) (34, 3.55163514614105220000e-001) (35, 1.11577773094177250000e+000) (36, 6.00242018699646000000e-001) (37, 4.71989482641220090000e-001) (38, 8.76945078372955320000e-001) (39, -5.97730278968811040000e-002) (40, -1.77174746990203860000e-001) (41, 1.90326005220413210000e-001) (42, 6.07226371765136720000e-001) (43, 5.45634031295776370000e-001) (44, 2.25580468773841860000e-001) (45, 3.99827659130096440000e-001) (46, -3.91028709709644320000e-002) (47, 8.77963900566101070000e-002) (48, -2.34442257881164550000e+000) (0, -9.28638055920600890000e-002) (1, -1.67747795581817630000e-001) (2, -8.07055458426475520000e-002) (3, -1.69026434421539310000e-001) (4, -1.08127124607563020000e-001) (5, -1.45764932036399840000e-001) (6, -1.86385065317153930000e-001) (7, -3.02648860961198810000e-002) (8, 4.55873692408204080000e-003) (9, -2.24258527159690860000e-002) (10, -5.42973466217517850000e-002) (11, -2.06535547971725460000e-001) (12, -1.98754608631134030000e-001) (13, -7.37331509590148930000e-002) (14, -3.59299927949905400000e-002) (15, -1.90983638167381290000e-002) (16, -1.44001200795173650000e-001) (17, -1.12772777676582340000e-001) (18, -1.02029666304588320000e-001) (19, -1.02135442197322850000e-001) (20, -2.21313431859016420000e-001) (21, -1.68560981750488280000e-001) (22, -2.91391462087631230000e-002) (23, -7.17950239777565000000e-002) (24, -1.16800770163536070000e-001) (25, -1.32787153124809270000e-002) (26, -8.13136920332908630000e-002) (27, -1.82106852531433110000e-001) (28, -1.97092026472091670000e-001) (29, -1.85268566012382510000e-001) (30, -1.13827556371688840000e-001) (31, -1.31901279091835020000e-001) (32, 3.19127850234508510000e-002) (33, -3.08123491704463960000e-002) (34, -3.11093349009752270000e-002) (35, -2.35111683607101440000e-001) (36, -2.77362704277038570000e-001) (37, -2.00577080249786380000e-001) (38, -4.17633913457393650000e-002) (39, -1.01447790861129760000e-001) (40, -1.21632859110832210000e-001) (41, -2.03424226492643360000e-002) (42, -1.09145991504192350000e-001) (43, -1.79185852408409120000e-001) (44, -1.33639812469482420000e-001) (45, -2.97724567353725430000e-002) (46, -1.36939957737922670000e-001) (47, -1.35847434401512150000e-001) (48, -1.56862735748291020000e+000) (0, -1.01930990815162660000e-001) (1, -3.04147880524396900000e-003) (2, -2.59065125137567520000e-002) (3, -7.22711533308029170000e-002) (4, -2.88377399556338790000e-003) (5, -1.78192071616649630000e-002) (6, -7.48251527547836300000e-002) (7, 3.44579704105854030000e-002) (8, -1.69799521565437320000e-001) (9, 2.81756874173879620000e-002) (10, -1.13233335316181180000e-001) (11, -2.20665857195854190000e-002) (12, -2.53380507230758670000e-001) (13, -1.44304424524307250000e-001) (14, 2.64412793330848220000e-003) (15, -1.33111745119094850000e-001) (16, 5.83575926721096040000e-002) (17, -1.28160834312438960000e-001) (18, -4.84122037887573240000e-002) (19, -4.66532297432422640000e-002) (20, -1.08894400298595430000e-001) (21, -1.56790882349014280000e-001) (22, -6.27275779843330380000e-002) (23, 1.69078588485717770000e-001) (24, -4.98302504420280460000e-002) (25, 2.93637756258249280000e-002) (26, 5.74995055794715880000e-002) (27, 1.64795350283384320000e-002) (28, -9.02743414044380190000e-002) (29, -5.06716361269354820000e-003) (30, 2.12687388062477110000e-001) (31, 1.84217527508735660000e-001) (32, -3.30677963793277740000e-002) (33, 6.66188970208168030000e-002) (34, 1.88380777835845950000e-001) (35, 9.93172358721494670000e-003) (36, -4.78140860795974730000e-002) (37, 6.17415783926844600000e-003) (38, 1.98144033551216130000e-001) (39, 5.82684539258480070000e-002) (40, -9.64053720235824580000e-002) (41, 3.77257657237350940000e-003) (42, -1.13989353179931640000e-001) (43, 1.79296761751174930000e-001) (44, -9.64406281709671020000e-002) (45, 1.33835256099700930000e-001) (46, -7.51304402947425840000e-002) (47, 8.38974397629499440000e-003) (48, -1.70213770866394040000e+000) (0, 2.78639405965805050000e-001) (1, 2.91917830705642700000e-001) (2, 5.32045543193817140000e-001) (3, 5.72076737880706790000e-001) (4, -6.47731781005859380000e-001) (5, -4.96832758188247680000e-001) (6, -8.47552120685577390000e-001) (7, -3.32265794277191160000e-002) (8, 6.32389962673187260000e-001) (9, 7.47138857841491700000e-001) (10, 5.99697232246398930000e-001) (11, 5.22381544113159180000e-001) (12, -2.52272933721542360000e-002) (13, -2.37888857722282410000e-001) (14, -6.89730048179626460000e-001) (15, -9.61407184600830080000e-001) (16, 4.19750869274139400000e-001) (17, 5.70829629898071290000e-001) (18, 2.96564608812332150000e-001) (19, 8.23303639888763430000e-001) (20, -2.86880750209093090000e-002) (21, 2.27873757481575010000e-001) (22, 1.63373038172721860000e-001) (23, -1.79390400648117070000e-001) (24, -3.25564831495285030000e-001) (25, 2.70433515310287480000e-001) (26, 5.71745753288269040000e-001) (27, 8.72358500957489010000e-001) (28, 1.13065612316131590000e+000) (29, 2.34721109271049500000e-001) (30, 2.73160219192504880000e-001) (31, 2.66511797904968260000e-001) (32, -8.53626310825347900000e-001) (33, -3.99567455053329470000e-001) (34, -2.93999850749969480000e-001) (35, 3.21072101593017580000e-001) (36, 1.07711531221866610000e-001) (37, 4.86350893974304200000e-001) (38, 7.68674790859222410000e-001) (39, -1.06273964047431950000e-002) (40, -6.78829491138458250000e-001) (41, -3.67410302162170410000e-001) (42, -3.98452401161193850000e-001) (43, -1.64812013506889340000e-001) (44, 1.36890113353729250000e-001) (45, 6.45769715309143070000e-001) (46, 6.20569765567779540000e-001) (47, 3.58827173709869380000e-001) (48, -3.03046512603759770000e+000) (0, -1.67557999491691590000e-001) (1, -1.17636494338512420000e-001) (2, -1.37437090277671810000e-001) (3, -2.04766958951950070000e-001) (4, -1.65890604257583620000e-001) (5, -1.30585655570030210000e-001) (6, -3.83695773780345920000e-002) (7, 3.61638180911540990000e-002) (8, -1.03798255324363710000e-001) (9, -7.60464295744895940000e-002) (10, 9.65594872832298280000e-002) (11, -7.15171992778778080000e-002) (12, -2.31254339218139650000e-001) (13, -3.77178788185119630000e-002) (14, -1.37635737657547000000e-001) (15, -6.38579875230789180000e-002) (16, -5.99785931408405300000e-002) (17, 5.26136383414268490000e-002) (18, -3.00418995320796970000e-002) (19, -2.18999028205871580000e-001) (20, -1.44952824339270590000e-002) (21, -7.73771628737449650000e-002) (22, -1.40611663460731510000e-001) (23, -1.23103097081184390000e-001) (24, -7.48375877737998960000e-002) (25, -1.29834339022636410000e-001) (26, -1.93415015935897830000e-001) (27, -2.53114491701126100000e-001) (28, -2.29601517319679260000e-001) (29, -9.68860238790512080000e-002) (30, -2.10708335041999820000e-001) (31, -1.12680532038211820000e-002) (32, 1.53406590223312380000e-001) (33, -6.00893683731555940000e-002) (34, -6.66436180472373960000e-002) (35, -2.49010667204856870000e-001) (36, -2.17385396361351010000e-001) (37, -1.50109633803367610000e-001) (38, 2.47635114938020710000e-002) (39, -1.58704698085784910000e-001) (40, 8.82488116621971130000e-002) (41, 4.31052595376968380000e-002) (42, -7.13834911584854130000e-002) (43, -1.84898599982261660000e-001) (44, -1.54136538505554200000e-001) (45, -2.03273802995681760000e-001) (46, -6.69331327080726620000e-002) (47, -3.07878166437149050000e-001) (48, -1.59668493270874020000e+000) (0, -2.80482023954391480000e-002) (1, -3.75503450632095340000e-002) (2, -2.59694643318653110000e-002) (3, -1.41292080283164980000e-001) (4, 6.76652491092681880000e-002) (5, 9.67850629240274430000e-003) (6, -3.71095761656761170000e-002) (7, -3.99326719343662260000e-002) (8, -1.99986115097999570000e-001) (9, 2.83066570758819580000e-001) (10, 1.59980639815330510000e-001) (11, 1.83282140642404560000e-002) (12, -3.08061778545379640000e-001) (13, -1.87816753983497620000e-001) (14, -1.97551995515823360000e-001) (15, -2.97234535217285160000e-001) (16, 3.21780979633331300000e-001) (17, 3.65600436925888060000e-001) (18, 2.18282148241996770000e-001) (19, 4.12829034030437470000e-002) (20, -9.69996005296707150000e-002) (21, 6.76197707653045650000e-002) (22, 1.02314881980419160000e-001) (23, 5.49635171890258790000e-001) (24, 2.68436789512634280000e-001) (25, 3.17420840263366700000e-001) (26, 3.98217767477035520000e-001) (27, 1.92279502749443050000e-001) (28, -1.35966762900352480000e-001) (29, 3.10215234756469730000e-001) (30, 5.11317431926727290000e-001) (31, 5.39009273052215580000e-001) (32, 7.96773433685302730000e-002) (33, 5.29905915260314940000e-001) (34, 6.11905455589294430000e-001) (35, 4.23709869384765630000e-001) (36, -1.17138676345348360000e-001) (37, 3.58075976371765140000e-001) (38, 3.04720968008041380000e-001) (39, 1.91988214850425720000e-001) (40, -1.23592786490917210000e-001) (41, 2.13757261633872990000e-001) (42, -3.97409275174140930000e-002) (43, 6.53726160526275630000e-001) (44, 1.95221737027168270000e-001) (45, 1.32793068885803220000e-001) (46, -1.11743740737438200000e-001) (47, 8.65544304251670840000e-002) (48, -1.62296593189239500000e+000) (0, -4.05396893620491030000e-002) (1, -1.89029648900032040000e-001) (2, -3.55873480439186100000e-002) (3, -1.01248428225517270000e-001) (4, -1.09824106097221370000e-001) (5, -1.14232458174228670000e-001) (6, -8.33508521318435670000e-002) (7, -1.89834550023078920000e-001) (8, -7.57721289992332460000e-002) (9, 3.68888415396213530000e-002) (10, 6.94429315626621250000e-003) (11, -7.74709433317184450000e-002) (12, -2.25985303521156310000e-001) (13, -2.08067074418067930000e-001) (14, -8.95007476210594180000e-002) (15, -4.52863238751888280000e-002) (16, 2.09089033305644990000e-002) (17, 5.23251369595527650000e-002) (18, -2.19443336129188540000e-001) (19, -7.91225880384445190000e-002) (20, -1.28204450011253360000e-001) (21, -1.43833786249160770000e-001) (22, -9.88275855779647830000e-002) (23, -1.50927826762199400000e-001) (24, 1.68756395578384400000e-001) (25, 3.54480668902397160000e-002) (26, -4.08558435738086700000e-002) (27, -8.86527150869369510000e-002) (28, -2.23404571413993840000e-001) (29, -2.12044134736061100000e-001) (30, -1.76784530282020570000e-001) (31, -1.30461454391479490000e-001) (32, -1.99891135096549990000e-001) (33, -5.57477511465549470000e-002) (34, 1.95316388271749020000e-003) (35, -9.01906490325927730000e-002) (36, -3.06434422731399540000e-001) (37, -1.18350505828857420000e-001) (38, -2.08738874644041060000e-002) (39, -1.02184608578681950000e-001) (40, -5.98756410181522370000e-002) (41, -6.41042813658714290000e-002) (42, -7.28790760040283200000e-002) (43, -1.65400803089141850000e-001) (44, -1.97459027171134950000e-001) (45, -1.18676409125328060000e-001) (46, -1.36428549885749820000e-001) (47, -1.55083552002906800000e-001) (48, -1.59503114223480220000e+000) (0, -1.39216259121894840000e-001) (1, -5.77060133218765260000e-002) (2, -4.79966364800930020000e-002) (3, -1.09376341104507450000e-001) (4, -7.39329278469085690000e-001) (5, -7.39515304565429690000e-001) (6, -3.00995111465454100000e-001) (7, -1.51688173413276670000e-001) (8, 1.67064249515533450000e-001) (9, -4.66114372014999390000e-001) (10, -2.55880653858184810000e-001) (11, -1.40817314386367800000e-001) (12, -9.18403446674346920000e-001) (13, -2.09610462188720700000e-001) (14, 3.65169234573841090000e-002) (15, 2.24790722131729130000e-001) (16, -4.95917707681655880000e-001) (17, -6.42753422260284420000e-001) (18, -4.28751558065414430000e-001) (19, -3.74038398265838620000e-001) (20, -5.82865655422210690000e-001) (21, -3.96607726812362670000e-001) (22, -1.40519486740231510000e-002) (23, -1.87002927064895630000e-001) (24, -4.07551944255828860000e-001) (25, -5.13694941997528080000e-001) (26, -7.94522583484649660000e-001) (27, -5.38572013378143310000e-001) (28, -5.49521446228027340000e-001) (29, -3.61917734146118160000e-001) (30, -3.35026413202285770000e-001) (31, 1.04138692840933800000e-002) (32, -4.92628723382949830000e-001) (33, -8.61601829528808590000e-001) (34, -7.48969018459320070000e-001) (35, -8.92874836921691890000e-001) (36, -3.57711344957351680000e-001) (37, -2.24150985479354860000e-001) (38, 3.30088198184967040000e-001) (39, -2.18785941600799560000e-001) (40, 2.32971832156181340000e-002) (41, -4.52897995710372920000e-001) (42, -1.22826034203171730000e-002) (43, -1.37179076671600340000e+000) (44, -4.57660973072052000000e-001) (45, -1.27288565039634700000e-001) (46, 2.93795794248580930000e-001) (47, -2.48431917279958720000e-002) (48, -9.30052399635314940000e-001) (0, -7.29135349392890930000e-002) (1, -1.30325332283973690000e-001) (2, -1.69450849294662480000e-001) (3, -2.05474525690078740000e-001) (4, -6.47042453289031980000e-001) (5, -3.69383811950683590000e-001) (6, -4.11323457956314090000e-001) (7, -2.81934648752212520000e-001) (8, 1.48868545889854430000e-001) (9, -6.24123513698577880000e-001) (10, -1.70579776167869570000e-001) (11, -2.44565650820732120000e-001) (12, -7.93911159038543700000e-001) (13, -4.00340497493743900000e-001) (14, -6.06749504804611210000e-002) (15, -9.14949253201484680000e-002) (16, -3.66713553667068480000e-001) (17, -6.09056830406188960000e-001) (18, -2.66579777002334590000e-001) (19, -2.95907557010650630000e-001) (20, -4.04886871576309200000e-001) (21, -2.38254398107528690000e-001) (22, -1.41301164403557780000e-002) (23, 2.58951604366302490000e-001) (24, -3.98428142070770260000e-001) (25, -4.51317191123962400000e-001) (26, -6.26668989658355710000e-001) (27, -2.93027281761169430000e-001) (28, -2.72645264863967900000e-001) (29, -2.43694081902503970000e-001) (30, -1.62787348031997680000e-001) (31, 4.39844161272048950000e-001) (32, -2.34619960188865660000e-001) (33, -6.12666487693786620000e-001) (34, -5.99072217941284180000e-001) (35, -2.30892539024353030000e-001) (36, -1.24222405254840850000e-001) (37, -2.23468378186225890000e-001) (38, 5.87437987327575680000e-001) (39, 1.56855005770921710000e-002) (40, 5.23633100092411040000e-002) (41, -3.41164171695709230000e-001) (42, -5.54543510079383850000e-002) (43, -5.95014989376068120000e-001) (44, -1.85070082545280460000e-001) (45, -5.58667629957199100000e-002) (46, 4.14694309234619140000e-001) (47, 6.16205111145973210000e-002) (48, -1.46339595317840580000e+000) (0, -1.27647548913955690000e-001) (1, -1.10193572938442230000e-001) (2, -9.75538939237594600000e-002) (3, -9.81037467718124390000e-002) (4, -3.64390522241592410000e-001) (5, -3.31729561090469360000e-001) (6, -2.71220598369836810000e-002) (7, -7.10249766707420350000e-002) (8, -1.85242950916290280000e-001) (9, -2.91702538728713990000e-001) (10, -7.02664032578468320000e-002) (11, -1.84869900345802310000e-001) (12, -3.67203295230865480000e-001) (13, -1.13726265728473660000e-001) (14, 1.20251834392547610000e-001) (15, -8.11306685209274290000e-002) (16, -3.93714040517807010000e-001) (17, -3.83169472217559810000e-001) (18, -1.60441130399703980000e-001) (19, -3.20387631654739380000e-001) (20, -2.31254696846008300000e-001) (21, -2.67118483781814580000e-001) (22, -2.24981129169464110000e-001) (23, -7.86662995815277100000e-002) (24, -2.91952401399612430000e-001) (25, -2.24357977509498600000e-001) (26, -2.78239220380783080000e-001) (27, -3.36539745330810550000e-001) (28, -3.96979957818984990000e-001) (29, -3.43360245227813720000e-001) (30, -1.44052356481552120000e-001) (31, 2.24297083914279940000e-002) (32, -7.63849541544914250000e-002) (33, -3.42374920845031740000e-001) (34, -4.66564327478408810000e-001) (35, -5.07756054401397710000e-001) (36, -2.14618310332298280000e-001) (37, -2.07318231463432310000e-001) (38, -2.36811935901641850000e-002) (39, -9.21755209565162660000e-002) (40, 1.40315324068069460000e-001) (41, -7.52370879054069520000e-002) (42, -2.92170196771621700000e-002) (43, -6.53204917907714840000e-001) (44, -3.61406564712524410000e-001) (45, -1.48313686251640320000e-001) (46, -6.47294055670499800000e-003) (47, -7.19844624400138850000e-002) (48, -1.41556513309478760000e+000) (0, 1.43949193879961970000e-002) (1, -1.17620661854743960000e-001) (2, -2.09172934293746950000e-001) (3, -1.46823585033416750000e-001) (4, -3.06175172328948970000e-001) (5, -1.24611079692840580000e-001) (6, -1.72692030668258670000e-001) (7, -2.41996020078659060000e-001) (8, 2.87233460694551470000e-002) (9, -2.07999452948570250000e-001) (10, -2.66558498144149780000e-001) (11, -1.64491087198257450000e-001) (12, -1.02448485791683200000e-001) (13, -8.16538929939270020000e-002) (14, -1.21413834393024440000e-001) (15, -2.32168793678283690000e-001) (16, 6.08905516564846040000e-002) (17, -1.05172574520111080000e-001) (18, -1.92218050360679630000e-001) (19, -3.22668313980102540000e-001) (20, -4.00614559650421140000e-001) (21, -1.84380665421485900000e-001) (22, -1.93711772561073300000e-001) (23, -2.16612443327903750000e-001) (24, 1.49605095386505130000e-001) (25, -5.62391169369220730000e-002) (26, -2.44503580033779140000e-002) (27, -3.56532484292984010000e-001) (28, -1.47075012326240540000e-001) (29, -2.47299015522003170000e-001) (30, 1.76654430106282230000e-003) (31, -2.68606573343276980000e-001) (32, -1.31966114044189450000e-001) (33, -2.72092372179031370000e-001) (34, -1.08598887920379640000e-001) (35, -1.97618708014488220000e-001) (36, -4.71961587667465210000e-001) (37, -1.36319503188133240000e-001) (38, -3.18930208683013920000e-001) (39, -2.39438842982053760000e-002) (40, -2.78598815202713010000e-001) (41, -1.62733033299446110000e-001) (42, -1.63190498948097230000e-001) (43, -2.17644467949867250000e-001) (44, -3.59638661146163940000e-001) (45, -1.53841122984886170000e-001) (46, -1.06546334922313690000e-001) (47, -7.60711506009101870000e-002) (48, -1.47535622119903560000e+000) (0, -2.74484485387802120000e-001) (1, -8.20372626185417180000e-002) (2, 5.39188720285892490000e-002) (3, -1.95326596498489380000e-001) (4, 3.11955600976943970000e-001) (5, 1.17328017950057980000e-001) (6, -2.34491169452667240000e-001) (7, -4.73174303770065310000e-002) (8, -4.85109269618988040000e-001) (9, 2.44332209229469300000e-001) (10, 3.50617408752441410000e-001) (11, 8.97959433495998380000e-003) (12, -1.56667083501815800000e-001) (13, -3.67571026086807250000e-001) (14, -4.62156951427459720000e-001) (15, -2.70637810230255130000e-001) (16, 3.25922608375549320000e-001) (17, 4.94962155818939210000e-001) (18, 3.45997482538223270000e-001) (19, 2.69370257854461670000e-001) (20, 1.40785694122314450000e-001) (21, 2.97815650701522830000e-001) (22, 4.24061059951782230000e-001) (23, 3.89910757541656490000e-001) (24, 4.06875669956207280000e-001) (25, 2.96356320381164550000e-001) (26, 2.72015631198883060000e-001) (27, 3.19041088223457340000e-002) (28, -1.69419959187507630000e-001) (29, 4.13265764713287350000e-001) (30, 4.52106177806854250000e-001) (31, 5.87723016738891600000e-001) (32, 1.28226965665817260000e-001) (33, 6.73549473285675050000e-001) (34, 6.73156499862670900000e-001) (35, 4.83200967311859130000e-001) (36, 1.26128181815147400000e-001) (37, 3.55438798666000370000e-001) (38, 3.96098703145980830000e-001) (39, -7.59421288967132570000e-002) (40, 4.15382720530033110000e-002) (41, 3.81620317697525020000e-001) (42, 2.46927924454212190000e-002) (43, 6.99637770652771000000e-001) (44, 7.92654454708099370000e-002) (45, 7.05225840210914610000e-002) (46, -2.65678644180297850000e-001) (47, -2.93279021978378300000e-001) (48, -1.52070462703704830000e+000) (0, -1.62311553955078130000e-001) (1, -8.03829282522201540000e-002) (2, 9.95722860097885130000e-002) (3, -8.83363634347915650000e-002) (4, 1.51384845376014710000e-001) (5, 2.90147159248590470000e-002) (6, -2.56273120641708370000e-001) (7, -2.98931431025266650000e-002) (8, -3.71186643838882450000e-001) (9, 6.01983256638050080000e-002) (10, 2.37553641200065610000e-001) (11, -1.42865449190139770000e-001) (12, -2.22797505557537080000e-002) (13, -2.57065773010253910000e-001) (14, -2.07459554076194760000e-001) (15, -8.95193517208099370000e-002) (16, -7.97121673822402950000e-002) (17, 7.97076225280761720000e-002) (18, 3.25848609209060670000e-001) (19, 1.25252112746238710000e-001) (20, 1.84670075774192810000e-001) (21, 2.37780481576919560000e-001) (22, 4.13511127233505250000e-001) (23, 2.12774306535720830000e-001) (24, -5.63521161675453190000e-002) (25, -1.11559899523854260000e-002) (26, 1.86112195253372190000e-001) (27, 4.12269495427608490000e-002) (28, -1.42697602510452270000e-001) (29, 2.88088947534561160000e-001) (30, 3.67286711931228640000e-001) (31, 2.98689097166061400000e-001) (32, 2.06865426152944560000e-002) (33, 4.69266712665557860000e-001) (34, 3.28698247671127320000e-001) (35, 4.58456337451934810000e-001) (36, 1.31369546055793760000e-001) (37, 2.89654016494750980000e-001) (38, 2.69025593996047970000e-001) (39, -2.21506252884864810000e-001) (40, -4.88121435046195980000e-002) (41, 2.63473629951477050000e-001) (42, 8.58759880065917970000e-002) (43, 4.03189986944198610000e-001) (44, 3.02814804017543790000e-002) (45, 4.63130362331867220000e-002) (46, -2.82932460308074950000e-001) (47, -3.25139105319976810000e-001) (48, -1.73933243751525880000e+000) (0, -1.46792650222778320000e-001) (1, -2.04330861568450930000e-001) (2, -2.54582971334457400000e-001) (3, -1.24272599816322330000e-001) (4, -2.73609995841979980000e-001) (5, -1.90228581428527830000e-001) (6, -1.25275291502475740000e-002) (7, 2.41350885480642320000e-002) (8, -6.49489313364028930000e-002) (9, -3.75624448060989380000e-001) (10, -1.89126893877983090000e-001) (11, -1.76295980811119080000e-001) (12, -3.88848304748535160000e-001) (13, -1.47723630070686340000e-001) (14, 1.21486792340874670000e-002) (15, 1.28928273916244510000e-001) (16, -2.25142240524291990000e-001) (17, -4.47679668664932250000e-001) (18, -2.29446813464164730000e-001) (19, -4.04996186494827270000e-001) (20, -2.76546984910964970000e-001) (21, -3.61990720033645630000e-001) (22, -1.49197041988372800000e-001) (23, -1.69225662946701050000e-001) (24, -3.31647455692291260000e-001) (25, -3.62211525440216060000e-001) (26, -5.13173043727874760000e-001) (27, -3.85376036167144780000e-001) (28, -3.70033681392669680000e-001) (29, -3.56088608503341670000e-001) (30, -3.97647976875305180000e-001) (31, -2.27155655622482300000e-001) (32, 8.78004170954227450000e-003) (33, -5.23118436336517330000e-001) (34, -4.43899631500244140000e-001) (35, -5.11685550212860110000e-001) (36, -3.66416603326797490000e-001) (37, -3.45137804746627810000e-001) (38, -2.53376752138137820000e-001) (39, -3.09984665364027020000e-002) (40, 1.94788426160812380000e-001) (41, -2.55089133977890010000e-001) (42, -5.52354659885168080000e-003) (43, -8.21042060852050780000e-001) (44, -4.54666167497634890000e-001) (45, -2.65728861093521120000e-001) (46, -9.53718498349189760000e-002) (47, -1.68581172823905940000e-001) (48, -1.17916929721832280000e+000) (0, -6.21867692098021510000e-003) (1, -1.09744504094123840000e-001) (2, 2.27779038250446320000e-002) (3, -7.93405473232269290000e-002) (4, -2.86232113838195800000e-001) (5, -8.34313333034515380000e-002) (6, -2.04927846789360050000e-001) (7, -1.08589164912700650000e-001) (8, 2.73579880595207210000e-002) (9, -3.14460366964340210000e-001) (10, -1.13029018044471740000e-001) (11, -2.86941885948181150000e-001) (12, -2.50058233737945560000e-001) (13, -2.01824352145195010000e-001) (14, 8.16460102796554570000e-002) (15, -9.29489210247993470000e-002) (16, -2.66973078250885010000e-001) (17, -5.21874427795410160000e-001) (18, -1.33656680583953860000e-001) (19, -3.51897686719894410000e-001) (20, -2.71256387233734130000e-001) (21, -3.14761638641357420000e-001) (22, -1.65196165442466740000e-001) (23, 9.40579771995544430000e-002) (24, -4.41843241453170780000e-001) (25, -4.08943563699722290000e-001) (26, -3.08806478977203370000e-001) (27, -3.67985755205154420000e-001) (28, -3.98692548274993900000e-001) (29, -2.53678590059280400000e-001) (30, -1.64924606680870060000e-001) (31, 1.25726193189620970000e-001) (32, -2.93379783630371090000e-001) (33, -5.60741722583770750000e-001) (34, -4.42700445652008060000e-001) (35, -3.32196891307830810000e-001) (36, -3.84213089942932130000e-001) (37, -1.14594697952270510000e-001) (38, -1.93454429507255550000e-001) (39, -3.86741645634174350000e-002) (40, 2.26684249937534330000e-002) (41, -1.58206880092620850000e-001) (42, -5.34459948539733890000e-002) (43, -6.19505643844604490000e-001) (44, -3.10084998607635500000e-001) (45, -2.55509495735168460000e-001) (46, -7.93615579605102540000e-002) (47, 1.29038050770759580000e-001) (48, -1.43570351600646970000e+000) (0, 1.20327949523925780000e-001) (1, -5.93019202351570130000e-002) (2, 1.97038501501083370000e-002) (3, 2.70665772259235380000e-002) (4, -1.26444667577743530000e-001) (5, -1.99788525700569150000e-001) (6, -2.52902090549468990000e-001) (7, -5.04106841981410980000e-002) (8, 2.06510797142982480000e-001) (9, 1.73165962100028990000e-001) (10, -6.74490258097648620000e-003) (11, -1.18557512760162350000e-001) (12, -4.77715097367763520000e-002) (13, -1.97006106376647950000e-001) (14, -9.97473523020744320000e-002) (15, -3.08940112590789790000e-001) (16, 8.78338962793350220000e-002) (17, 1.12542636692523960000e-001) (18, 5.48811554908752440000e-002) (19, -3.20992954075336460000e-002) (20, -2.20062449574470520000e-001) (21, -8.82194843143224720000e-003) (22, 6.30849525332450870000e-002) (23, 1.19156271219253540000e-001) (24, 1.34779125452041630000e-001) (25, 1.12436659634113310000e-001) (26, 1.24624736607074740000e-001) (27, 2.34543830156326290000e-002) (28, 1.00086018443107600000e-001) (29, -4.54892851412296300000e-002) (30, 1.51384577155113220000e-001) (31, 2.10651047527790070000e-002) (32, -2.12082594633102420000e-001) (33, -7.66930878162384030000e-002) (34, -9.31493565440177920000e-003) (35, -8.02122280001640320000e-002) (36, -3.27555000782012940000e-001) (37, 2.20399554818868640000e-002) (38, 2.16238871216773990000e-001) (39, -5.99764809012413020000e-002) (40, -2.93870300054550170000e-001) (41, -6.80360496044158940000e-002) (42, -1.51214078068733220000e-001) (43, 5.89182823896408080000e-002) (44, -2.74948077276349070000e-004) (45, -8.72501432895660400000e-002) (46, 1.51815235614776610000e-001) (47, 1.96892365813255310000e-001) (48, -1.73853838443756100000e+000) (0, -5.57090621441602710000e-003) (1, -1.84470176696777340000e-001) (2, -2.81865864992141720000e-001) (3, -2.61386215686798100000e-001) (4, -3.30161601305007930000e-001) (5,