FANN_FLO_2.1
num_layers=3
learning_rate=0.700000
connection_rate=1.000000
network_type=0
learning_momentum=0.400000
training_algorithm=0
train_error_function=1
train_stop_function=0
cascade_output_change_fraction=0.010000
quickprop_decay=-0.000100
quickprop_mu=1.750000
rprop_increase_factor=1.200000
rprop_decrease_factor=0.500000
rprop_delta_min=0.000000
rprop_delta_max=50.000000
rprop_delta_zero=0.100000
cascade_output_stagnation_epochs=12
cascade_candidate_change_fraction=0.010000
cascade_candidate_stagnation_epochs=12
cascade_max_out_epochs=150
cascade_min_out_epochs=50
cascade_max_cand_epochs=150
cascade_min_cand_epochs=50
cascade_num_candidate_groups=2
bit_fail_limit=3.49999994039535520000e-001
cascade_candidate_limit=1.00000000000000000000e+003
cascade_weight_multiplier=4.00000005960464480000e-001
cascade_activation_functions_count=10
cascade_activation_functions=3 5 7 8 10 11 14 15 16 17 
cascade_activation_steepnesses_count=4
cascade_activation_steepnesses=2.50000000000000000000e-001 5.00000000000000000000e-001 7.50000000000000000000e-001 1.00000000000000000000e+000 
layer_sizes=53 97 2 
scale_included=0
neurons (num_inputs, activation_function, activation_steepness)=(0, 0, 0.00000000000000000000e+000) (0, 0, 0.00000000000000000000e+000) (0, 0, 0.00000000000000000000e+000) (0, 0, 0.00000000000000000000e+000) (0, 0, 0.00000000000000000000e+000) (0, 0, 0.00000000000000000000e+000) (0, 0, 0.00000000000000000000e+000) (0, 0, 0.00000000000000000000e+000) (0, 0, 0.00000000000000000000e+000) (0, 0, 0.00000000000000000000e+000) (0, 0, 0.00000000000000000000e+000) (0, 0, 0.00000000000000000000e+000) (0, 0, 0.00000000000000000000e+000) (0, 0, 0.00000000000000000000e+000) (0, 0, 0.00000000000000000000e+000) (0, 0, 0.00000000000000000000e+000) (0, 0, 0.00000000000000000000e+000) (0, 0, 0.00000000000000000000e+000) (0, 0, 0.00000000000000000000e+000) (0, 0, 0.00000000000000000000e+000) (0, 0, 0.00000000000000000000e+000) (0, 0, 0.00000000000000000000e+000) (0, 0, 0.00000000000000000000e+000) (0, 0, 0.00000000000000000000e+000) (0, 0, 0.00000000000000000000e+000) (0, 0, 0.00000000000000000000e+000) (0, 0, 0.00000000000000000000e+000) (0, 0, 0.00000000000000000000e+000) (0, 0, 0.00000000000000000000e+000) (0, 0, 0.00000000000000000000e+000) (0, 0, 0.00000000000000000000e+000) (0, 0, 0.00000000000000000000e+000) (0, 0, 0.00000000000000000000e+000) (0, 0, 0.00000000000000000000e+000) (0, 0, 0.00000000000000000000e+000) (0, 0, 0.00000000000000000000e+000) (0, 0, 0.00000000000000000000e+000) (0, 0, 0.00000000000000000000e+000) (0, 0, 0.00000000000000000000e+000) (0, 0, 0.00000000000000000000e+000) (0, 0, 0.00000000000000000000e+000) (0, 0, 0.00000000000000000000e+000) (0, 0, 0.00000000000000000000e+000) (0, 0, 0.00000000000000000000e+000) (0, 0, 0.00000000000000000000e+000) (0, 0, 0.00000000000000000000e+000) (0, 0, 0.00000000000000000000e+000) (0, 0, 0.00000000000000000000e+000) (0, 0, 0.00000000000000000000e+000) (0, 0, 0.00000000000000000000e+000) (0, 0, 0.00000000000000000000e+000) (0, 0, 0.00000000000000000000e+000) (0, 0, 0.00000000000000000000e+000) (53, 4, 5.00000000000000000000e-001) (53, 4, 5.00000000000000000000e-001) (53, 4, 5.00000000000000000000e-001) (53, 4, 5.00000000000000000000e-001) (53, 4, 5.00000000000000000000e-001) (53, 4, 5.00000000000000000000e-001) (53, 4, 5.00000000000000000000e-001) (53, 4, 5.00000000000000000000e-001) (53, 4, 5.00000000000000000000e-001) (53, 4, 5.00000000000000000000e-001) (53, 4, 5.00000000000000000000e-001) (53, 4, 5.00000000000000000000e-001) (53, 4, 5.00000000000000000000e-001) (53, 4, 5.00000000000000000000e-001) (53, 4, 5.00000000000000000000e-001) (53, 4, 5.00000000000000000000e-001) (53, 4, 5.00000000000000000000e-001) (53, 4, 5.00000000000000000000e-001) (53, 4, 5.00000000000000000000e-001) (53, 4, 5.00000000000000000000e-001) (53, 4, 5.00000000000000000000e-001) (53, 4, 5.00000000000000000000e-001) (53, 4, 5.00000000000000000000e-001) (53, 4, 5.00000000000000000000e-001) (53, 4, 5.00000000000000000000e-001) (53, 4, 5.00000000000000000000e-001) (53, 4, 5.00000000000000000000e-001) (53, 4, 5.00000000000000000000e-001) (53, 4, 5.00000000000000000000e-001) (53, 4, 5.00000000000000000000e-001) (53, 4, 5.00000000000000000000e-001) (53, 4, 5.00000000000000000000e-001) (53, 4, 5.00000000000000000000e-001) (53, 4, 5.00000000000000000000e-001) (53, 4, 5.00000000000000000000e-001) (53, 4, 5.00000000000000000000e-001) (53, 4, 5.00000000000000000000e-001) (53, 4, 5.00000000000000000000e-001) (53, 4, 5.00000000000000000000e-001) (53, 4, 5.00000000000000000000e-001) (53, 4, 5.00000000000000000000e-001) (53, 4, 5.00000000000000000000e-001) (53, 4, 5.00000000000000000000e-001) (53, 4, 5.00000000000000000000e-001) (53, 4, 5.00000000000000000000e-001) (53, 4, 5.00000000000000000000e-001) (53, 4, 5.00000000000000000000e-001) (53, 4, 5.00000000000000000000e-001) (53, 4, 5.00000000000000000000e-001) (53, 4, 5.00000000000000000000e-001) (53, 4, 5.00000000000000000000e-001) (53, 4, 5.00000000000000000000e-001) (53, 4, 5.00000000000000000000e-001) (53, 4, 5.00000000000000000000e-001) (53, 4, 5.00000000000000000000e-001) (53, 4, 5.00000000000000000000e-001) (53, 4, 5.00000000000000000000e-001) (53, 4, 5.00000000000000000000e-001) (53, 4, 5.00000000000000000000e-001) (53, 4, 5.00000000000000000000e-001) (53, 4, 5.00000000000000000000e-001) (53, 4, 5.00000000000000000000e-001) (53, 4, 5.00000000000000000000e-001) (53, 4, 5.00000000000000000000e-001) (53, 4, 5.00000000000000000000e-001) (53, 4, 5.00000000000000000000e-001) (53, 4, 5.00000000000000000000e-001) (53, 4, 5.00000000000000000000e-001) (53, 4, 5.00000000000000000000e-001) (53, 4, 5.00000000000000000000e-001) (53, 4, 5.00000000000000000000e-001) (53, 4, 5.00000000000000000000e-001) (53, 4, 5.00000000000000000000e-001) (53, 4, 5.00000000000000000000e-001) (53, 4, 5.00000000000000000000e-001) (53, 4, 5.00000000000000000000e-001) (53, 4, 5.00000000000000000000e-001) (53, 4, 5.00000000000000000000e-001) (53, 4, 5.00000000000000000000e-001) (53, 4, 5.00000000000000000000e-001) (53, 4, 5.00000000000000000000e-001) (53, 4, 5.00000000000000000000e-001) (53, 4, 5.00000000000000000000e-001) (53, 4, 5.00000000000000000000e-001) (53, 4, 5.00000000000000000000e-001) (53, 4, 5.00000000000000000000e-001) (53, 4, 5.00000000000000000000e-001) (53, 4, 5.00000000000000000000e-001) (53, 4, 5.00000000000000000000e-001) (53, 4, 5.00000000000000000000e-001) (53, 4, 5.00000000000000000000e-001) (53, 4, 5.00000000000000000000e-001) (53, 4, 5.00000000000000000000e-001) (53, 4, 5.00000000000000000000e-001) (53, 4, 5.00000000000000000000e-001) (53, 4, 5.00000000000000000000e-001) (0, 0, 0.00000000000000000000e+000) (97, 4, 5.00000000000000000000e-001) (0, 0, 0.00000000000000000000e+000) 
connections (connected_to_neuron, weight)=(0, 2.12814182043075560000e-001) (1, -1.57159622758626940000e-002) (2, -4.55489195883274080000e-002) (3, -2.86687873303890230000e-002) (4, 2.51899868249893190000e-001) (5, -4.92193661630153660000e-002) (6, 1.76957398653030400000e-001) (7, 2.44199946522712710000e-001) (8, -4.50587928295135500000e-001) (9, -4.88669751212000850000e-003) (10, 1.33149459958076480000e-001) (11, -1.05261392891407010000e-001) (12, 1.65337532758712770000e-001) (13, -2.45134886354207990000e-002) (14, 5.89643325656652450000e-003) (15, -2.60382127016782760000e-002) (16, -4.83336858451366420000e-002) (17, -1.06372959911823270000e-001) (18, 7.48648568987846370000e-002) (19, -5.97749054431915280000e-002) (20, 7.06996023654937740000e-002) (21, -6.33119493722915650000e-002) (22, 8.71816277503967290000e-003) (23, 9.69973802566528320000e-002) (24, -4.53119985759258270000e-002) (25, 4.66616116464138030000e-002) (26, -1.47783070802688600000e-001) (27, -2.42350101470947270000e-002) (28, -2.12679401040077210000e-001) (29, -2.72145140916109090000e-002) (30, -1.91671177744865420000e-002) (31, -2.05933436518535020000e-004) (32, -1.21177718043327330000e-001) (33, 4.17590490542352200000e-004) (34, -1.12612709403038020000e-001) (35, 2.51087471842765810000e-002) (36, -3.85632016696035860000e-003) (37, -1.18883103132247920000e-001) (38, -2.11537349969148640000e-002) (39, 4.76518925279378890000e-003) (40, -5.33034913241863250000e-002) (41, -1.17388233542442320000e-001) (42, -4.97771278023719790000e-002) (43, -1.83542862534523010000e-001) (44, -1.25952601432800290000e-001) (45, -8.58910754323005680000e-002) (46, 4.76477704942226410000e-002) (47, 1.00218448787927630000e-002) (48, -8.98474603891372680000e-002) (49, -3.18031422793865200000e-002) (50, -1.32297471165657040000e-001) (51, 4.22996692359447480000e-002) (52, -3.63982498645782470000e-001) (0, 2.96171694993972780000e-001) (1, -1.25233128666877750000e-001) (2, -3.21155488491058350000e-002) (3, -1.18709476664662360000e-002) (4, 2.47963055968284610000e-001) (5, -8.46776813268661500000e-002) (6, 1.34702250361442570000e-001) (7, 7.14150965213775630000e-002) (8, -4.59849774837493900000e-001) (9, 7.46433883905410770000e-002) (10, 2.58137226104736330000e-001) (11, 5.57221956551074980000e-002) (12, 1.36241585016250610000e-001) (13, -7.09639042615890500000e-002) (14, 6.43831416964530940000e-002) (15, 4.94374334812164310000e-002) (16, -1.39642590656876560000e-002) (17, -1.33750140666961670000e-001) (18, -3.60142178833484650000e-002) (19, -7.36168697476387020000e-002) (20, 3.63450273871421810000e-002) (21, -1.28108322620391850000e-001) (22, -7.74193480610847470000e-002) (23, 1.22753418982028960000e-001) (24, 5.73450848460197450000e-002) (25, -7.73467570543289180000e-002) (26, -1.25141918659210210000e-001) (27, 7.56751000881195070000e-003) (28, -1.19726508855819700000e-001) (29, -1.28661751747131350000e-001) (30, -1.27084016799926760000e-001) (31, -1.17983758449554440000e-001) (32, -2.54787728190422060000e-002) (33, -7.42820277810096740000e-002) (34, -6.80035054683685300000e-002) (35, 9.56760998815298080000e-003) (36, -1.33279219269752500000e-001) (37, -5.39030171930789950000e-002) (38, 3.57375945895910260000e-003) (39, -6.46791085600852970000e-002) (40, -6.09051994979381560000e-002) (41, -1.43451645970344540000e-001) (42, -1.46142169833183290000e-001) (43, -1.32654592394828800000e-001) (44, -7.10422694683074950000e-002) (45, 5.61374202370643620000e-002) (46, -1.21053695678710940000e-001) (47, -7.96838030219078060000e-002) (48, -8.45027416944503780000e-002) (49, 1.34037146344780920000e-002) (50, -9.66792777180671690000e-002) (51, -6.35128095746040340000e-002) (52, -3.89351636171340940000e-001) (0, -2.76738047599792480000e-001) (1, -1.78551241755485530000e-001) (2, -5.15995323657989500000e-001) (3, -6.96667805314064030000e-002) (4, -1.61655381321907040000e-001) (5, -1.06411024928092960000e-001) (6, -4.39629666507244110000e-002) (7, -8.18902701139450070000e-002) (8, -2.41193518042564390000e-001) (9, -1.42668738961219790000e-001) (10, -1.08053170144557950000e-001) (11, -8.49639549851417540000e-002) (12, -1.31270159035921100000e-002) (13, -1.18577219545841220000e-001) (14, -2.74734664708375930000e-002) (15, -3.12449783086776730000e-002) (16, -5.57289868593215940000e-002) (17, -4.50213439762592320000e-002) (18, -1.39898970723152160000e-001) (19, -8.29952135682106020000e-002) (20, -1.25955730676651000000e-001) (21, -6.74261376261711120000e-002) (22, -2.46813371777534480000e-002) (23, -1.12203255295753480000e-001) (24, -1.15885086357593540000e-001) (25, -1.14912383258342740000e-001) (26, -3.41129638254642490000e-002) (27, 2.90901046246290210000e-002) (28, -9.49325636029243470000e-002) (29, -6.50210827589035030000e-002) (30, 1.59338992089033130000e-002) (31, 6.08941428363323210000e-002) (32, -3.46076674759387970000e-002) (33, -9.55984443426132200000e-002) (34, 6.98081552982330320000e-002) (35, -9.51712578535079960000e-002) (36, 2.21828222274780270000e-002) (37, -3.06003578007221220000e-002) (38, 1.06288585811853410000e-002) (39, -7.53250764682888980000e-003) (40, 1.68358776718378070000e-002) (41, -1.52895264327526090000e-002) (42, 7.90332257747650150000e-002) (43, 1.11295036971569060000e-001) (44, 7.14401155710220340000e-002) (45, -2.98086330294609070000e-002) (46, -5.60965202748775480000e-002) (47, 1.09525077044963840000e-001) (48, 1.06002263724803920000e-001) (49, -5.98973371088504790000e-002) (50, 4.30568642914295200000e-002) (51, 2.41848137229681020000e-002) (52, -3.79642277956008910000e-001) (0, 4.76883709430694580000e-001) (1, -9.69439372420310970000e-002) (2, 1.69506490230560300000e-001) (3, 5.29146194458007810000e-002) (4, 4.24351334571838380000e-001) (5, 2.74826698005199430000e-002) (6, 3.17908287048339840000e-001) (7, 2.12073370814323430000e-001) (8, -4.79443073272705080000e-001) (9, 2.86787394434213640000e-002) (10, 2.49337077140808110000e-001) (11, -5.48981018364429470000e-002) (12, 2.66044735908508300000e-001) (13, 3.02012749016284940000e-002) (14, 1.12767219543457030000e-002) (15, -6.21361508965492250000e-002) (16, -2.09633678197860720000e-001) (17, -7.70115554332733150000e-002) (18, -8.71529150754213330000e-003) (19, -4.07694354653358460000e-002) (20, -2.39801518619060520000e-002) (21, -1.22317358851432800000e-001) (22, -6.78709670901298520000e-002) (23, 1.09308503568172450000e-001) (24, 2.28281430900096890000e-002) (25, 7.76857733726501460000e-002) (26, -1.14862732589244840000e-001) (27, -1.51515781879425050000e-001) (28, -1.73642158508300780000e-001) (29, -1.31028905510902400000e-001) (30, -1.40201762318611150000e-001) (31, -1.64724573493003850000e-001) (32, -1.12057238817214970000e-001) (33, -4.62285019457340240000e-002) (34, -1.31677538156509400000e-001) (35, -2.63136774301528930000e-002) (36, -1.56780898571014400000e-001) (37, 3.90648521715775130000e-004) (38, -1.40441711992025380000e-002) (39, -1.12604603171348570000e-001) (40, -3.40195298194885250000e-002) (41, -1.36685431003570560000e-001) (42, -2.05448493361473080000e-001) (43, -1.07525125145912170000e-001) (44, -3.10168921947479250000e-001) (45, 7.70168751478195190000e-003) (46, 2.71963831037282940000e-002) (47, -1.72011345624923710000e-001) (48, -1.37476608157157900000e-001) (49, 1.35915325954556470000e-002) (50, -2.10948493331670760000e-002) (51, -1.16413436830043790000e-001) (52, -3.91133576631546020000e-001) (0, -3.42216283082962040000e-001) (1, -9.93680283427238460000e-002) (2, -7.17794716358184810000e-001) (3, -1.21870316565036770000e-001) (4, -2.79252558946609500000e-001) (5, -8.50429832935333250000e-002) (6, -2.85135447978973390000e-001) (7, -1.96755990386009220000e-001) (8, -1.49813994765281680000e-001) (9, -2.24685728549957280000e-001) (10, -1.74021244049072270000e-001) (11, -1.22098006308078770000e-001) (12, -2.22465097904205320000e-001) (13, -8.87591242790222170000e-002) (14, 1.61336045712232590000e-002) (15, 1.10579738393425940000e-002) (16, 1.30921378731727600000e-001) (17, -2.10943650454282760000e-002) (18, -6.85677602887153630000e-002) (19, 4.19723950326442720000e-002) (20, -1.61008536815643310000e-002) (21, -7.74889737367630000000e-002) (22, -4.57594618201255800000e-002) (23, -1.50790601968765260000e-001) (24, -1.71091314405202870000e-002) (25, -1.17874883115291600000e-001) (26, 7.22760930657386780000e-002) (27, -8.18636193871498110000e-002) (28, -1.03340148925781250000e-001) (29, 5.13235703110694890000e-002) (30, -8.43433514237403870000e-002) (31, -4.17282879352569580000e-002) (32, 6.77564814686775210000e-002) (33, 4.31434288620948790000e-002) (34, 9.82879623770713810000e-002) (35, 2.07076184451580050000e-002) (36, 1.72105990350246430000e-002) (37, -3.71778868138790130000e-002) (38, -5.73863647878170010000e-003) (39, 1.69478468596935270000e-002) (40, -1.65247824043035510000e-002) (41, 9.49634537100791930000e-002) (42, 1.05977147817611690000e-001) (43, 1.62903159856796260000e-001) (44, 1.12534411251544950000e-001) (45, -4.72620017826557160000e-002) (46, 3.11559792608022690000e-002) (47, 3.99965420365333560000e-002) (48, 7.47340098023414610000e-002) (49, 5.06007745862007140000e-002) (50, 3.89430634677410130000e-002) (51, 1.12319447100162510000e-001) (52, -3.59835863113403320000e-001) (0, -1.94049566984176640000e-001) (1, -2.00785189867019650000e-001) (2, -5.55677294731140140000e-001) (3, -1.26297891139984130000e-001) (4, -6.43491670489311220000e-002) (5, -4.51272465288639070000e-002) (6, -3.38381752371788020000e-002) (7, -1.17724955081939700000e-001) (8, -2.55975365638732910000e-001) (9, -7.10811764001846310000e-002) (10, -2.15993337333202360000e-002) (11, -8.30539688467979430000e-002) (12, -9.84022468328475950000e-002) (13, -1.04565203189849850000e-001) (14, -1.61544941365718840000e-002) (15, 6.36629089713096620000e-002) (16, 1.97346173226833340000e-002) (17, -9.53962579369544980000e-002) (18, 1.52162285521626470000e-002) (19, 6.98156207799911500000e-002) (20, 5.66796213388442990000e-002) (21, 4.95009832084178920000e-002) (22, -9.23976600170135500000e-002) (23, -1.06304802000522610000e-001) (24, 8.04895907640457150000e-003) (25, 1.23151680454611780000e-002) (26, 6.93504363298416140000e-002) (27, -7.91757404804229740000e-002) (28, 1.31740197539329530000e-002) (29, -5.05668371915817260000e-002) (30, 1.32478177547454830000e-002) (31, 4.92163337767124180000e-002) (32, -4.86352406442165370000e-002) (33, 1.19363302364945410000e-002) (34, 6.47678039968013760000e-003) (35, 3.17822284996509550000e-002) (36, 6.74567073583602910000e-002) (37, -4.07040864229202270000e-003) (38, -4.27117757499217990000e-002) (39, 8.09238404035568240000e-002) (40, -8.67996960878372190000e-002) (41, 1.29667982459068300000e-001) (42, 9.19852852821350100000e-002) (43, 1.34747847914695740000e-001) (44, 4.81923706829547880000e-002) (45, 3.60761918127536770000e-002) (46, 4.61870199069380760000e-003) (47, 1.16882838308811190000e-001) (48, -4.76356670260429380000e-002) (49, 2.22131330519914630000e-002) (50, 2.40441858768463130000e-002) (51, -6.33583739399909970000e-002) (52, -3.26360344886779790000e-001) (0, -3.58925789594650270000e-001) (1, -1.17516882717609410000e-001) (2, -6.33925974369049070000e-001) (3, -7.89735317230224610000e-002) (4, -1.78888201713562010000e-001) (5, -1.05697870254516600000e-001) (6, -1.20282232761383060000e-001) (7, -1.67126670479774480000e-001) (8, -1.58584907650947570000e-001) (9, -1.91957950592041020000e-001) (10, -9.00338683277368550000e-003) (11, -9.04960334300994870000e-002) (12, 6.14368636161088940000e-003) (13, -1.39821752905845640000e-001) (14, 5.93847185373306270000e-002) (15, -9.02387872338294980000e-002) (16, 4.64855954051017760000e-002) (17, -8.22519361972808840000e-002) (18, -5.25546818971633910000e-002) (19, 4.49168570339679720000e-002) (20, 7.44328796863555910000e-002) (21, -1.15468345582485200000e-001) (22, 1.22018959373235700000e-002) (23, -4.14928980171680450000e-002) (24, -3.96476089954376220000e-002) (25, -2.73660756647586820000e-002) (26, -6.52421563863754270000e-002) (27, -8.72199311852455140000e-002) (28, -1.35009527206420900000e-001) (29, -2.64627542346715930000e-002) (30, -3.62389981746673580000e-002) (31, -7.57337510585784910000e-002) (32, 2.60240305215120320000e-002) (33, -3.46217714250087740000e-002) (34, -1.09952539205551150000e-002) (35, 1.54892420396208760000e-002) (36, 1.03420577943325040000e-002) (37, -3.41526046395301820000e-002) (38, 4.20681089162826540000e-002) (39, -7.96259567141532900000e-003) (40, -9.40721407532691960000e-002) (41, 3.90629097819328310000e-002) (42, -9.22662671655416490000e-003) (43, 5.32660745084285740000e-002) (44, 5.77154709026217460000e-003) (45, -7.10359439253807070000e-002) (46, 3.73199209570884700000e-002) (47, 1.51174440979957580000e-001) (48, 7.91315734386444090000e-002) (49, 8.31843018531799320000e-002) (50, 1.76875516772270200000e-002) (51, 5.96186593174934390000e-002) (52, -3.50488632917404170000e-001) (0, -3.18142414093017580000e-001) (1, -9.21453759074211120000e-002) (2, -7.73712694644927980000e-001) (3, -1.96845501661300660000e-001) (4, -3.51536959409713750000e-001) (5, -7.39262178540229800000e-002) (6, -1.89930722117424010000e-001) (7, -1.77082836627960210000e-001) (8, -9.06931757926940920000e-002) (9, -2.43275746703147890000e-001) (10, -1.29843428730964660000e-001) (11, -9.77818518877029420000e-002) (12, -2.12328240275383000000e-001) (13, -1.91816627979278560000e-001) (14, 3.46116609871387480000e-002) (15, -4.79587242007255550000e-002) (16, 1.24218352138996120000e-001) (17, -1.77569895982742310000e-001) (18, -2.08758458495140080000e-001) (19, -2.93619502335786820000e-002) (20, 3.33182588219642640000e-002) (21, 8.60337354242801670000e-003) (22, 1.73463355749845500000e-002) (23, -3.34639437496662140000e-002) (24, -1.06192015111446380000e-001) (25, 2.63870023190975190000e-002) (26, 6.54924437403678890000e-002) (27, -1.58836901187896730000e-001) (28, -2.12920573540031910000e-003) (29, 5.16032651066780090000e-002) (30, 8.11911150813102720000e-002) (31, 1.19259105995297430000e-002) (32, -7.65626728534698490000e-002) (33, 3.00811678171157840000e-002) (34, -2.82362382858991620000e-002) (35, -1.28534901887178420000e-002) (36, 1.12009517848491670000e-001) (37, 1.57510619610548020000e-002) (38, -3.64950038492679600000e-002) (39, -3.94433066248893740000e-002) (40, 1.23617671430110930000e-001) (41, 4.81354333460330960000e-002) (42, 1.76158040761947630000e-001) (43, 9.56819280982017520000e-002) (44, 2.87029057741165160000e-001) (45, 4.01876978576183320000e-002) (46, 1.11940555274486540000e-001) (47, 1.67965352535247800000e-001) (48, 7.15706422924995420000e-002) (49, 1.41516879200935360000e-001) (50, 1.29645630717277530000e-001) (51, 6.34651705622673030000e-002) (52, -4.50156271457672120000e-001) (0, 2.04206526279449460000e-001) (1, 2.48011890798807140000e-002) (2, -9.04849916696548460000e-002) (3, -6.69296234846115110000e-002) (4, 2.28717580437660220000e-001) (5, -9.15951356291770940000e-002) (6, 1.21247835457324980000e-001) (7, 1.62348896265029910000e-001) (8, -4.46570962667465210000e-001) (9, 3.10260225087404250000e-002) (10, 6.30808845162391660000e-002) (11, -1.05483949184417720000e-001) (12, 1.22271925210952760000e-001) (13, -1.22788451611995700000e-001) (14, 8.19161236286163330000e-002) (15, 5.03130350261926650000e-003) (16, 8.13927035778760910000e-003) (17, -1.49346426129341130000e-001) (18, 4.95158955454826350000e-002) (19, 2.22523398697376250000e-002) (20, 3.13165113329887390000e-002) (21, -1.70283894985914230000e-002) (22, -1.02115206420421600000e-001) (23, -1.38199897482991220000e-002) (24, 1.12487234175205230000e-001) (25, 8.34117978811264040000e-002) (26, -4.85530383884906770000e-002) (27, 6.83340802788734440000e-002) (28, -2.11085230112075810000e-001) (29, -9.78604704141616820000e-002) (30, 3.40844616293907170000e-002) (31, -1.16611488163471220000e-001) (32, 2.99889389425516130000e-002) (33, -4.90306802093982700000e-002) (34, -4.95725460350513460000e-002) (35, 3.94664295017719270000e-002) (36, -4.79614548385143280000e-002) (37, -4.80163879692554470000e-002) (38, -2.52258554100990300000e-002) (39, 3.11852544546127320000e-002) (40, -1.18027344346046450000e-001) (41, -1.16063334047794340000e-001) (42, -1.76415488123893740000e-001) (43, -1.45672529935836790000e-001) (44, -6.88526779413223270000e-002) (45, -8.56801718473434450000e-002) (46, -9.34926643967628480000e-002) (47, -1.28200381994247440000e-001) (48, -5.81329539418220520000e-002) (49, -1.81549433618783950000e-002) (50, -1.36019676923751830000e-001) (51, -3.52203696966171260000e-002) (52, -3.89059722423553470000e-001) (0, -3.38986426591873170000e-001) (1, -2.69712537527084350000e-001) (2, -6.19400322437286380000e-001) (3, -1.97485834360122680000e-001) (4, -1.77629873156547550000e-001) (5, -1.51517659425735470000e-001) (6, -1.16735041141510010000e-001) (7, -9.95048359036445620000e-002) (8, -2.28792220354080200000e-001) (9, -1.19036041200160980000e-001) (10, -1.69955611228942870000e-001) (11, -1.18218563497066500000e-001) (12, -1.21328150853514670000e-002) (13, -1.07701569795608520000e-001) (14, -6.52748122811317440000e-002) (15, 1.04540571570396420000e-001) (16, 5.00205196440219880000e-002) (17, -9.09829065203666690000e-002) (18, 7.02183810062706470000e-004) (19, -1.22290812432765960000e-001) (20, -1.16206342354416850000e-002) (21, -8.68398249149322510000e-002) (22, -3.92233282327651980000e-002) (23, -2.31605991721153260000e-002) (24, 5.90081233531236650000e-003) (25, 1.47303715348243710000e-002) (26, -8.12427550554275510000e-002) (27, 3.71292568743228910000e-002) (28, 3.36881875991821290000e-002) (29, 4.94578387588262560000e-003) (30, -1.52157573029398920000e-003) (31, -2.52693276852369310000e-002) (32, -7.53364115953445430000e-002) (33, -4.67216745018959050000e-002) (34, 7.18031823635101320000e-002) (35, 1.32533349096775050000e-002) (36, 2.40266975015401840000e-002) (37, -3.58182564377784730000e-002) (38, 2.81648915261030200000e-002) (39, 7.11608678102493290000e-002) (40, 7.99925699830055240000e-002) (41, -2.49299313873052600000e-003) (42, -2.40768701769411560000e-003) (43, 9.66532453894615170000e-002) (44, 2.25817039608955380000e-001) (45, 6.07981979846954350000e-002) (46, -3.17982621490955350000e-002) (47, 1.25497639179229740000e-001) (48, -3.46048884093761440000e-002) (49, 1.15004427731037140000e-001) (50, 1.32826790213584900000e-001) (51, 1.05074003338813780000e-001) (52, -3.04074019193649290000e-001) (0, -2.94801980257034300000e-001) (1, -5.57924583554267880000e-002) (2, -6.12178564071655270000e-001) (3, -1.75815597176551820000e-001) (4, -2.01846957206726070000e-001) (5, -1.39585420489311220000e-001) (6, -1.75282210111618040000e-001) (7, -2.21437007188797000000e-001) (8, -1.39401644468307500000e-001) (9, -2.03016757965087890000e-001) (10, -1.25817418098449710000e-001) (11, -1.58986136317253110000e-001) (12, -4.36109192669391630000e-002) (13, -2.29824110865592960000e-001) (14, -6.98815062642097470000e-002) (15, -2.38797208294272420000e-003) (16, 5.64659312367439270000e-002) (17, -3.83731648325920100000e-002) (18, -1.48573458194732670000e-001) (19, -1.17254972457885740000e-001) (20, -7.74182602763175960000e-002) (21, 6.15222193300724030000e-002) (22, 1.56047577038407330000e-002) (23, -6.34391382336616520000e-002) (24, -6.23565651476383210000e-002) (25, -1.13608747720718380000e-001) (26, -1.05893813073635100000e-001) (27, 6.01002909243106840000e-002) (28, -1.31344854831695560000e-001) (29, -2.99849249422550200000e-002) (30, 6.00060969591140750000e-002) (31, 6.79331272840499880000e-002) (32, -3.46181094646453860000e-002) (33, -5.99973462522029880000e-003) (34, -1.94977351929992440000e-003) (35, -1.04638971388340000000e-001) (36, -9.59942415356636050000e-002) (37, -1.02276382967829700000e-002) (38, -6.38958215713500980000e-002) (39, 2.06186138093471530000e-002) (40, -8.86606201529502870000e-002) (41, 4.30388674139976500000e-002) (42, -1.58597081899642940000e-002) (43, 2.22968682646751400000e-001) (44, 2.50152677297592160000e-001) (45, -4.25303913652896880000e-002) (46, 7.49134868383407590000e-002) (47, 1.39481171965599060000e-001) (48, 1.66239842772483830000e-001) (49, 7.12082907557487490000e-002) (50, 5.36363758146762850000e-002) (51, 1.54496699571609500000e-001) (52, -4.01101768016815190000e-001) (0, -2.18048244714736940000e-001) (1, -2.18006491661071780000e-001) (2, -5.70708811283111570000e-001) (3, -2.26615071296691890000e-001) (4, -1.88869759440422060000e-001) (5, -1.70160874724388120000e-001) (6, -1.00470013916492460000e-001) (7, -3.75123061239719390000e-002) (8, -1.73079550266265870000e-001) (9, -9.59465503692626950000e-002) (10, -1.57620668411254880000e-001) (11, -1.23192325234413150000e-001) (12, -8.93563851714134220000e-002) (13, -1.64141789078712460000e-001) (14, -6.43452778458595280000e-002) (15, 3.93697805702686310000e-002) (16, 5.16278222203254700000e-002) (17, -4.79221343994140630000e-002) (18, -8.79885628819465640000e-002) (19, -4.89126630127429960000e-002) (20, 3.58017976395785810000e-003) (21, 8.11129063367843630000e-002) (22, 5.03988377749919890000e-002) (23, 6.68170973658561710000e-002) (24, -7.76865556836128230000e-002) (25, -5.02836927771568300000e-002) (26, 6.44704252481460570000e-002) (27, -3.79250198602676390000e-002) (28, -1.50546938180923460000e-001) (29, -7.94751569628715520000e-002) (30, 3.93537990748882290000e-002) (31, 8.62461328506469730000e-003) (32, 5.35099469125270840000e-002) (33, 5.28410077095031740000e-002) (34, -7.80978277325630190000e-002) (35, -8.34110844880342480000e-003) (36, -9.93896089494228360000e-003) (37, 5.55944889783859250000e-002) (38, 2.88305599242448810000e-002) (39, 4.92262607440352440000e-003) (40, 8.81169661879539490000e-002) (41, 1.51391565799713130000e-001) (42, 5.67134991288185120000e-002) (43, 4.10529738292098050000e-003) (44, 1.69763177633285520000e-001) (45, 2.12425682693719860000e-002) (46, -2.55042873322963710000e-002) (47, 9.53350439667701720000e-002) (48, 3.28083448112010960000e-002) (49, 9.16460826992988590000e-002) (50, -1.68438032269477840000e-002) (51, 7.59469019249081610000e-003) (52, -3.77277344465255740000e-001) (0, -1.07478648424148560000e-001) (1, -1.62946686148643490000e-001) (2, -2.41894632577896120000e-001) (3, -8.99951159954071040000e-003) (4, 5.02039901912212370000e-002) (5, -1.23919866979122160000e-001) (6, -1.03104850277304650000e-002) (7, 1.37771421577781440000e-003) (8, -3.21343302726745610000e-001) (9, -1.91028900444507600000e-002) (10, -3.21123562753200530000e-002) (11, -1.00525759160518650000e-001) (12, 5.98076656460762020000e-002) (13, 3.56581062078475950000e-003) (14, 5.72534166276454930000e-002) (15, -5.27631193399429320000e-002) (16, -3.80855910480022430000e-002) (17, -7.03059807419776920000e-002) (18, 3.38168479502201080000e-002) (19, 2.09382586181163790000e-002) (20, 4.35091666877269740000e-002) (21, 5.76519109308719640000e-002) (22, -1.10820852220058440000e-001) (23, -3.15105798654258250000e-003) (24, -4.66910712420940400000e-002) (25, 2.54296362400054930000e-002) (26, -8.98952037096023560000e-002) (27, -9.41587463021278380000e-002) (28, -6.79423660039901730000e-002) (29, -9.55470874905586240000e-002) (30, -8.40368643403053280000e-002) (31, -1.17556937038898470000e-001) (32, -1.03030569851398470000e-001) (33, 5.45007623732090000000e-002) (34, -9.12627279758453370000e-002) (35, 4.11902442574501040000e-002) (36, 9.18727740645408630000e-002) (37, 7.55887990817427640000e-003) (38, -6.96138711646199230000e-003) (39, -6.63800835609436040000e-002) (40, -2.37662959843873980000e-002) (41, 5.01309670507907870000e-002) (42, -6.47539421916008000000e-002) (43, -1.05650350451469420000e-001) (44, -8.34990143775939940000e-002) (45, -9.64336916804313660000e-002) (46, 1.16716865450143810000e-002) (47, 2.36713550984859470000e-002) (48, -1.81517042219638820000e-002) (49, 8.58888849616050720000e-002) (50, -4.61667701601982120000e-002) (51, 5.41395135223865510000e-003) (52, -3.61642539501190190000e-001) (0, -3.43632131814956670000e-001) (1, -1.80661112070083620000e-001) (2, -6.42562687397003170000e-001) (3, -1.39517813920974730000e-001) (4, -2.69447386264801030000e-001) (5, -6.09361641108989720000e-002) (6, -1.79046660661697390000e-001) (7, -4.48671951889991760000e-002) (8, -2.56763577461242680000e-001) (9, -2.04458042979240420000e-001) (10, 1.07731626485474410000e-004) (11, -1.34888231754302980000e-001) (12, -9.91054773330688480000e-002) (13, -2.03382745385169980000e-001) (14, -4.93153780698776250000e-002) (15, -4.87690605223178860000e-002) (16, 6.97548463940620420000e-002) (17, -6.57217502593994140000e-002) (18, -7.67978727817535400000e-002) (19, 2.28699129074811940000e-002) (20, -1.21036879718303680000e-001) (21, -3.70125956833362580000e-002) (22, 1.68304238468408580000e-002) (23, -1.27417355775833130000e-001) (24, 1.46020771935582160000e-002) (25, -1.28842175006866460000e-001) (26, 5.89080005884170530000e-002) (27, 1.23949544504284860000e-002) (28, 4.15493175387382510000e-002) (29, -4.38633263111114500000e-002) (30, 2.72794924676418300000e-002) (31, -6.08766498044133190000e-003) (32, 5.71630597114562990000e-002) (33, 6.24556131660938260000e-002) (34, -9.54664498567581180000e-002) (35, -1.15601278841495510000e-001) (36, -1.84082593768835070000e-002) (37, -3.21900062263011930000e-002) (38, -3.88794429600238800000e-002) (39, 3.85227687656879430000e-002) (40, 1.35337226092815400000e-002) (41, 4.68054898083209990000e-002) (42, 7.27274119853973390000e-002) (43, 1.75236731767654420000e-001) (44, 1.41998261213302610000e-001) (45, -2.63904668390750890000e-002) (46, 7.42626115679740910000e-002) (47, 5.79589121043682100000e-002) (48, 4.83324304223060610000e-002) (49, -1.76771562546491620000e-002) (50, 7.94052630662918090000e-002) (51, -3.48891392350196840000e-002) (52, -3.28296720981597900000e-001) (0, -4.62688028812408450000e-001) (1, -1.91522762179374690000e-001) (2, -7.81563520431518550000e-001) (3, -2.95373976230621340000e-001) (4, -3.50426524877548220000e-001) (5, -1.74216568470001220000e-001) (6, -3.00974518060684200000e-001) (7, -2.67630994319915770000e-001) (8, -1.20037838816642760000e-001) (9, -1.77888259291648860000e-001) (10, -1.40902355313301090000e-001) (11, -1.16438157856464390000e-001) (12, -2.64603376388549800000e-001) (13, -1.81962952017784120000e-001) (14, -8.80259554833173750000e-003) (15, 2.82822139561176300000e-002) (16, 3.40576171875000000000e-002) (17, -3.70568297803401950000e-002) (18, -1.03473894298076630000e-001) (19, -7.69195519387722020000e-003) (20, -4.28367927670478820000e-002) (21, -4.70062531530857090000e-002) (22, 8.73035285621881480000e-003) (23, -1.44355714321136470000e-001) (24, -1.42405077815055850000e-001) (25, -9.74694490432739260000e-002) (26, 4.99577149748802190000e-002) (27, -6.76517607644200330000e-003) (28, -8.10063350945711140000e-003) (29, -9.78314578533172610000e-002) (30, 1.05629116296768190000e-002) (31, -7.28875324130058290000e-002) (32, 8.36616083979606630000e-002) (33, 2.16709505766630170000e-002) (34, 6.24733194708824160000e-002) (35, 6.00826255977153780000e-002) (36, 5.11415638029575350000e-002) (37, 8.21535587310791020000e-002) (38, 4.33534830808639530000e-002) (39, -6.25834539532661440000e-002) (40, 3.09623479843139650000e-002) (41, 1.36108040809631350000e-001) (42, 2.15129986405372620000e-001) (43, 2.17945441603660580000e-001) (44, 1.70138284564018250000e-001) (45, 1.28242731094360350000e-001) (46, 4.73772883415222170000e-002) (47, 6.35859370231628420000e-002) (48, -2.96870549209415910000e-003) (49, 1.73447236418724060000e-001) (50, 7.13660493493080140000e-002) (51, 1.65933817625045780000e-001) (52, -4.24709975719451900000e-001) (0, 3.38400512933731080000e-001) (1, -1.30600944161415100000e-001) (2, -3.24476463720202450000e-003) (3, -4.92036715149879460000e-002) (4, 1.97996556758880620000e-001) (5, 9.88199282437562940000e-003) (6, 2.27679818868637080000e-001) (7, 1.27063408493995670000e-001) (8, -4.61284965276718140000e-001) (9, 1.25983759760856630000e-001) (10, 8.02852064371109010000e-002) (11, 8.68011359125375750000e-003) (12, 2.20963165163993840000e-001) (13, -1.33170768618583680000e-001) (14, -9.97335538268089290000e-002) (15, -5.68685382604599000000e-002) (16, -1.05971112847328190000e-001) (17, -1.43151938915252690000e-001) (18, 4.76483367383480070000e-002) (19, -4.31783273816108700000e-002) (20, -9.14726629853248600000e-002) (21, -4.13526408374309540000e-002) (22, 6.60542026162147520000e-002) (23, 1.46254599094390870000e-001) (24, 1.28409802913665770000e-001) (25, 2.60638389736413960000e-002) (26, -1.68738458305597310000e-002) (27, -4.47952598333358760000e-002) (28, -1.03751063346862790000e-001) (29, -7.28515312075614930000e-002) (30, 4.44621918722987170000e-003) (31, -1.44880995154380800000e-001) (32, -6.41864687204360960000e-002) (33, -1.32293626666069030000e-001) (34, -1.23883284628391270000e-001) (35, -9.95752364397048950000e-002) (36, 2.33031734824180600000e-002) (37, -7.68250077962875370000e-002) (38, -9.08210687339305880000e-003) (39, -1.28216952085495000000e-001) (40, -1.26915380358695980000e-001) (41, -4.43946383893489840000e-002) (42, -1.31134167313575740000e-001) (43, -4.36831340193748470000e-002) (44, -2.46147245168685910000e-001) (45, -2.32407469302415850000e-002) (46, -7.43875745683908460000e-003) (47, -5.89132420718669890000e-002) (48, 3.17957848310470580000e-002) (49, -8.35117921233177190000e-002) (50, 2.50697135925292970000e-002) (51, -9.96738597750663760000e-002) (52, -3.57358664274215700000e-001) (0, -2.09540531039237980000e-001) (1, -2.30170324444770810000e-001) (2, -5.60833096504211430000e-001) (3, -1.83745101094245910000e-001) (4, -2.30814278125762940000e-001) (5, -1.07025489211082460000e-001) (6, -2.09568500518798830000e-001) (7, -8.32317695021629330000e-002) (8, -2.51194804906845090000e-001) (9, -1.46193370223045350000e-001) (10, -8.69607180356979370000e-002) (11, -1.47334095090627670000e-002) (12, -1.46963641047477720000e-001) (13, -1.91499352455139160000e-001) (14, -3.21424342691898350000e-002) (15, 4.36176992952823640000e-002) (16, -3.65405939519405360000e-002) (17, -3.43054793775081630000e-002) (18, -1.66141390800476070000e-002) (19, 6.50608390569686890000e-002) (20, -4.77136634290218350000e-002) (21, -9.68682467937469480000e-002) (22, 4.13776859641075130000e-002) (23, -6.65641948580741880000e-002) (24, 1.26880872994661330000e-002) (25, -1.20393730700016020000e-001) (26, 7.62714594602584840000e-002) (27, -1.03763878345489500000e-001) (28, 5.25465458631515500000e-002) (29, -3.33998166024684910000e-002) (30, -1.11704513430595400000e-001) (31, 6.26510530710220340000e-002) (32, -8.52204114198684690000e-003) (33, 3.59091535210609440000e-002) (34, -3.61113511025905610000e-002) (35, -9.03295651078224180000e-002) (36, 2.96805128455162050000e-002) (37, 4.87111657857894900000e-002) (38, -7.48544260859489440000e-002) (39, -3.38960662484169010000e-002) (40, -6.90661296248435970000e-002) (41, 1.07818551361560820000e-001) (42, -1.41283217817544940000e-002) (43, 1.70003220438957210000e-001) (44, 1.38766497373580930000e-001) (45, 3.61153148114681240000e-002) (46, 1.25293582677841190000e-001) (47, 1.73409581184387210000e-001) (48, 1.39747843146324160000e-001) (49, 3.99983040988445280000e-002) (50, -4.40350100398063660000e-002) (51, 7.06928148865699770000e-002) (52, -3.01088690757751460000e-001) (0, -2.26825863122940060000e-001) (1, -1.30280986428260800000e-001) (2, -6.49564743041992190000e-001) (3, -1.78333625197410580000e-001) (4, -1.37942090630531310000e-001) (5, -1.77976444363594060000e-001) (6, -1.85626655817031860000e-001) (7, -1.19391255080699920000e-001) (8, -1.16984158754348750000e-001) (9, -9.83325392007827760000e-002) (10, -1.40821948647499080000e-001) (11, -8.00371021032333370000e-002) (12, -1.72642290592193600000e-001) (13, -2.27365642786026000000e-001) (14, 2.74606253951787950000e-002) (15, -8.30889940261840820000e-002) (16, 6.63141459226608280000e-002) (17, -1.41165986657142640000e-001) (18, -1.08864523470401760000e-001) (19, -6.18748031556606290000e-002) (20, -5.76306767761707310000e-002) (21, 3.43297161161899570000e-002) (22, 7.61964619159698490000e-002) (23, 3.16178947687149050000e-002) (24, -2.64533162117004390000e-002) (25, -6.68571703135967250000e-003) (26, -4.80642654001712800000e-002) (27, 5.02936244010925290000e-002) (28, -4.51307483017444610000e-002) (29, 2.21611745655536650000e-003) (30, 4.85736802220344540000e-002) (31, 4.17189747095108030000e-002) (32, 2.79189478605985640000e-002) (33, 5.41641861200332640000e-002) (34, -5.30482493340969090000e-002) (35, 1.85137838125228880000e-002) (36, 5.58675564825534820000e-002) (37, 2.57407072931528090000e-002) (38, -4.74039129912853240000e-002) (39, -2.14604306966066360000e-002) (40, 9.67434868216514590000e-002) (41, -1.39428386464715000000e-002) (42, 2.92506478726863860000e-002) (43, 1.23586736619472500000e-001) (44, 2.09531202912330630000e-001) (45, 1.25544145703315730000e-001) (46, 7.19431489706039430000e-002) (47, 1.32518723607063290000e-001) (48, 2.46076639741659160000e-002) (49, 4.79562534019351010000e-003) (50, 6.61664456129074100000e-002) (51, -2.61858645826578140000e-002) (52, -4.16396588087081910000e-001) (0, 7.73125961422920230000e-002) (1, -7.11982697248458860000e-002) (2, -2.99054086208343510000e-001) (3, -5.25313057005405430000e-002) (4, 1.54960351064801220000e-002) (5, 1.32844820618629460000e-002) (6, 1.12621985375881200000e-001) (7, 3.79332900047302250000e-002) (8, -3.31869632005691530000e-001) (9, -5.75371682643890380000e-002) (10, -1.12302741035819050000e-002) (11, -5.77153675258159640000e-002) (12, 1.19074448943138120000e-001) (13, -4.91878986358642580000e-002) (14, -9.64646339416503910000e-002) (15, 6.85136914253234860000e-002) (16, -4.74629849195480350000e-002) (17, -1.11243627965450290000e-001) (18, 5.02295270562171940000e-002) (19, 7.41606280207633970000e-002) (20, -1.33189214393496510000e-002) (21, -3.61810326576232910000e-002) (22, -8.11868011951446530000e-002) (23, 1.02258160710334780000e-001) (24, -5.31582832336425780000e-002) (25, -4.30140122771263120000e-002) (26, -1.24432966113090520000e-002) (27, 5.57602830231189730000e-002) (28, -1.76535278558731080000e-001) (29, -5.23938201367855070000e-002) (30, -7.43852108716964720000e-002) (31, 4.68199290335178380000e-002) (32, -1.46081805229187010000e-001) (33, 1.11349727958440780000e-002) (34, -7.72275626659393310000e-002) (35, -1.24994769692420960000e-001) (36, -1.14772133529186250000e-001) (37, -2.82977279275655750000e-002) (38, -3.57257388532161710000e-002) (39, 6.83762580156326290000e-002) (40, 5.05801737308502200000e-002) (41, -1.12239733338356020000e-001) (42, -1.27949059009552000000e-001) (43, -3.12263239175081250000e-002) (44, -1.20384424924850460000e-001) (45, -6.49271309375762940000e-002) (46, 7.62288197875022890000e-002) (47, -9.27741751074790950000e-002) (48, -1.10134646296501160000e-001) (49, -7.91349187493324280000e-002) (50, 2.72534787654876710000e-003) (51, -9.29105281829833980000e-002) (52, -3.01010996103286740000e-001) (0, 4.15296554565429690000e-001) (1, -5.37216141819953920000e-002) (2, 6.27467930316925050000e-002) (3, -2.10421774536371230000e-002) (4, 3.54238092899322510000e-001) (5, 6.47714957594871520000e-002) (6, 2.89185017347335820000e-001) (7, 3.43823641538620000000e-001) (8, -5.33589780330657960000e-001) (9, 7.34679102897644040000e-002) (10, 1.71676799654960630000e-001) (11, -5.90993314981460570000e-002) (12, 1.14988192915916440000e-001) (13, -1.47987112402915950000e-001) (14, -8.64536985754966740000e-002) (15, -2.44580004364252090000e-002) (16, -1.27263695001602170000e-001) (17, -1.53121814131736760000e-001) (18, 3.14676724374294280000e-002) (19, -6.83758258819580080000e-002) (20, -3.27856764197349550000e-002) (21, -9.44568365812301640000e-002) (22, -8.18912684917449950000e-002) (23, -4.31894417852163310000e-003) (24, 4.26108241081237790000e-002) (25, -4.92312498390674590000e-002) (26, -3.41501794755458830000e-002) (27, -1.30377933382987980000e-001) (28, -1.63488820195198060000e-001) (29, -1.73865765333175660000e-001) (30, -5.44959194958209990000e-002) (31, 1.61298457533121110000e-002) (32, -1.48488342761993410000e-001) (33, -1.87394004315137860000e-002) (34, -1.34634062647819520000e-001) (35, -1.43248900771141050000e-001) (36, -1.54534921050071720000e-001) (37, -1.62792965769767760000e-001) (38, -1.14923067390918730000e-001) (39, -1.18615720421075820000e-002) (40, -1.54538229107856750000e-002) (41, -1.54584378004074100000e-001) (42, -9.80768427252769470000e-002) (43, -1.23365417122840880000e-001) (44, -1.76483288407325740000e-001) (45, 1.34104704484343530000e-002) (46, 1.49851702153682710000e-002) (47, -3.55301164090633390000e-002) (48, -1.21529646217823030000e-001) (49, -4.02613766491413120000e-002) (50, 2.55589354783296590000e-002) (51, -5.08387461304664610000e-002) (52, -3.85506212711334230000e-001) (0, 1.59412145614624020000e-001) (1, -7.81683847308158870000e-002) (2, -2.29001969099044800000e-001) (3, -4.22471612691879270000e-002) (4, 6.41197115182876590000e-002) (5, -1.17697335779666900000e-001) (6, 6.17346763610839840000e-002) (7, 1.69449672102928160000e-001) (8, -3.54397535324096680000e-001) (9, 1.01590961217880250000e-001) (10, 1.92907020449638370000e-001) (11, -9.55158919095993040000e-002) (12, 1.04812577366828920000e-001) (13, -1.94809082895517350000e-002) (14, -2.86194682121276860000e-002) (15, -5.83074651658535000000e-002) (16, -1.39890164136886600000e-001) (17, -5.05092851817607880000e-002) (18, -2.46129464358091350000e-002) (19, -7.62972906231880190000e-002) (20, -1.16308040916919710000e-001) (21, -8.96207317709922790000e-002) (22, -3.28006077324971560000e-004) (23, 4.46094162762165070000e-002) (24, 4.48601283133029940000e-002) (25, 3.91728207468986510000e-002) (26, -1.00071825087070470000e-001) (27, -4.45825653150677680000e-003) (28, -1.36174529790878300000e-001) (29, -4.79856133460998540000e-002) (30, 4.32909913361072540000e-002) (31, -3.41680943965911870000e-002) (32, -1.04217976331710820000e-001) (33, -1.50445755571126940000e-002) (34, -1.05713672935962680000e-001) (35, -6.95977807044982910000e-002) (36, 5.15345595777034760000e-002) (37, -9.33018475770950320000e-002) (38, 2.11146492511034010000e-002) (39, -6.64096698164939880000e-003) (40, -9.44458395242691040000e-002) (41, -5.48435263335704800000e-002) (42, -8.69829580187797550000e-003) (43, -9.64695364236831670000e-002) (44, -8.19679498672485350000e-002) (45, 1.73764135688543320000e-002) (46, 2.35409624874591830000e-002) (47, 1.94633603096008300000e-002) (48, -1.83293502777814870000e-002) (49, -8.57120454311370850000e-002) (50, 1.40376342460513110000e-002) (51, -7.30289518833160400000e-002) (52, -3.52008253335952760000e-001) (0, 4.10235822200775150000e-001) (1, -5.41073605418205260000e-002) (2, 7.37652033567428590000e-002) (3, -6.73768669366836550000e-002) (4, 3.87835621833801270000e-001) (5, 7.26106017827987670000e-002) (6, 1.66465535759925840000e-001) (7, 1.50626957416534420000e-001) (8, -4.59151297807693480000e-001) (9, 1.96562305092811580000e-001) (10, 2.54322141408920290000e-001) (11, 8.15822463482618330000e-003) (12, 2.52069175243377690000e-001) (13, 3.86484116315841670000e-002) (14, -4.13417816162109380000e-002) (15, -1.32980749011039730000e-001) (16, -6.92056193947792050000e-002) (17, -1.88118144869804380000e-001) (18, 1.47211864590644840000e-001) (19, 3.72153153875842690000e-004) (20, -1.09076492488384250000e-001) (21, -5.56683987379074100000e-002) (22, -1.09888382256031040000e-001) (23, 3.06251086294651030000e-002) (24, 6.72848075628280640000e-002) (25, 3.01289986819028850000e-002) (26, -1.63889061659574510000e-002) (27, -9.85442772507667540000e-002) (28, -1.85978800058364870000e-001) (29, -1.67064413428306580000e-001) (30, -8.91914144158363340000e-002) (31, -1.16253934800624850000e-001) (32, 5.06583787500858310000e-003) (33, -1.08847260475158690000e-001) (34, -2.31622710824012760000e-001) (35, -1.10157087445259090000e-001) (36, -8.26895087957382200000e-002) (37, 1.00780706852674480000e-002) (38, -9.94375795125961300000e-002) (39, 2.27349717170000080000e-002) (40, -4.59050610661506650000e-002) (41, -2.45597898960113530000e-001) (42, -1.05663016438484190000e-001) (43, -2.38792523741722110000e-001) (44, -2.22094804048538210000e-001) (45, 7.95750413089990620000e-003) (46, -4.17617522180080410000e-002) (47, -1.24285914003849030000e-001) (48, -1.09434567391872410000e-001) (49, -9.98392235487699510000e-003) (50, 4.06032521277666090000e-003) (51, -7.92893096804618840000e-002) (52, -3.27251374721527100000e-001) (0, 2.91853517293930050000e-001) (1, -1.90474882721900940000e-001) (2, -1.20424821972846980000e-001) (3, -1.08990661799907680000e-001) (4, 2.45898306369781490000e-001) (5, -7.27474018931388850000e-002) (6, 1.27517431974411010000e-001) (7, 2.23666176199913020000e-001) (8, -3.15077811479568480000e-001) (9, 4.86094281077384950000e-002) (10, 5.78219890594482420000e-002) (11, -3.60749848186969760000e-002) (12, 1.32030630484223370000e-002) (13, -9.97808799147605900000e-002) (14, -3.03538367152214050000e-002) (15, 2.20868252217769620000e-002) (16, -4.50234562158584590000e-002) (17, -2.12903872132301330000e-001) (18, 5.26307895779609680000e-002) (19, 4.88204910652711990000e-004) (20, -1.09534479677677150000e-001) (21, 4.26845885813236240000e-002) (22, 4.83403541147708890000e-002) (23, -4.18262742459774020000e-002) (24, 8.28249454498291020000e-002) (25, -7.03867524862289430000e-002) (26, -1.28077596426010130000e-001) (27, -2.17650234699249270000e-002) (28, -2.16688260436058040000e-001) (29, -1.11175328493118290000e-001) (30, -3.11364755034446720000e-002) (31, -5.65489977598190310000e-002) (32, 6.92143803462386130000e-003) (33, -9.12162736058235170000e-002) (34, -1.38925313949584960000e-001) (35, -1.67204052209854130000e-001) (36, -1.18241004645824430000e-001) (37, -1.40231996774673460000e-001) (38, -5.11999763548374180000e-002) (39, 4.61739546153694390000e-005) (40, -8.03752169013023380000e-002) (41, -1.64822623133659360000e-001) (42, -1.05461977422237400000e-001) (43, -1.53274223208427430000e-001) (44, -3.19478511810302730000e-002) (45, 3.16413789987564090000e-002) (46, -9.84306856989860530000e-002) (47, 1.48821258917450900000e-002) (48, -1.09660729765892030000e-001) (49, 1.83849092572927470000e-002) (50, -1.79432593286037450000e-002) (51, 1.81992258876562120000e-003) (52, -2.79680848121643070000e-001) (0, -6.49169087409973140000e-001) (1, -7.26884230971336360000e-002) (2, -1.20309436321258540000e+000) (3, -4.07532393932342530000e-001) (4, -5.26157140731811520000e-001) (5, -2.05544650554656980000e-001) (6, -4.36509490013122560000e-001) (7, -3.29069346189498900000e-001) (8, -7.80103057622909550000e-002) (9, -4.43861991167068480000e-001) (10, -4.33902770280838010000e-001) (11, -3.01172643899917600000e-001) (12, -2.49672085046768190000e-001) (13, -3.25511962175369260000e-001) (14, -5.45591488480567930000e-002) (15, 1.59527048468589780000e-001) (16, 1.88892483711242680000e-001) (17, -4.67571802437305450000e-002) (18, -3.11929970979690550000e-001) (19, -4.66423630714416500000e-002) (20, 6.54592970386147500000e-003) (21, 4.06013056635856630000e-002) (22, 6.20013028383255000000e-002) (23, -1.93676784634590150000e-001) (24, -2.14566498994827270000e-001) (25, 3.38997342623770240000e-003) (26, 2.86450907588005070000e-002) (27, -1.18191309273242950000e-001) (28, -9.16533470153808590000e-002) (29, -3.13537358306348320000e-003) (30, 6.37679770588874820000e-002) (31, 8.01184549927711490000e-002) (32, 5.37146441638469700000e-002) (33, 4.50453497469425200000e-002) (34, 2.09697589278221130000e-001) (35, -2.89591215550899510000e-002) (36, 3.98695990443229680000e-002) (37, 9.42763313651084900000e-002) (38, 1.33289992809295650000e-001) (39, 2.89916545152664180000e-002) (40, 8.01172628998756410000e-002) (41, 2.48843267560005190000e-001) (42, 2.68737077713012700000e-001) (43, 3.75135928392410280000e-001) (44, 4.27869439125061040000e-001) (45, 1.80247932672500610000e-001) (46, 6.81569874286651610000e-002) (47, 1.92084446549415590000e-001) (48, 1.58125340938568120000e-001) (49, 1.96968108415603640000e-001) (50, 2.10823059082031250000e-001) (51, 1.63972556591033940000e-001) (52, -4.64041531085968020000e-001) (0, -1.50546580553054810000e-001) (1, -2.07863017916679380000e-001) (2, -3.88968586921691890000e-001) (3, -1.53839483857154850000e-001) (4, -1.52064207941293720000e-003) (5, -8.13347399234771730000e-002) (6, -5.13850897550582890000e-002) (7, 7.22476765513420100000e-002) (8, -2.73274898529052730000e-001) (9, 7.69428238272666930000e-002) (10, 6.44941553473472600000e-002) (11, -9.27463918924331670000e-002) (12, 6.52302429080009460000e-003) (13, -4.85026016831398010000e-002) (14, 2.09882650524377820000e-002) (15, -4.10467237234115600000e-002) (16, -7.36610824242234230000e-003) (17, -1.55749730765819550000e-002) (18, 5.24843558669090270000e-002) (19, 6.17150291800498960000e-002) (20, -2.60409116744995120000e-002) (21, -1.17372453212738040000e-001) (22, -4.59309853613376620000e-002) (23, 2.07899673841893670000e-003) (24, 9.12960767745971680000e-002) (25, -8.41165930032730100000e-002) (26, 1.83421131223440170000e-002) (27, -6.53118491172790530000e-002) (28, -1.38653725385665890000e-001) (29, -5.76496906578540800000e-002) (30, -6.38266373425722120000e-003) (31, -1.04984149336814880000e-001) (32, -1.47803639993071560000e-002) (33, -8.33552703261375430000e-002) (34, -8.48548710346221920000e-002) (35, -1.07097677886486050000e-001) (36, -4.54860888421535490000e-002) (37, -4.21230532228946690000e-002) (38, -7.49168405309319500000e-003) (39, 3.06790620088577270000e-002) (40, -9.76001173257827760000e-002) (41, 7.83210620284080510000e-002) (42, 6.40263855457305910000e-002) (43, 1.01544074714183810000e-001) (44, 8.46084132790565490000e-002) (45, 2.28654593229293820000e-002) (46, -7.55903273820877080000e-002) (47, 1.14993266761302950000e-001) (48, -1.05943838134408000000e-002) (49, -6.07225336134433750000e-002) (50, 1.66517011821269990000e-002) (51, -2.42601688951253890000e-002) (52, -2.69096106290817260000e-001) (0, 5.42320962995290760000e-003) (1, -1.90307796001434330000e-001) (2, -2.97379851341247560000e-001) (3, -4.13061231374740600000e-002) (4, 6.12435378134250640000e-002) (5, -1.78259015083312990000e-001) (6, -7.58172571659088130000e-002) (7, -8.08709710836410520000e-002) (8, -3.22423726320266720000e-001) (9, -6.95841014385223390000e-002) (10, -3.43356058001518250000e-002) (11, -5.34607982262969020000e-003) (12, -8.84760916233062740000e-003) (13, -5.34832924604415890000e-002) (14, -5.97920455038547520000e-002) (15, -5.04404082894325260000e-002) (16, -2.29088086634874340000e-002) (17, -8.35410505533218380000e-002) (18, 4.21003028750419620000e-002) (19, -2.72670481353998180000e-003) (20, 1.60703398287296300000e-002) (21, -2.22236365079879760000e-002) (22, 4.75143939256668090000e-002) (23, -4.99650090932846070000e-002) (24, 6.77655488252639770000e-002) (25, -5.98146617412567140000e-002) (26, -9.69974026083946230000e-002) (27, -6.24517686665058140000e-002) (28, -3.86371575295925140000e-002) (29, -6.84138387441635130000e-002) (30, 5.87597899138927460000e-002) (31, -1.30941525101661680000e-001) (32, -1.05007737874984740000e-001) (33, -5.20516149699687960000e-002) (34, -1.00434221327304840000e-001) (35, -2.12558102793991570000e-003) (36, -8.02792459726333620000e-002) (37, 5.28200604021549220000e-002) (38, 7.70693868398666380000e-002) (39, -1.45820556208491330000e-002) (40, 3.14680896699428560000e-002) (41, 6.74002766609191890000e-002) (42, -8.97529721260070800000e-002) (43, 8.95235240459442140000e-002) (44, -9.30696800351142880000e-002) (45, 1.58443804830312730000e-002) (46, 2.90157664567232130000e-002) (47, -9.95844081044197080000e-002) (48, -2.03054863959550860000e-002) (49, 6.63704723119735720000e-002) (50, -8.23233798146247860000e-002) (51, -1.00798726081848140000e-001) (52, -3.21040034294128420000e-001) (0, -4.47890022769570350000e-003) (1, -9.37419980764389040000e-002) (2, -1.75600618124008180000e-001) (3, -2.67383791506290440000e-002) (4, 8.89290217310190200000e-003) (5, -4.18054200708866120000e-002) (6, 1.12251125276088710000e-001) (7, 1.05177141726017000000e-001) (8, -3.35172891616821290000e-001) (9, 1.11192971467971800000e-001) (10, 8.21760371327400210000e-002) (11, -1.02855332195758820000e-001) (12, 7.57621675729751590000e-002) (13, -9.13307070732116700000e-002) (14, -2.50577088445425030000e-002) (15, -9.79676935821771620000e-003) (16, -2.61707566678524020000e-002) (17, -1.53133228421211240000e-001) (18, -1.14266825839877130000e-002) (19, 5.67288771271705630000e-002) (20, -1.46926948800683020000e-002) (21, -7.27820545434951780000e-002) (22, -7.96019881963729860000e-002) (23, -2.22645998001098630000e-002) (24, -8.74110236763954160000e-002) (25, -2.65111532062292100000e-002) (26, -8.23559835553169250000e-002) (27, -1.72937549650669100000e-002) (28, -1.00866846740245820000e-001) (29, -1.00880309939384460000e-001) (30, 1.46481236442923550000e-002) (31, -1.16016738116741180000e-001) (32, 4.47009950876235960000e-002) (33, 2.41544488817453380000e-002) (34, -8.53948742151260380000e-002) (35, -9.91112589836120610000e-002) (36, 5.51474690437316890000e-002) (37, -1.21254520490765570000e-002) (38, -4.79286685585975650000e-002) (39, -1.28067061305046080000e-002) (40, 4.03543189167976380000e-002) (41, -1.27842113375663760000e-001) (42, -5.71239218115806580000e-002) (43, 3.74855808913707730000e-002) (44, 2.35116146504879000000e-002) (45, -9.18486341834068300000e-002) (46, -6.87407031655311580000e-002) (47, -2.85082422196865080000e-002) (48, -5.94988651573657990000e-002) (49, -4.49297726154327390000e-002) (50, -6.64324164390563960000e-002) (51, 4.03546504676342010000e-002) (52, -3.94070148468017580000e-001) (0, 2.05393388867378230000e-001) (1, -9.23799909651279450000e-003) (2, -1.16633601486682890000e-001) (3, -8.90519022941589360000e-002) (4, 2.15366020798683170000e-001) (5, 2.64439582824707030000e-002) (6, 1.41005948185920720000e-001) (7, 2.83470060676336290000e-002) (8, -3.91435444355010990000e-001) (9, 8.46664980053901670000e-002) (10, 7.70037062466144560000e-003) (11, -1.00843064486980440000e-001) (12, 8.62413924187421800000e-003) (13, -4.26897592842578890000e-002) (14, -4.08957637846469880000e-002) (15, -4.01313044130802150000e-002) (16, -4.85818497836589810000e-002) (17, -1.71116009354591370000e-001) (18, -6.15557916462421420000e-002) (19, 1.20955770835280420000e-002) (20, 7.84046296030282970000e-003) (21, -6.05800300836563110000e-002) (22, -3.05983927100896840000e-002) (23, 9.49563309550285340000e-002) (24, 6.43300265073776250000e-002) (25, 7.83276483416557310000e-002) (26, -1.15681074559688570000e-001) (27, 4.26972135901451110000e-002) (28, -9.01712924242019650000e-002) (29, -1.05128521099686620000e-002) (30, 3.57568375766277310000e-002) (31, -2.34850682318210600000e-002) (32, -1.34081421419978140000e-002) (33, -1.44018918275833130000e-001) (34, 5.95630006864666940000e-003) (35, -1.91055443137884140000e-002) (36, 1.02417031303048130000e-002) (37, -1.11816488206386570000e-002) (38, 1.68395843356847760000e-002) (39, -3.43337841331958770000e-002) (40, -2.15240344405174260000e-002) (41, 2.92688533663749690000e-002) (42, -9.85127612948417660000e-002) (43, -1.77415274083614350000e-002) (44, -7.73118957877159120000e-002) (45, -7.74839222431182860000e-002) (46, 5.93507103621959690000e-002) (47, -1.09090901911258700000e-001) (48, 1.50360977277159690000e-002) (49, -1.75383817404508590000e-002) (50, 2.03644596040248870000e-002) (51, -1.70867219567298890000e-002) (52, -4.47426348924636840000e-001) (0, -3.73533695936203000000e-001) (1, -2.24698215723037720000e-001) (2, -6.99694335460662840000e-001) (3, -1.81093037128448490000e-001) (4, -2.85099297761917110000e-001) (5, -1.55640110373497010000e-001) (6, -2.09487080574035640000e-001) (7, -2.06435322761535640000e-001) (8, -1.62286400794982910000e-001) (9, -9.39119681715965270000e-002) (10, -6.67681246995925900000e-002) (11, -1.88855439424514770000e-001) (12, -1.94002479314804080000e-001) (13, -2.38313600420951840000e-001) (14, -1.00602924823760990000e-001) (15, 3.52775566279888150000e-002) (16, -1.86504609882831570000e-002) (17, -1.50767296552658080000e-001) (18, -1.74170076847076420000e-001) (19, -7.71143881138414140000e-004) (20, 6.64425939321517940000e-002) (21, -6.58800033852458000000e-003) (22, -7.87871628999710080000e-002) (23, -1.14726513624191280000e-001) (24, -7.90810808539390560000e-002) (25, -1.16442039608955380000e-001) (26, 2.35193166881799700000e-002) (27, 4.92875613272190090000e-002) (28, -6.90985063556581740000e-004) (29, 2.44585908949375150000e-002) (30, -6.24147802591323850000e-002) (31, -6.15293197333812710000e-002) (32, 7.51972012221813200000e-003) (33, -1.19037561118602750000e-001) (34, -1.35182132944464680000e-002) (35, -2.33624614775180820000e-002) (36, 1.10367359593510630000e-002) (37, 3.28628271818161010000e-002) (38, -1.28463050350546840000e-002) (39, -3.75542938709259030000e-002) (40, -3.82864437997341160000e-002) (41, 1.06287218630313870000e-001) (42, 5.64628057181835170000e-002) (43, 2.27533921599388120000e-001) (44, 1.92090839147567750000e-001) (45, 4.43849377334117890000e-002) (46, -4.11925055086612700000e-002) (47, 1.33914947509765630000e-001) (48, -2.05589849501848220000e-002) (49, 5.25794662535190580000e-002) (50, 6.10938780009746550000e-002) (51, 6.60987645387649540000e-002) (52, -2.93060302734375000000e-001) (0, -5.65099120140075680000e-001) (1, -1.14768780767917630000e-001) (2, -9.52919423580169680000e-001) (3, -2.13628798723220830000e-001) (4, -3.20106953382492070000e-001) (5, -1.16985782980918880000e-001) (6, -2.47462257742881770000e-001) (7, -2.67481803894042970000e-001) (8, -1.08281530439853670000e-001) (9, -3.34377557039260860000e-001) (10, -1.96979492902755740000e-001) (11, -1.26098752021789550000e-001) (12, -2.54186123609542850000e-001) (13, -1.13860338926315310000e-001) (14, -7.60437622666358950000e-002) (15, -6.92934542894363400000e-002) (16, 1.34874537587165830000e-001) (17, -1.58190578222274780000e-001) (18, -1.55431121587753300000e-001) (19, 6.53130328282713890000e-003) (20, -1.13499969244003300000e-001) (21, -9.03392061591148380000e-002) (22, 6.90774098038673400000e-002) (23, -3.55830639600753780000e-002) (24, -3.61650101840496060000e-002) (25, -2.04182863235473630000e-002) (26, -8.73406454920768740000e-002) (27, -1.89638305455446240000e-002) (28, -7.42969363927841190000e-002) (29, -5.84987066686153410000e-002) (30, -3.02544403821229930000e-002) (31, 3.16936299204826350000e-002) (32, -3.00555396825075150000e-002) (33, -5.15967197716236110000e-002) (34, 8.09930562973022460000e-002) (35, 4.08132001757621770000e-002) (36, -8.90782754868268970000e-003) (37, 1.00607559084892270000e-001) (38, -8.82848724722862240000e-003) (39, 1.35009381920099260000e-002) (40, 1.02503888309001920000e-001) (41, 7.44692310690879820000e-002) (42, 1.12907610833644870000e-001) (43, 1.93728893995285030000e-001) (44, 2.71401286125183110000e-001) (45, 2.92901857756078240000e-003) (46, 1.14183805882930760000e-001) (47, 1.52132570743560790000e-001) (48, 1.34872406721115110000e-001) (49, 1.95773258805274960000e-001) (50, 1.36398270726203920000e-001) (51, 1.62435814738273620000e-001) (52, -3.03668767213821410000e-001) (0, 2.91575372219085690000e-001) (1, -1.17975346744060520000e-001) (2, 6.23592659831047060000e-002) (3, 5.39336726069450380000e-002) (4, 2.99627244472503660000e-001) (5, -7.05960467457771300000e-002) (6, 1.99360013008117680000e-001) (7, 1.45417183637619020000e-001) (8, -4.37135964632034300000e-001) (9, 1.85264442116022110000e-002) (10, 1.40045568346977230000e-001) (11, -9.00997444987297060000e-002) (12, 6.58852458000183110000e-002) (13, 1.07420040294528010000e-002) (14, -7.69249126315116880000e-002) (15, 6.11761845648288730000e-002) (16, -1.54593259096145630000e-001) (17, -1.63361907005310060000e-001) (18, -2.90869977325201030000e-002) (19, -6.51357322931289670000e-002) (20, 4.31002192199230190000e-002) (21, 1.51693196967244150000e-002) (22, 3.07310093194246290000e-002) (23, 1.69644299894571300000e-002) (24, 9.95558425784111020000e-002) (25, 2.86302771419286730000e-002) (26, -6.76888972520828250000e-002) (27, -7.69402757287025450000e-002) (28, -2.07144424319267270000e-001) (29, -1.18317462503910060000e-001) (30, -9.85849946737289430000e-002) (31, 6.72001997008919720000e-003) (32, -1.85485631227493290000e-002) (33, -6.07971241697669030000e-003) (34, -1.36288404464721680000e-001) (35, -1.20030820369720460000e-001) (36, 4.22441586852073670000e-002) (37, -9.10018384456634520000e-002) (38, 4.23357114195823670000e-002) (39, -2.74891294538974760000e-002) (40, -1.29424586892127990000e-001) (41, -1.40709176659584050000e-001) (42, -1.59967914223670960000e-001) (43, -2.14457929134368900000e-001) (44, -2.51631200313568120000e-001) (45, -1.20675735175609590000e-001) (46, -7.02630786690860990000e-005) (47, -1.46275356411933900000e-001) (48, -5.36668114364147190000e-003) (49, 2.97071970999240880000e-003) (50, 2.09150556474924090000e-002) (51, -2.32255849987268450000e-002) (52, -3.40469568967819210000e-001) (0, -1.52412340044975280000e-001) (1, -2.34170332551002500000e-001) (2, -4.57143872976303100000e-001) (3, -1.66168622672557830000e-002) (4, -1.20886527001857760000e-001) (5, -7.62179959565401080000e-003) (6, -1.02086544036865230000e-001) (7, -1.18337459862232210000e-002) (8, -3.00708144903182980000e-001) (9, -9.10719260573387150000e-002) (10, 5.21104708313941960000e-002) (11, 8.99053458124399190000e-003) (12, 1.63727934705093500000e-004) (13, -1.87508434057235720000e-001) (14, -1.14458873867988590000e-002) (15, -6.19201175868511200000e-002) (16, 3.52843739092350010000e-002) (17, -2.03688833862543110000e-002) (18, 3.54394204914569850000e-002) (19, -1.18479076772928240000e-002) (20, 4.04200609773397450000e-003) (21, 1.94927807897329330000e-002) (22, 4.33479398488998410000e-002) (23, -1.99403855949640270000e-002) (24, -5.60230873525142670000e-002) (25, 1.94104108959436420000e-002) (26, 3.14953625202178960000e-002) (27, -9.52488780021667480000e-002) (28, -1.52983695268630980000e-001) (29, -1.16933800280094150000e-001) (30, -1.23319216072559360000e-001) (31, -1.42561988905072210000e-002) (32, -8.56184586882591250000e-002) (33, -7.34473690390586850000e-002) (34, 9.99025162309408190000e-003) (35, -6.75868168473243710000e-002) (36, 2.57404446601867680000e-002) (37, -6.92851841449737550000e-002) (38, 7.62165188789367680000e-002) (39, 2.71160770207643510000e-002) (40, -1.07509948313236240000e-001) (41, 7.75393471121788020000e-002) (42, -7.26483985781669620000e-002) (43, 6.53269514441490170000e-002) (44, -7.14863166213035580000e-002) (45, -9.21476185321807860000e-002) (46, -6.78800418972969060000e-002) (47, -3.42704430222511290000e-002) (48, 8.54832679033279420000e-002) (49, -6.14861957728862760000e-003) (50, -8.32484215497970580000e-002) (51, -1.32287349551916120000e-002) (52, -3.22718322277069090000e-001) (0, 2.05163538455963130000e-001) (1, -8.08551385998725890000e-002) (2, -1.00631892681121830000e-001) (3, -1.27594009041786190000e-001) (4, 2.02253103256225590000e-001) (5, -1.02983355522155760000e-001) (6, 8.22897329926490780000e-002) (7, 1.76393821835517880000e-001) (8, -2.95075148344039920000e-001) (9, -2.96821184456348420000e-002) (10, 1.53195159509778020000e-002) (11, 6.08664229512214660000e-002) (12, 1.15083970129489900000e-001) (13, -1.09038114547729490000e-001) (14, -9.61039662361145020000e-002) (15, 2.64903195202350620000e-002) (16, -4.05671447515487670000e-002) (17, -1.50766134262084960000e-001) (18, 7.57860317826271060000e-002) (19, 3.49635742604732510000e-002) (20, 5.92666603624820710000e-002) (21, -5.36899641156196590000e-002) (22, 3.13011370599269870000e-002) (23, 9.16972383856773380000e-002) (24, 4.34143701568245890000e-003) (25, 6.63001909852027890000e-002) (26, 2.15641073882579800000e-002) (27, -7.50943347811698910000e-002) (28, -8.07327032089233400000e-002) (29, -5.32830432057380680000e-002) (30, -1.13436691462993620000e-001) (31, 2.54755727946758270000e-002) (32, 1.74860991537570950000e-002) (33, -1.73428431153297420000e-002) (34, -1.72325670719146730000e-001) (35, -5.18341809511184690000e-002) (36, -8.34486931562423710000e-002) (37, -8.62623900175094600000e-002) (38, -6.22451305389404300000e-002) (39, 2.81935688108205800000e-002) (40, -1.01308226585388180000e-001) (41, -3.72523181140422820000e-002) (42, -7.88647234439849850000e-002) (43, 9.78011265397071840000e-003) (44, -1.80968031287193300000e-001) (45, -4.30371575057506560000e-002) (46, -1.01673476397991180000e-001) (47, -7.33671477064490320000e-003) (48, -3.61226173117756840000e-003) (49, 4.96349707245826720000e-002) (50, -6.78699985146522520000e-002) (51, -1.10515192151069640000e-001) (52, -4.08601492643356320000e-001) (0, -6.72372758388519290000e-001) (1, -1.09838871285319330000e-002) (2, -1.27219927310943600000e+000) (3, -3.79257917404174800000e-001) (4, -5.34213066101074220000e-001) (5, -1.43149107694625850000e-001) (6, -4.45717453956604000000e-001) (7, -3.64028036594390870000e-001) (8, -1.17209739983081820000e-001) (9, -4.08962875604629520000e-001) (10, -3.75763624906539920000e-001) (11, -2.72350758314132690000e-001) (12, -2.36162826418876650000e-001) (13, -2.57039338350296020000e-001) (14, 7.87270367145538330000e-002) (15, 1.77188217639923100000e-002) (16, 1.94346517324447630000e-001) (17, -1.06961056590080260000e-001) (18, -2.45348304510116580000e-001) (19, -1.21747300028800960000e-001) (20, -8.59667956829071040000e-002) (21, 1.08094930648803710000e-001) (22, 7.21087083220481870000e-002) (23, -1.42243251204490660000e-001) (24, -1.78966417908668520000e-001) (25, -5.73895126581192020000e-002) (26, -6.24209567904472350000e-002) (27, -1.64932951331138610000e-001) (28, -6.23312443494796750000e-002) (29, -1.13071061670780180000e-001) (30, 8.17711576819419860000e-002) (31, -9.98736917972564700000e-003) (32, -1.88798212911933660000e-003) (33, -6.86903521418571470000e-002) (34, 1.49852946400642400000e-001) (35, 4.05607335269451140000e-002) (36, 1.56569741666316990000e-002) (37, 1.21693305671215060000e-001) (38, 2.11501326411962510000e-002) (39, 1.33557692170143130000e-001) (40, 2.09462791681289670000e-002) (41, 2.42764562368392940000e-001) (42, 3.25693458318710330000e-001) (43, 3.14286351203918460000e-001) (44, 4.41551834344863890000e-001) (45, 9.65464562177658080000e-002) (46, 1.39655649662017820000e-001) (47, 1.64544343948364260000e-001) (48, 1.18016034364700320000e-001) (49, 1.09812900424003600000e-001) (50, 1.51145815849304200000e-001) (51, 1.18290692567825320000e-001) (52, -3.85157823562622070000e-001) (0, 4.59966808557510380000e-001) (1, -3.21486853063106540000e-002) (2, 1.30801960825920100000e-001) (3, 2.04187370836734770000e-002) (4, 4.11814957857131960000e-001) (5, 7.58444219827651980000e-002) (6, 2.78270900249481200000e-001) (7, 2.79845595359802250000e-001) (8, -5.38096725940704350000e-001) (9, 1.00720852613449100000e-001) (10, 2.17236533761024480000e-001) (11, 1.30964890122413640000e-001) (12, 2.49748900532722470000e-001) (13, 5.78269027173519130000e-002) (14, -9.01884213089942930000e-002) (15, -5.86627572774887080000e-002) (16, -1.43244519829750060000e-001) (17, -2.43092432618141170000e-001) (18, 9.61482450366020200000e-002) (19, 5.38320839405059810000e-002) (20, -6.12380430102348330000e-002) (21, 2.69893258810043330000e-002) (22, 3.07029783725738530000e-002) (23, 1.16347111761569980000e-001) (24, 1.81587114930152890000e-002) (25, 1.92858483642339710000e-002) (26, -4.39877621829509740000e-002) (27, -8.46266895532608030000e-002) (28, -2.47257903218269350000e-001) (29, -2.22310349345207210000e-002) (30, -3.60776782035827640000e-002) (31, -5.94732426106929780000e-002) (32, -1.56036943197250370000e-001) (33, -1.02883540093898770000e-001) (34, -1.41927614808082580000e-001) (35, -1.16263590753078460000e-001) (36, -1.49521932005882260000e-001) (37, 1.57186221331357960000e-002) (38, -1.10843911767005920000e-001) (39, -1.32761180400848390000e-001) (40, -1.79664775729179380000e-001) (41, -1.66887894272804260000e-001) (42, -2.39231094717979430000e-001) (43, -2.14890614151954650000e-001) (44, -1.77756696939468380000e-001) (45, -5.61398677527904510000e-002) (46, -2.71604377776384350000e-002) (47, -1.19965344667434690000e-001) (48, -2.01792530715465550000e-002) (49, -2.19859033823013310000e-002) (50, -9.28172543644905090000e-002) (51, -8.31404700875282290000e-003) (52, -3.77841383218765260000e-001) (0, -3.22960704565048220000e-001) (1, -5.92575892806053160000e-002) (2, -7.42595911026000980000e-001) (3, -8.00002515316009520000e-002) (4, -2.51862466335296630000e-001) (5, -1.60296887159347530000e-001) (6, -1.65715962648391720000e-001) (7, -8.58271569013595580000e-002) (8, -1.68794780969619750000e-001) (9, -1.87743782997131350000e-001) (10, -1.60937443375587460000e-001) (11, -1.92711189389228820000e-001) (12, -1.06177322566509250000e-001) (13, -1.05132475495338440000e-001) (14, 3.89363318681716920000e-002) (15, -3.27623300254344940000e-002) (16, -4.81865890324115750000e-002) (17, -1.40226945281028750000e-001) (18, -4.80285882949829100000e-002) (19, 1.87062509357929230000e-002) (20, -6.69211968779563900000e-002) (21, 3.25509533286094670000e-002) (22, 8.49669277667999270000e-002) (23, -1.11608892679214480000e-001) (24, -1.64067111909389500000e-002) (25, -7.10390880703926090000e-002) (26, -3.75051610171794890000e-002) (27, -4.00689765810966490000e-002) (28, -5.68988695740699770000e-002) (29, 8.13268721103668210000e-002) (30, 6.21995031833648680000e-002) (31, -8.98646563291549680000e-002) (32, 3.59836569987237450000e-003) (33, 5.79941794276237490000e-002) (34, 6.02484755218029020000e-002) (35, -1.65398530662059780000e-002) (36, 1.07813447713851930000e-001) (37, 3.09542380273342130000e-003) (38, -4.40420508384704590000e-002) (39, -2.05640792846679690000e-002) (40, 2.38817576318979260000e-002) (41, 1.63653120398521420000e-001) (42, 6.93760588765144350000e-002) (43, 7.69057497382164000000e-002) (44, 1.49484977126121520000e-001) (45, -2.45156679302453990000e-002) (46, 9.93674099445343020000e-002) (47, 3.56352292001247410000e-002) (48, -9.69780422747135160000e-003) (49, 1.59717276692390440000e-001) (50, 1.08057327568531040000e-001) (51, 1.36945083737373350000e-001) (52, -4.07053828239440920000e-001) (0, 5.72292387485504150000e-001) (1, 4.12987843155860900000e-002) (2, 3.03637176752090450000e-001) (3, 7.83422663807868960000e-002) (4, 4.89232510328292850000e-001) (5, 2.07669474184513090000e-002) (6, 2.40757763385772710000e-001) (7, 2.80192494392395020000e-001) (8, -3.88015270233154300000e-001) (9, 2.27516412734985350000e-001) (10, 2.89066553115844730000e-001) (11, 1.78298920392990110000e-001) (12, 3.02967637777328490000e-001) (13, 8.14019888639450070000e-002) (14, 3.19515839219093320000e-002) (15, -6.67572813108563420000e-003) (16, -2.26210966706275940000e-001) (17, -9.01981294155120850000e-002) (18, 1.54612377285957340000e-001) (19, -8.13358463346958160000e-003) (20, 3.74261960387229920000e-002) (21, -6.18178546428680420000e-002) (22, 6.78392872214317320000e-003) (23, 1.73225209116935730000e-001) (24, 1.29330486059188840000e-001) (25, 1.09584294259548190000e-001) (26, -7.56075754761695860000e-002) (27, -3.00202406942844390000e-002) (28, -1.09305560588836670000e-001) (29, -1.58904224634170530000e-001) (30, -1.01060159504413600000e-001) (31, -1.22427307069301610000e-001) (32, -9.46074500679969790000e-002) (33, -3.87979932129383090000e-002) (34, -1.85333788394927980000e-001) (35, 8.29643011093139650000e-002) (36, -7.03531652688980100000e-002) (37, -9.66226682066917420000e-002) (38, -5.63394650816917420000e-002) (39, -7.05737471580505370000e-002) (40, -1.68161869049072270000e-001) (41, -2.28731542825698850000e-001) (42, -2.27836966514587400000e-001) (43, -2.61079818010330200000e-001) (44, -2.62938112020492550000e-001) (45, -1.38619959354400630000e-001) (46, -1.30435109138488770000e-001) (47, -2.36664116382598880000e-001) (48, -5.70651628077030180000e-002) (49, -1.24325841665267940000e-001) (50, -9.21053588390350340000e-002) (51, -5.63388466835021970000e-002) (52, -2.22919002175331120000e-001) (0, -5.13882458209991460000e-001) (1, -1.45967975258827210000e-001) (2, -7.93742656707763670000e-001) (3, -2.02992036938667300000e-001) (4, -2.49651312828063960000e-001) (5, -9.61711257696151730000e-002) (6, -2.89502799510955810000e-001) (7, -2.75928616523742680000e-001) (8, -1.07184194028377530000e-001) (9, -2.45887622237205510000e-001) (10, -1.84245377779006960000e-001) (11, -9.82011258602142330000e-002) (12, -9.23911631107330320000e-002) (13, -2.61273652315139770000e-001) (14, -9.13495570421218870000e-002) (15, -6.37538656592369080000e-002) (16, 8.48963856697082520000e-002) (17, -8.66743847727775570000e-002) (18, -6.68264850974082950000e-002) (19, -4.52928915619850160000e-002) (20, 5.83151169121265410000e-002) (21, -1.33999539539217950000e-002) (22, -3.57926674187183380000e-002) (23, -6.77368119359016420000e-002) (24, -6.65399655699729920000e-002) (25, 5.44561296701431270000e-002) (26, -1.02585181593894960000e-001) (27, -9.54261422157287600000e-002) (28, -1.77663825452327730000e-002) (29, 7.36704170703887940000e-002) (30, -9.75379645824432370000e-002) (31, -1.46965095773339270000e-002) (32, 9.27437394857406620000e-002) (33, 7.41458460688591000000e-002) (34, -2.28456519544124600000e-002) (35, -7.15829730033874510000e-002) (36, 8.73331055045127870000e-002) (37, 1.20243266224861150000e-001) (38, 4.62929792702198030000e-002) (39, -8.06797146797180180000e-002) (40, 7.26405382156372070000e-002) (41, 8.95804688334465030000e-002) (42, 4.31975424289703370000e-002) (43, 2.01536357402801510000e-001) (44, 1.29643917083740230000e-001) (45, -4.47136685252189640000e-002) (46, 7.44026750326156620000e-002) (47, 2.00899437069892880000e-001) (48, 6.93524954840540890000e-003) (49, -5.97979687154293060000e-003) (50, 1.36421144008636470000e-001) (51, 3.79837639629840850000e-002) (52, -3.51211249828338620000e-001) (0, -3.74520458281040190000e-002) (1, -1.92095413804054260000e-001) (2, -2.24891960620880130000e-001) (3, -7.86207169294357300000e-002) (4, -4.57907319068908690000e-002) (5, -6.68462291359901430000e-002) (6, -4.53904196619987490000e-002) (7, 1.12794399261474610000e-001) (8, -3.90209197998046880000e-001) (9, -1.56727880239486690000e-002) (10, -4.75441291928291320000e-002) (11, -8.82999449968338010000e-002) (12, -9.72810853272676470000e-003) (13, -1.42328038811683650000e-001) (14, 7.86014273762702940000e-002) (15, -3.33333276212215420000e-002) (16, -4.61318939924240110000e-002) (17, -9.81715023517608640000e-002) (18, -8.71639698743820190000e-002) (19, -9.38548967242240910000e-002) (20, -2.41184979677200320000e-003) (21, -1.36155217885971070000e-001) (22, 2.43487823754549030000e-002) (23, 1.35851316154003140000e-002) (24, 7.38299489021301270000e-002) (25, 1.73675511032342910000e-002) (26, 4.42495830357074740000e-002) (27, -6.82198479771614070000e-002) (28, -5.32285086810588840000e-002) (29, 1.70473824255168440000e-003) (30, -3.29735577106475830000e-002) (31, -1.26691922545433040000e-001) (32, 5.71643076837062840000e-002) (33, -8.71709436178207400000e-002) (34, -4.82838787138462070000e-002) (35, -1.16761274635791780000e-001) (36, -1.19011268019676210000e-001) (37, 1.04869995266199110000e-002) (38, -7.79912760481238370000e-003) (39, -1.06112755835056300000e-001) (40, 2.70005944184958930000e-003) (41, 3.63919734954833980000e-002) (42, -8.64083319902420040000e-002) (43, 5.54488738998770710000e-003) (44, -4.12478186190128330000e-002) (45, 5.51238134503364560000e-002) (46, -9.05121266841888430000e-002) (47, -8.06482508778572080000e-002) (48, 5.28936125338077550000e-002) (49, 8.94049778580665590000e-002) (50, -7.31438547372817990000e-002) (51, -3.53338313288986680000e-003) (52, -2.83964067697525020000e-001) (0, -1.68128386139869690000e-002) (1, -8.00811275839805600000e-002) (2, -2.75173842906951900000e-001) (3, -1.52423098683357240000e-001) (4, 9.56979990005493160000e-002) (5, -8.85978108271956440000e-004) (6, 2.75473166257143020000e-002) (7, 7.77303501963615420000e-002) (8, -2.90027201175689700000e-001) (9, -6.39701113104820250000e-002) (10, -1.63770020008087160000e-002) (11, -2.21736519597470760000e-003) (12, 4.60140667855739590000e-002) (13, -1.57909095287323000000e-001) (14, 2.00128816068172450000e-002) (15, 8.27876403927803040000e-002) (16, 4.44776527583599090000e-002) (17, -2.07040905952453610000e-002) (18, 9.64791141450405120000e-003) (19, 1.34146418422460560000e-002) (20, -5.02879209816455840000e-002) (21, -8.43594297766685490000e-002) (22, -7.43106827139854430000e-002) (23, 5.63086830079555510000e-002) (24, -3.47827970981597900000e-002) (25, -3.27662974596023560000e-002) (26, -5.49454465508461000000e-002) (27, 5.02414517104625700000e-002) (28, -7.57830068469047550000e-002) (29, -1.00827679038047790000e-001) (30, 3.76478731632232670000e-002) (31, -1.29826709628105160000e-001) (32, -2.34269327484071250000e-003) (33, -9.54218115657567980000e-003) (34, 7.51808239147067070000e-003) (35, -8.28718114644289020000e-003) (36, -1.04465045034885410000e-001) (37, 7.21646025776863100000e-002) (38, 8.11184570193290710000e-002) (39, 5.94813488423824310000e-002) (40, -1.14829964935779570000e-001) (41, -7.96365812420845030000e-002) (42, 6.21167197823524480000e-002) (43, 5.60667105019092560000e-002) (44, -4.68807853758335110000e-002) (45, -5.60968182981014250000e-002) (46, -3.53692807257175450000e-002) (47, 7.69586488604545590000e-002) (48, 4.51527088880538940000e-002) (49, 3.36192757822573180000e-003) (50, 9.11366492509841920000e-002) (51, 2.01954096555709840000e-002) (52, -4.33694422245025630000e-001) (0, -8.21247771382331850000e-002) (1, -2.39529907703399660000e-001) (2, -4.51358854770660400000e-001) (3, -2.68967375159263610000e-002) (4, -4.51005483046174050000e-003) (5, -2.55649257451295850000e-002) (6, -3.29195335507392880000e-002) (7, -8.92426744103431700000e-002) (8, -1.42702534794807430000e-001) (9, -1.13563090562820430000e-001) (10, 3.92819158732891080000e-002) (11, -2.24514491856098180000e-002) (12, -8.75066295266151430000e-002) (13, -1.25444475561380390000e-002) (14, -2.36107897944748400000e-003) (15, -1.07094191014766690000e-001) (16, -2.25862525403499600000e-002) (17, -5.26349097490310670000e-002) (18, 2.64231907203793530000e-003) (19, 8.83206352591514590000e-002) (20, -8.06574597954750060000e-002) (21, 6.90692961215972900000e-002) (22, 2.93439961969852450000e-002) (23, -4.08296175301074980000e-002) (24, -6.89413920044898990000e-002) (25, -2.18129418790340420000e-002) (26, -4.82659116387367250000e-002) (27, -7.81299769878387450000e-002) (28, -8.14531520009040830000e-002) (29, -1.01386182010173800000e-001) (30, -1.02472856640815730000e-001) (31, -6.34961277246475220000e-002) (32, -2.43237856775522230000e-002) (33, -9.01124998927116390000e-002) (34, -8.02288129925727840000e-002) (35, -1.05306230485439300000e-001) (36, -6.98996335268020630000e-002) (37, 6.73379302024841310000e-002) (38, 6.11062720417976380000e-002) (39, 6.31756186485290530000e-002) (40, 1.32234841585159300000e-002) (41, 9.06545743346214290000e-002) (42, -7.61772552505135540000e-003) (43, 1.10174454748630520000e-001) (44, 9.01299715042114260000e-002) (45, 2.32477076351642610000e-002) (46, -4.91034276783466340000e-002) (47, 9.41314846277236940000e-002) (48, -7.76329711079597470000e-002) (49, 1.09940268099308010000e-001) (50, 1.19040615856647490000e-001) (51, -3.28270271420478820000e-002) (52, -4.43498551845550540000e-001) (0, -3.49941402673721310000e-001) (1, -2.55668103694915770000e-001) (2, -6.05665028095245360000e-001) (3, -2.17159911990165710000e-001) (4, -3.34626019001007080000e-001) (5, -2.15818613767623900000e-001) (6, -1.20151758193969730000e-001) (7, -1.51413977146148680000e-001) (8, -2.00034409761428830000e-001) (9, -2.45582953095436100000e-001) (10, -8.50122421979904170000e-002) (11, -1.83434635400772090000e-001) (12, -3.88169512152671810000e-002) (13, -7.31968134641647340000e-002) (14, -9.56486985087394710000e-002) (15, 7.70824179053306580000e-002) (16, 3.81764955818653110000e-002) (17, 1.47436885163187980000e-002) (18, -1.48156166076660160000e-001) (19, -8.55873301625251770000e-002) (20, -1.71773713082075120000e-002) (21, 9.19374674558639530000e-002) (22, -2.79854033142328260000e-002) (23, 1.32103478536009790000e-002) (24, -5.84069155156612400000e-002) (25, -6.44394522532820700000e-003) (26, -6.69557154178619380000e-002) (27, -9.71211940050125120000e-002) (28, 4.16141049936413760000e-003) (29, 7.48089849948883060000e-002) (30, 3.00564710050821300000e-002) (31, -6.69720917940139770000e-002) (32, 2.84441560506820680000e-002) (33, 1.34557662531733510000e-002) (34, -3.35678718984127040000e-002) (35, 8.51326137781143190000e-002) (36, 1.29313394427299500000e-001) (37, 2.76836510747671130000e-002) (38, 2.29595173150300980000e-002) (39, -5.65091334283351900000e-002) (40, 5.19102513790130620000e-002) (41, 7.66405463218688960000e-002) (42, 1.42562361434102060000e-002) (43, 9.45737436413764950000e-002) (44, 2.26914882659912110000e-001) (45, -4.13099452853202820000e-002) (46, 2.66711134463548660000e-002) (47, 7.95851349830627440000e-002) (48, 4.46925573050975800000e-002) (49, -3.94627712666988370000e-002) (50, 5.29994182288646700000e-002) (51, -3.11681199818849560000e-002) (52, -4.17676329612731930000e-001) (0, -6.98177963495254520000e-002) (1, -1.19126096367836000000e-001) (2, -2.43491426110267640000e-001) (3, -1.41206741333007810000e-001) (4, 7.47752264142036440000e-002) (5, -1.61849260330200200000e-001) (6, 1.35538736358284950000e-002) (7, 9.74955856800079350000e-002) (8, -2.95697748661041260000e-001) (9, -7.58508667349815370000e-002) (10, -4.81307655572891240000e-002) (11, -8.37029293179512020000e-002) (12, -3.65857072174549100000e-002) (13, -1.14534020423889160000e-001) (14, 7.71121010184288020000e-002) (15, 2.46652867645025250000e-002) (16, 1.63410287350416180000e-002) (17, -5.55014796555042270000e-002) (18, 3.41374091804027560000e-002) (19, -1.00798822939395900000e-001) (20, -1.11704416573047640000e-001) (21, -1.01247459650039670000e-001) (22, -9.15234982967376710000e-002) (23, -8.84174779057502750000e-002) (24, 6.87619075179100040000e-002) (25, -5.16343452036380770000e-002) (26, -4.08195368945598600000e-002) (27, 2.07891706377267840000e-002) (28, -1.17431599646806720000e-002) (29, -7.15860500931739810000e-002) (30, -7.53061473369598390000e-002) (31, -1.29053235054016110000e-001) (32, -1.08893156051635740000e-001) (33, -2.38007046282291410000e-002) (34, -1.01235747337341310000e-001) (35, -8.07449147105216980000e-002) (36, 3.06998770684003830000e-002) (37, -2.89389723911881450000e-003) (38, -9.54231545329093930000e-002) (39, 5.22819198668003080000e-002) (40, -1.70204434543848040000e-002) (41, 6.32788762450218200000e-002) (42, -7.00936540961265560000e-002) (43, -9.07204374670982360000e-002) (44, -9.08126085996627810000e-002) (45, 7.95221924781799320000e-002) (46, 3.82380373775959010000e-002) (47, 3.21330428123474120000e-002) (48, 8.20115506649017330000e-002) (49, 8.09068158268928530000e-002) (50, -5.19178286194801330000e-002) (51, 3.25792431831359860000e-002) (52, -3.59036952257156370000e-001) (0, 1.17382407188415530000e-001) (1, -1.37154594063758850000e-001) (2, -1.64624020457267760000e-001) (3, 1.50071419775485990000e-002) (4, 1.67773649096488950000e-001) (5, -8.32542851567268370000e-002) (6, 8.42638313770294190000e-002) (7, 7.92110618203878400000e-003) (8, -4.01669353246688840000e-001) (9, 3.68602685630321500000e-002) (10, 1.41062200069427490000e-001) (11, -1.02265268564224240000e-001) (12, -3.72666446492075920000e-003) (13, 2.30748243629932400000e-002) (14, 8.05434212088584900000e-002) (15, 7.09359645843505860000e-002) (16, -5.31559577211737630000e-003) (17, -1.38927295804023740000e-001) (18, -2.57907956838607790000e-002) (19, -7.78121277689933780000e-002) (20, -6.24993990641087290000e-004) (21, 5.43475225567817690000e-002) (22, -9.15973633527755740000e-002) (23, 3.46193015575408940000e-002) (24, 9.32987630367279050000e-002) (25, 7.00807794928550720000e-002) (26, -1.25663846731185910000e-001) (27, -1.17878727614879610000e-001) (28, -1.17194250226020810000e-001) (29, -9.79683771729469300000e-002) (30, -1.69014297425746920000e-002) (31, 4.54410277307033540000e-002) (32, -1.21563449501991270000e-001) (33, -1.27175316214561460000e-001) (34, -4.75772842764854430000e-002) (35, -5.25392852723598480000e-002) (36, -3.69908399879932400000e-002) (37, -1.02567061781883240000e-001) (38, -1.11032553017139430000e-001) (39, -5.97439222037792210000e-002) (40, -6.83116093277931210000e-002) (41, -7.91684463620185850000e-002) (42, -1.74145884811878200000e-002) (43, -8.06048139929771420000e-002) (44, -1.34440258145332340000e-001) (45, -4.91784401237964630000e-002) (46, 8.02589580416679380000e-002) (47, 5.21213300526142120000e-002) (48, -5.95277771353721620000e-002) (49, -7.03004524111747740000e-002) (50, 1.77182629704475400000e-002) (51, -1.22906588017940520000e-001) (52, -3.47408831119537350000e-001) (0, -5.78235462307929990000e-002) (1, -2.26234048604965210000e-001) (2, -2.73255020380020140000e-001) (3, -8.32192599773406980000e-002) (4, 3.02850771695375440000e-002) (5, -2.79809758067131040000e-002) (6, -5.57411415502429010000e-003) (7, 2.53135082311928270000e-003) (8, -2.79259681701660160000e-001) (9, -1.41989458352327350000e-002) (10, -6.17213360965251920000e-002) (11, -4.25231717526912690000e-002) (12, -5.76126128435134890000e-002) (13, -1.20753720402717590000e-001) (14, -9.12257581949234010000e-002) (15, 2.72533800452947620000e-002) (16, -8.02468508481979370000e-002) (17, -9.66767370700836180000e-002) (18, 6.40307068824768070000e-002) (19, 3.08600272983312610000e-002) (20, -2.90841199457645420000e-002) (21, -3.70060019195079800000e-002) (22, -1.97583939880132680000e-002) (23, -5.69728948175907140000e-003) (24, -4.58532422780990600000e-002) (25, 1.05497497133910660000e-003) (26, -5.38786090910434720000e-002) (27, 4.26864922046661380000e-002) (28, -1.65499404072761540000e-001) (29, -9.47648193687200550000e-004) (30, -1.08501411974430080000e-001) (31, -6.57467842102050780000e-002) (32, 1.60830132663249970000e-002) (33, 2.17443015426397320000e-002) (34, -7.24155381321907040000e-002) (35, -1.06159873306751250000e-001) (36, -2.96199936419725420000e-002) (37, -1.00669229868799450000e-003) (38, -7.24360868334770200000e-002) (39, 2.60482188314199450000e-002) (40, -1.07338972389698030000e-001) (41, -9.55818220973014830000e-002) (42, -2.03288421034812930000e-002) (43, 6.00805655121803280000e-002) (44, -5.45817129313945770000e-002) (45, 5.06332181394100190000e-002) (46, 6.87790513038635250000e-002) (47, -6.78398134186863900000e-003) (48, -1.06337219476699830000e-002) (49, 1.29014216363430020000e-002) (50, 6.77961017936468120000e-003) (51, 6.48241266608238220000e-002) (52, -3.69753479957580570000e-001) (0, -4.75852668285369870000e-001) (1, -1.49853900074958800000e-001) (2, -7.95247614383697510000e-001) (3, -1.60420730710029600000e-001) (4, -3.29499870538711550000e-001) (5, -5.81754446029663090000e-002) (6, -1.33335933089256290000e-001) (7, -2.31547579169273380000e-001) (8, -2.16492146253585820000e-001) (9, -2.36177310347557070000e-001) (10, -1.63420364260673520000e-001) (11, -6.93132281303405760000e-002) (12, -1.34599506855010990000e-001) (13, -2.31708332896232600000e-001) (14, -6.93526566028594970000e-002) (15, -6.13113008439540860000e-002) (16, 1.18627510964870450000e-001) (17, -1.50480419397354130000e-001) (18, -1.63307905197143550000e-001) (19, 8.29802360385656360000e-003) (20, 7.49785569496452810000e-004) (21, -6.11346215009689330000e-002) (22, 4.53924573957920070000e-002) (23, -1.50838926434516910000e-001) (24, -2.16794703155756000000e-002) (25, 1.28263551741838460000e-002) (26, 5.23835085332393650000e-002) (27, 3.33859808743000030000e-002) (28, -1.88085846602916720000e-002) (29, 6.10483177006244660000e-002) (30, -8.86132270097732540000e-002) (31, -6.26194551587104800000e-002) (32, -4.93809767067432400000e-002) (33, -5.86974695324897770000e-002) (34, 1.13247960805892940000e-001) (35, -2.51425746828317640000e-002) (36, 5.03571704030036930000e-002) (37, 1.67085081338882450000e-002) (38, -7.46305957436561580000e-002) (39, -2.56544016301631930000e-002) (40, 2.00643539428710940000e-002) (41, 1.85383513569831850000e-001) (42, 1.88405945897102360000e-001) (43, 2.50946044921875000000e-001) (44, 2.60971009731292720000e-001) (45, 1.38912945985794070000e-001) (46, -2.56255473941564560000e-002) (47, 5.73504567146301270000e-002) (48, 1.61351099610328670000e-001) (49, 1.04136750102043150000e-001) (50, 1.07898132409900430000e-003) (51, 9.59458574652671810000e-002) (52, -3.40861171483993530000e-001) (0, -2.13047802448272710000e-001) (1, -1.94880262017250060000e-001) (2, -5.28755784034729000000e-001) (3, -5.59585615992546080000e-002) (4, -2.95665543526411060000e-002) (5, -1.59452261868864300000e-003) (6, -2.70800963044166560000e-002) (7, -3.94519567489624020000e-002) (8, -3.04499715566635130000e-001) (9, -4.05560210347175600000e-002) (10, -5.27407974004745480000e-003) (11, 1.79922226816415790000e-002) (12, -1.16257764399051670000e-001) (13, -1.52988225221633910000e-001) (14, -2.22968012094497680000e-002) (15, 7.85325542092323300000e-002) (16, -2.37669497728347780000e-002) (17, -1.64414331316947940000e-001) (18, -2.46557407081127170000e-002) (19, 8.23490843176841740000e-002) (20, 6.26816297881305220000e-004) (21, -5.83377340808510780000e-003) (22, 5.14519773423671720000e-003) (23, -8.15840736031532290000e-002) (24, 2.43293754756450650000e-002) (25, -8.49251598119735720000e-002) (26, -8.76828059554100040000e-002) (27, 2.56804898381233220000e-002) (28, -3.59622798860073090000e-002) (29, -8.58388021588325500000e-002) (30, 4.32723090052604680000e-002) (31, -6.93313926458358760000e-002) (32, 2.82394122332334520000e-002) (33, -9.07995924353599550000e-002) (34, 2.67871543765068050000e-002) (35, 2.52991262823343280000e-002) (36, -1.00054234266281130000e-001) (37, 9.48371291160583500000e-002) (38, -7.25761801004409790000e-002) (39, 6.22430853545665740000e-002) (40, 8.50033760070800780000e-002) (41, 2.06841267645359040000e-002) (42, -1.62200983613729480000e-002) (43, 1.04841263964772220000e-002) (44, -2.58379634469747540000e-002) (45, 3.64807099103927610000e-002) (46, 1.11102245748043060000e-001) (47, 1.53420874848961830000e-002) (48, 6.19545057415962220000e-002) (49, 4.79591675102710720000e-002) (50, 8.42506960034370420000e-002) (51, -1.85298034921288490000e-004) (52, -3.17514955997467040000e-001) (0, -4.61054831743240360000e-001) (1, -1.14221036434173580000e-001) (2, -6.93997502326965330000e-001) (3, -1.32125362753868100000e-001) (4, -3.20851951837539670000e-001) (5, -1.52320593595504760000e-001) (6, -1.86170682311058040000e-001) (7, -2.25556656718254090000e-001) (8, -1.66286587715148930000e-001) (9, -1.72512233257293700000e-001) (10, -5.21535985171794890000e-002) (11, -2.59983152151107790000e-001) (12, -9.30547714233398440000e-002) (13, -1.52137055993080140000e-001) (14, 1.17493523284792900000e-002) (15, 3.01697812974452970000e-002) (16, -3.09698991477489470000e-002) (17, -1.24350726604461670000e-001) (18, -2.77148056775331500000e-002) (19, -9.98378768563270570000e-002) (20, 3.77974361181259160000e-002) (21, 3.16661484539508820000e-002) (22, 5.12507408857345580000e-002) (23, -1.26028835773468020000e-001) (24, -7.93411284685134890000e-002) (25, 1.89840812236070630000e-002) (26, 2.02651210129261020000e-002) (27, 4.71030548214912410000e-002) (28, -5.65381534397602080000e-002) (29, -1.51209626346826550000e-002) (30, 6.19692355394363400000e-002) (31, -8.44230651855468750000e-002) (32, -5.49796894192695620000e-002) (33, -1.98250729590654370000e-003) (34, 6.82945847511291500000e-002) (35, -4.41014133393764500000e-002) (36, -5.50686940550804140000e-002) (37, -2.63821575790643690000e-002) (38, 2.18966361135244370000e-002) (39, 2.61669084429740910000e-002) (40, 2.73455828428268430000e-002) (41, 1.84598386287689210000e-001) (42, 1.92194789648056030000e-001) (43, 1.66417881846427920000e-001) (44, 2.06925258040428160000e-001) (45, 8.18038284778594970000e-002) (46, -2.59964410215616230000e-002) (47, 5.08143454790115360000e-002) (48, 6.73197731375694270000e-002) (49, 1.06461569666862490000e-001) (50, 9.48903616517782210000e-003) (51, 1.15500867366790770000e-001) (52, -4.13031041622161870000e-001) (0, 4.13390100002288820000e-001) (1, -5.28641305863857270000e-002) (2, 1.33424654603004460000e-001) (3, 3.26705947518348690000e-002) (4, 3.05382907390594480000e-001) (5, 4.25261296331882480000e-002) (6, 2.91299313306808470000e-001) (7, 1.98800489306449890000e-001) (8, -4.46511358022689820000e-001) (9, 1.61172673106193540000e-001) (10, 1.13462612032890320000e-001) (11, 4.36461791396141050000e-002) (12, 1.43586128950119020000e-001) (13, 5.76220154762268070000e-002) (14, -1.05709575116634370000e-001) (15, 3.41743677854537960000e-002) (16, -5.59470579028129580000e-002) (17, -2.03331172466278080000e-001) (18, 1.41647279262542720000e-001) (19, 5.52912689745426180000e-002) (20, -2.20777019858360290000e-002) (21, -2.14544124901294710000e-002) (22, -9.96540859341621400000e-002) (23, -3.81191819906234740000e-002) (24, 6.24503791332244870000e-002) (25, 4.01629954576492310000e-002) (26, -1.95942714810371400000e-001) (27, -9.73964855074882510000e-002) (28, -1.37328684329986570000e-001) (29, -1.38954967260360720000e-001) (30, -4.27476391196250920000e-002) (31, -3.15585881471633910000e-002) (32, -1.04404076933860780000e-001) (33, -3.13103534281253810000e-002) (34, -5.34659475088119510000e-002) (35, 3.94615493714809420000e-002) (36, -1.40125080943107600000e-001) (37, -7.80280008912086490000e-002) (38, 9.48431063443422320000e-003) (39, -1.34579762816429140000e-001) (40, -1.33553653955459590000e-001) (41, -1.29900559782981870000e-001) (42, -2.25281938910484310000e-001) (43, -2.39738956093788150000e-001) (44, -2.84151434898376460000e-001) (45, -1.21244072914123540000e-001) (46, -6.30105510354042050000e-002) (47, -6.48835897445678710000e-002) (48, -1.19408391416072850000e-001) (49, -1.71623770147562030000e-002) (50, -9.87358540296554570000e-002) (51, -1.79204404354095460000e-001) (52, -3.41294586658477780000e-001) (0, 5.39681732654571530000e-001) (1, 3.83739583194255830000e-002) (2, 3.22817951440811160000e-001) (3, -3.78314740955829620000e-002) (4, 4.27483469247817990000e-001) (5, 5.40917068719863890000e-002) (6, 2.27917373180389400000e-001) (7, 3.87133270502090450000e-001) (8, -5.14182388782501220000e-001) (9, 1.60009395331144330000e-002) (10, 2.66722112894058230000e-001) (11, -5.55335097014904020000e-002) (12, 2.00339332222938540000e-001) (13, -2.36327573657035830000e-002) (14, -2.43303179740905760000e-002) (15, -1.40932142734527590000e-001) (16, -1.50497347116470340000e-001) (17, -1.14639990031719210000e-001) (18, 2.53738984465599060000e-002) (19, -1.45575240254402160000e-001) (20, -5.61363138258457180000e-002) (21, -2.29786033742129800000e-003) (22, -8.26866403222084050000e-002) (23, 2.83080097287893300000e-002) (24, 8.43322947621345520000e-002) (25, -1.35861579328775410000e-002) (26, -1.32458716630935670000e-001) (27, -1.03788010776042940000e-001) (28, -2.58403837680816650000e-001) (29, -1.45923392847180370000e-002) (30, 4.64931726455688480000e-002) (31, -1.39356240630149840000e-001) (32, -5.56769743561744690000e-002) (33, -3.09318751096725460000e-002) (34, -1.18798330426216130000e-001) (35, -5.00438846647739410000e-002) (36, -2.74081081151962280000e-002) (37, -5.22494241595268250000e-002) (38, 3.61600108444690700000e-002) (39, -3.20739634335041050000e-002) (40, -1.15743316709995270000e-001) (41, -1.99916571378707890000e-001) (42, -2.03282102942466740000e-001) (43, -2.83091634511947630000e-001) (44, -3.51018726825714110000e-001) (45, -5.39133958518505100000e-002) (46, -1.03601977229118350000e-001) (47, -1.59108787775039670000e-001) (48, -9.68336537480354310000e-002) (49, -1.48304477334022520000e-001) (50, -1.90888822078704830000e-001) (51, -8.70741680264472960000e-002) (52, -4.08528834581375120000e-001) (0, -5.15493564307689670000e-002) (1, -1.70737773180007930000e-001) (2, -4.23271715641021730000e-001) (3, -1.26113086938858030000e-001) (4, -5.21280709654092790000e-003) (5, -3.71043793857097630000e-002) (6, 5.42344450950622560000e-002) (7, -2.59109195321798320000e-002) (8, -2.86972165107727050000e-001) (9, 6.68156147003173830000e-002) (10, 1.96883436292409900000e-002) (11, -7.44621306657791140000e-002) (12, 4.35367077589035030000e-002) (13, -6.98471665382385250000e-002) (14, 1.99877396225929260000e-002) (15, -7.79717490077018740000e-002) (16, -1.03263348340988160000e-001) (17, -1.22331164777278900000e-001) (18, 6.13087229430675510000e-002) (19, -7.36481696367263790000e-002) (20, -5.39510063827037810000e-002) (21, -4.40166145563125610000e-002) (22, 1.36486655101180080000e-002) (23, 1.49478241801261900000e-002) (24, 7.62128159403800960000e-002) (25, 8.09855088591575620000e-002) (26, -1.36832264252007010000e-003) (27, 2.69112791866064070000e-002) (28, 2.66097523272037510000e-002) (29, -1.07628561556339260000e-001) (30, -1.01678103208541870000e-001) (31, -6.79138824343681340000e-002) (32, -1.05407778173685070000e-002) (33, 5.32642332836985590000e-003) (34, 3.19448560476303100000e-002) (35, -7.88839384913444520000e-002) (36, -1.44374473020434380000e-002) (37, -6.97231516242027280000e-002) (38, 5.49663510173559190000e-003) (39, 1.93099752068519590000e-002) (40, -5.68668581545352940000e-002) (41, -5.24533130228519440000e-002) (42, 8.43821913003921510000e-002) (43, 7.68016055226325990000e-002) (44, 8.47456231713294980000e-002) (45, 6.06171712279319760000e-002) (46, -4.59563173353672030000e-002) (47, -4.63995039463043210000e-002) (48, 5.59715665876865390000e-002) (49, -1.43191462848335500000e-003) (50, 9.77195128798484800000e-002) (51, 3.14476899802684780000e-002) (52, -3.45999628305435180000e-001) (0, -4.61135543882846830000e-002) (1, -1.68297559022903440000e-001) (2, -3.74404340982437130000e-001) (3, 