FANN_FLO_2.1
num_layers=3
learning_rate=0.700000
connection_rate=1.000000
network_type=0
learning_momentum=0.400000
training_algorithm=0
train_error_function=1
train_stop_function=0
cascade_output_change_fraction=0.010000
quickprop_decay=-0.000100
quickprop_mu=1.750000
rprop_increase_factor=1.200000
rprop_decrease_factor=0.500000
rprop_delta_min=0.000000
rprop_delta_max=50.000000
rprop_delta_zero=0.100000
cascade_output_stagnation_epochs=12
cascade_candidate_change_fraction=0.010000
cascade_candidate_stagnation_epochs=12
cascade_max_out_epochs=150
cascade_min_out_epochs=50
cascade_max_cand_epochs=150
cascade_min_cand_epochs=50
cascade_num_candidate_groups=2
bit_fail_limit=3.49999994039535520000e-001
cascade_candidate_limit=1.00000000000000000000e+003
cascade_weight_multiplier=4.00000005960464480000e-001
cascade_activation_functions_count=10
cascade_activation_functions=3 5 7 8 10 11 14 15 16 17 
cascade_activation_steepnesses_count=4
cascade_activation_steepnesses=2.50000000000000000000e-001 5.00000000000000000000e-001 7.50000000000000000000e-001 1.00000000000000000000e+000 
layer_sizes=53 97 2 
scale_included=0
neurons (num_inputs, activation_function, activation_steepness)=(0, 0, 0.00000000000000000000e+000) (0, 0, 0.00000000000000000000e+000) (0, 0, 0.00000000000000000000e+000) (0, 0, 0.00000000000000000000e+000) (0, 0, 0.00000000000000000000e+000) (0, 0, 0.00000000000000000000e+000) (0, 0, 0.00000000000000000000e+000) (0, 0, 0.00000000000000000000e+000) (0, 0, 0.00000000000000000000e+000) (0, 0, 0.00000000000000000000e+000) (0, 0, 0.00000000000000000000e+000) (0, 0, 0.00000000000000000000e+000) (0, 0, 0.00000000000000000000e+000) (0, 0, 0.00000000000000000000e+000) (0, 0, 0.00000000000000000000e+000) (0, 0, 0.00000000000000000000e+000) (0, 0, 0.00000000000000000000e+000) (0, 0, 0.00000000000000000000e+000) (0, 0, 0.00000000000000000000e+000) (0, 0, 0.00000000000000000000e+000) (0, 0, 0.00000000000000000000e+000) (0, 0, 0.00000000000000000000e+000) (0, 0, 0.00000000000000000000e+000) (0, 0, 0.00000000000000000000e+000) (0, 0, 0.00000000000000000000e+000) (0, 0, 0.00000000000000000000e+000) (0, 0, 0.00000000000000000000e+000) (0, 0, 0.00000000000000000000e+000) (0, 0, 0.00000000000000000000e+000) (0, 0, 0.00000000000000000000e+000) (0, 0, 0.00000000000000000000e+000) (0, 0, 0.00000000000000000000e+000) (0, 0, 0.00000000000000000000e+000) (0, 0, 0.00000000000000000000e+000) (0, 0, 0.00000000000000000000e+000) (0, 0, 0.00000000000000000000e+000) (0, 0, 0.00000000000000000000e+000) (0, 0, 0.00000000000000000000e+000) (0, 0, 0.00000000000000000000e+000) (0, 0, 0.00000000000000000000e+000) (0, 0, 0.00000000000000000000e+000) (0, 0, 0.00000000000000000000e+000) (0, 0, 0.00000000000000000000e+000) (0, 0, 0.00000000000000000000e+000) (0, 0, 0.00000000000000000000e+000) (0, 0, 0.00000000000000000000e+000) (0, 0, 0.00000000000000000000e+000) (0, 0, 0.00000000000000000000e+000) (0, 0, 0.00000000000000000000e+000) (0, 0, 0.00000000000000000000e+000) (0, 0, 0.00000000000000000000e+000) (0, 0, 0.00000000000000000000e+000) (0, 0, 0.00000000000000000000e+000) (53, 4, 5.00000000000000000000e-001) (53, 4, 5.00000000000000000000e-001) (53, 4, 5.00000000000000000000e-001) (53, 4, 5.00000000000000000000e-001) (53, 4, 5.00000000000000000000e-001) (53, 4, 5.00000000000000000000e-001) (53, 4, 5.00000000000000000000e-001) (53, 4, 5.00000000000000000000e-001) (53, 4, 5.00000000000000000000e-001) (53, 4, 5.00000000000000000000e-001) (53, 4, 5.00000000000000000000e-001) (53, 4, 5.00000000000000000000e-001) (53, 4, 5.00000000000000000000e-001) (53, 4, 5.00000000000000000000e-001) (53, 4, 5.00000000000000000000e-001) (53, 4, 5.00000000000000000000e-001) (53, 4, 5.00000000000000000000e-001) (53, 4, 5.00000000000000000000e-001) (53, 4, 5.00000000000000000000e-001) (53, 4, 5.00000000000000000000e-001) (53, 4, 5.00000000000000000000e-001) (53, 4, 5.00000000000000000000e-001) (53, 4, 5.00000000000000000000e-001) (53, 4, 5.00000000000000000000e-001) (53, 4, 5.00000000000000000000e-001) (53, 4, 5.00000000000000000000e-001) (53, 4, 5.00000000000000000000e-001) (53, 4, 5.00000000000000000000e-001) (53, 4, 5.00000000000000000000e-001) (53, 4, 5.00000000000000000000e-001) (53, 4, 5.00000000000000000000e-001) (53, 4, 5.00000000000000000000e-001) (53, 4, 5.00000000000000000000e-001) (53, 4, 5.00000000000000000000e-001) (53, 4, 5.00000000000000000000e-001) (53, 4, 5.00000000000000000000e-001) (53, 4, 5.00000000000000000000e-001) (53, 4, 5.00000000000000000000e-001) (53, 4, 5.00000000000000000000e-001) (53, 4, 5.00000000000000000000e-001) (53, 4, 5.00000000000000000000e-001) (53, 4, 5.00000000000000000000e-001) (53, 4, 5.00000000000000000000e-001) (53, 4, 5.00000000000000000000e-001) (53, 4, 5.00000000000000000000e-001) (53, 4, 5.00000000000000000000e-001) (53, 4, 5.00000000000000000000e-001) (53, 4, 5.00000000000000000000e-001) (53, 4, 5.00000000000000000000e-001) (53, 4, 5.00000000000000000000e-001) (53, 4, 5.00000000000000000000e-001) (53, 4, 5.00000000000000000000e-001) (53, 4, 5.00000000000000000000e-001) (53, 4, 5.00000000000000000000e-001) (53, 4, 5.00000000000000000000e-001) (53, 4, 5.00000000000000000000e-001) (53, 4, 5.00000000000000000000e-001) (53, 4, 5.00000000000000000000e-001) (53, 4, 5.00000000000000000000e-001) (53, 4, 5.00000000000000000000e-001) (53, 4, 5.00000000000000000000e-001) (53, 4, 5.00000000000000000000e-001) (53, 4, 5.00000000000000000000e-001) (53, 4, 5.00000000000000000000e-001) (53, 4, 5.00000000000000000000e-001) (53, 4, 5.00000000000000000000e-001) (53, 4, 5.00000000000000000000e-001) (53, 4, 5.00000000000000000000e-001) (53, 4, 5.00000000000000000000e-001) (53, 4, 5.00000000000000000000e-001) (53, 4, 5.00000000000000000000e-001) (53, 4, 5.00000000000000000000e-001) (53, 4, 5.00000000000000000000e-001) (53, 4, 5.00000000000000000000e-001) (53, 4, 5.00000000000000000000e-001) (53, 4, 5.00000000000000000000e-001) (53, 4, 5.00000000000000000000e-001) (53, 4, 5.00000000000000000000e-001) (53, 4, 5.00000000000000000000e-001) (53, 4, 5.00000000000000000000e-001) (53, 4, 5.00000000000000000000e-001) (53, 4, 5.00000000000000000000e-001) (53, 4, 5.00000000000000000000e-001) (53, 4, 5.00000000000000000000e-001) (53, 4, 5.00000000000000000000e-001) (53, 4, 5.00000000000000000000e-001) (53, 4, 5.00000000000000000000e-001) (53, 4, 5.00000000000000000000e-001) (53, 4, 5.00000000000000000000e-001) (53, 4, 5.00000000000000000000e-001) (53, 4, 5.00000000000000000000e-001) (53, 4, 5.00000000000000000000e-001) (53, 4, 5.00000000000000000000e-001) (53, 4, 5.00000000000000000000e-001) (53, 4, 5.00000000000000000000e-001) (53, 4, 5.00000000000000000000e-001) (0, 0, 0.00000000000000000000e+000) (97, 4, 5.00000000000000000000e-001) (0, 0, 0.00000000000000000000e+000) 
connections (connected_to_neuron, weight)=(0, -6.47150099277496340000e-001) (1, -1.54901713132858280000e-001) (2, -9.49501276016235350000e-001) (3, -3.71272146701812740000e-001) (4, -5.07167220115661620000e-001) (5, -2.38055020570755000000e-001) (6, -3.57034921646118160000e-001) (7, -2.28262379765510560000e-001) (8, -4.75136153399944310000e-002) (9, -3.22507530450820920000e-001) (10, -2.05171883106231690000e-001) (11, -1.58876597881317140000e-001) (12, -3.40332239866256710000e-001) (13, -1.67846992611885070000e-001) (14, 2.91669461876153950000e-002) (15, 1.42550051212310790000e-001) (16, 2.85366121679544450000e-002) (17, -1.19832314550876620000e-001) (18, -1.45630955696105960000e-001) (19, -1.29301985725760460000e-002) (20, -3.68479453027248380000e-002) (21, -6.30137994885444640000e-002) (22, -5.63884377479553220000e-002) (23, -3.48653085529804230000e-002) (24, -9.50388908386230470000e-002) (25, -1.02690786123275760000e-001) (26, -7.75632187724113460000e-002) (27, -1.48411318659782410000e-001) (28, -1.09262522310018540000e-002) (29, -5.28699159622192380000e-002) (30, 4.61977384984493260000e-002) (31, 5.72216667933389540000e-005) (32, -8.32984521985054020000e-002) (33, 7.43472343310713770000e-003) (34, 1.52623146772384640000e-001) (35, 1.69402472674846650000e-002) (36, 3.80175486207008360000e-002) (37, 2.13061477988958360000e-002) (38, -7.37430527806282040000e-003) (39, 1.08271747827529910000e-001) (40, 1.77538260817527770000e-001) (41, 2.12985321879386900000e-001) (42, 1.75362482666969300000e-001) (43, 3.54892700910568240000e-001) (44, 3.23506325483322140000e-001) (45, 1.39127567410469060000e-001) (46, 3.10221593827009200000e-002) (47, 1.39111578464508060000e-001) (48, 1.63368865847587590000e-001) (49, 3.80089022219181060000e-002) (50, 8.01170393824577330000e-002) (51, 1.23207852244377140000e-001) (52, -4.69330549240112300000e-001) (0, -8.59868302941322330000e-002) (1, -2.71775927394628520000e-002) (2, -4.00961011648178100000e-001) (3, 8.86250566691160200000e-003) (4, 7.84102678298950200000e-002) (5, -8.53220298886299130000e-002) (6, -3.74398715794086460000e-002) (7, -5.70770539343357090000e-003) (8, -2.63421595096588130000e-001) (9, 2.04655379056930540000e-002) (10, 2.79249921441078190000e-002) (11, -5.96870221197605130000e-002) (12, -8.55604037642478940000e-002) (13, -1.94940362125635150000e-002) (14, -2.05135736614465710000e-002) (15, -4.28140088915824890000e-002) (16, 4.95296157896518710000e-002) (17, -7.66218081116676330000e-002) (18, -7.84418731927871700000e-002) (19, -6.94699361920356750000e-002) (20, -2.29305326938629150000e-002) (21, -1.25656509771943090000e-002) (22, -8.75374581664800640000e-003) (23, 4.93148295208811760000e-003) (24, -6.21282830834388730000e-002) (25, -2.98587810248136520000e-002) (26, 5.22082392126321790000e-003) (27, -2.70877815783023830000e-002) (28, -1.92454174160957340000e-001) (29, 1.74774806946516040000e-002) (30, 4.04624789953231810000e-002) (31, -1.20572246611118320000e-001) (32, -7.05235600471496580000e-002) (33, -4.74246963858604430000e-002) (34, -1.29392698407173160000e-001) (35, -5.70196025073528290000e-002) (36, -1.07806779444217680000e-001) (37, -5.31668635085225110000e-003) (38, 6.98787719011306760000e-002) (39, 3.02396831102669240000e-003) (40, -7.61941680684685710000e-003) (41, 4.14174199104309080000e-002) (42, 6.56498894095420840000e-002) (43, -1.75182092934846880000e-002) (44, 2.37625949084758760000e-002) (45, -2.36361976712942120000e-002) (46, -1.25522054731845860000e-002) (47, -6.39739334583282470000e-002) (48, 6.73587843775749210000e-002) (49, 2.06363685429096220000e-002) (50, 1.02527253329753880000e-001) (51, -5.98018579185009000000e-002) (52, -3.94187599420547490000e-001) (0, -4.89667445421218870000e-001) (1, -1.09964616596698760000e-001) (2, -9.11749422550201420000e-001) (3, -3.02485853433609010000e-001) (4, -3.73351275920867920000e-001) (5, -1.18766598403453830000e-001) (6, -1.78839102387428280000e-001) (7, -3.12347590923309330000e-001) (8, -1.55662849545478820000e-001) (9, -2.52960711717605590000e-001) (10, -2.25652560591697690000e-001) (11, -1.29388973116874690000e-001) (12, -1.30612686276435850000e-001) (13, -1.96028590202331540000e-001) (14, -6.62945806980133060000e-002) (15, 4.85157407820224760000e-002) (16, 7.10438862442970280000e-002) (17, -2.45397388935089110000e-002) (18, -1.68244421482086180000e-001) (19, -7.37261585891246800000e-003) (20, 3.25212292373180390000e-002) (21, 3.62420827150344850000e-002) (22, -5.89913781732320790000e-003) (23, -5.18668517470359800000e-002) (24, -1.01608805358409880000e-001) (25, -1.30049437284469600000e-002) (26, 2.41460762917995450000e-002) (27, 3.71708348393440250000e-002) (28, 2.31060944497585300000e-002) (29, -6.11694753170013430000e-002) (30, -1.00287377834320070000e-001) (31, -7.46105015277862550000e-002) (32, 7.41456821560859680000e-003) (33, 5.65750040113925930000e-002) (34, 1.48475229740142820000e-001) (35, 3.84262353181838990000e-002) (36, 9.83432680368423460000e-002) (37, 1.04025632143020630000e-001) (38, 1.45944654941558840000e-001) (39, -1.29508413374423980000e-002) (40, 1.41913384199142460000e-001) (41, 4.49709929525852200000e-002) (42, 5.03902882337570190000e-002) (43, 1.26947060227394100000e-001) (44, 1.70578598976135250000e-001) (45, 1.33163750171661380000e-001) (46, 1.34268462657928470000e-001) (47, 2.17282637953758240000e-001) (48, 1.60778731107711790000e-001) (49, 2.30836775153875350000e-002) (50, 1.32977351546287540000e-001) (51, 2.96022705733776090000e-002) (52, -4.23725396394729610000e-001) (0, 3.40781182050704960000e-001) (1, -8.57710689306259160000e-002) (2, 8.01433771848678590000e-002) (3, -5.83965219557285310000e-002) (4, 3.15611869096755980000e-001) (5, 3.37288081645965580000e-002) (6, 2.53195017576217650000e-001) (7, 1.30898714065551760000e-001) (8, -5.37691533565521240000e-001) (9, 1.62768900394439700000e-001) (10, 1.12376786768436430000e-001) (11, -6.54686391353607180000e-002) (12, 1.55566215515136720000e-001) (13, -6.96099996566772460000e-002) (14, -2.36153211444616320000e-002) (15, -1.85482483357191090000e-003) (16, -1.45827814936637880000e-001) (17, -5.17952591180801390000e-002) (18, 5.11770509183406830000e-002) (19, -5.73916845023632050000e-002) (20, 5.90307898819446560000e-002) (21, -3.43396998941898350000e-002) (22, 2.66797095537185670000e-002) (23, 8.69432836771011350000e-002) (24, 1.25751271843910220000e-001) (25, 9.98491570353508000000e-002) (26, -3.48586565814912320000e-003) (27, 5.73558323085308070000e-002) (28, -2.13012009859085080000e-001) (29, -1.57358393073081970000e-001) (30, -6.63810521364212040000e-002) (31, -4.37917653471231460000e-003) (32, -6.55974298715591430000e-002) (33, -1.27003163099288940000e-001) (34, -9.47356969118118290000e-002) (35, -1.49882230907678600000e-002) (36, -1.01986378431320190000e-001) (37, -1.03121638298034670000e-001) (38, -5.96829093992710110000e-002) (39, 3.55087034404277800000e-002) (40, -1.16499185562133790000e-001) (41, -2.97999065369367600000e-002) (42, -1.84081837534904480000e-001) (43, -7.30950534343719480000e-002) (44, -2.48895540833473210000e-001) (45, -9.46666151285171510000e-002) (46, -1.30626503378152850000e-002) (47, -8.37829336524009700000e-003) (48, -6.99982568621635440000e-002) (49, -1.06326311826705930000e-001) (50, -9.65423732995986940000e-002) (51, -1.29952952265739440000e-001) (52, -3.04171741008758540000e-001) (0, 2.28850662708282470000e-001) (1, -3.14105264842510220000e-002) (2, 8.91533046960830690000e-002) (3, -3.69539894163608550000e-002) (4, 2.31014698743820190000e-001) (5, -1.55156245455145840000e-002) (6, 2.25937232375144960000e-001) (7, 1.37271389365196230000e-001) (8, -4.58721220493316650000e-001) (9, 1.19062334299087520000e-001) (10, 2.60331898927688600000e-001) (11, 5.05090393126010890000e-002) (12, 2.39466086030006410000e-001) (13, 6.65147881954908370000e-003) (14, -6.04149363934993740000e-002) (15, -3.76668497920036320000e-002) (16, -6.26098886132240300000e-002) (17, -1.60522013902664180000e-001) (18, 3.40940430760383610000e-002) (19, -2.93692611157894130000e-002) (20, -8.93978103995323180000e-002) (21, 2.04735007137060170000e-002) (22, -7.50091075897216800000e-002) (23, 7.94927496463060380000e-003) (24, 5.26594929397106170000e-002) (25, 8.47676396369934080000e-002) (26, -1.28261834383010860000e-001) (27, -1.28202259540557860000e-001) (28, -2.36992821097373960000e-001) (29, -6.63282275199890140000e-002) (30, -1.13071918487548830000e-001) (31, -1.58939674496650700000e-001) (32, -1.19626678526401520000e-001) (33, -6.65912311524152760000e-003) (34, -1.62170827388763430000e-001) (35, -5.19896217156201600000e-004) (36, -1.37149160727858540000e-002) (37, -2.45242286473512650000e-002) (38, 1.82980019599199300000e-002) (39, 2.51711141318082810000e-002) (40, -1.91188137978315350000e-002) (41, -1.58991456031799320000e-001) (42, -1.04191035032272340000e-001) (43, -9.32166427373886110000e-002) (44, -2.09367766976356510000e-001) (45, 4.62572984397411350000e-002) (46, 2.95641552656888960000e-002) (47, -1.34284198284149170000e-001) (48, -5.76900281012058260000e-002) (49, 7.40405591204762460000e-003) (50, -1.58672407269477840000e-001) (51, -1.13378465175628660000e-001) (52, -3.76982510089874270000e-001) (0, -1.94205343723297120000e-001) (1, -1.47297307848930360000e-001) (2, -4.14870709180831910000e-001) (3, -5.82159645855426790000e-002) (4, 1.35566238313913350000e-002) (5, -1.46574184298515320000e-001) (6, -4.67081330716609950000e-002) (7, -5.42154423892498020000e-002) (8, -2.32676297426223750000e-001) (9, 4.25964258611202240000e-002) (10, 3.27420495450496670000e-002) (11, -1.02942362427711490000e-001) (12, -8.04560035467147830000e-002) (13, -1.51780322194099430000e-002) (14, -6.80343210697174070000e-002) (15, -6.13315217196941380000e-002) (16, 5.68892098963260650000e-002) (17, -7.37304389476776120000e-002) (18, -6.27999976277351380000e-002) (19, -2.34139543026685710000e-002) (20, 3.63604836165905000000e-002) (21, 6.70060142874717710000e-002) (22, -1.09370775520801540000e-001) (23, 6.57828226685523990000e-002) (24, -6.22212067246437070000e-002) (25, -1.56687758862972260000e-002) (26, -3.55378240346908570000e-002) (27, -6.57963827252388000000e-002) (28, 2.44985427707433700000e-002) (29, -6.11569173634052280000e-002) (30, 7.20932334661483760000e-002) (31, -5.04932180047035220000e-002) (32, 2.76317466050386430000e-002) (33, -5.72525896131992340000e-002) (34, -2.32162512838840480000e-002) (35, 5.92489056289196010000e-002) (36, -1.46901067346334460000e-002) (37, -5.04247464050422420000e-006) (38, -5.17505966126918790000e-002) (39, -1.85426399111747740000e-002) (40, 6.59774616360664370000e-002) (41, -3.01727857440710070000e-002) (42, -3.78353223204612730000e-002) (43, -4.17662076652050020000e-002) (44, -3.82807068526744840000e-002) (45, 1.16946911439299580000e-002) (46, 5.17337694764137270000e-002) (47, 2.55363993346691130000e-002) (48, 1.03984326124191280000e-001) (49, 8.42882841825485230000e-002) (50, -3.92162464559078220000e-002) (51, -3.89659963548183440000e-002) (52, -4.38797742128372190000e-001) (0, 2.59779602289199830000e-001) (1, -1.19891345500946040000e-001) (2, -5.50799332559108730000e-002) (3, 3.45112825743854050000e-003) (4, 2.58119404315948490000e-001) (5, 5.67618943750858310000e-002) (6, 1.69784590601921080000e-001) (7, 2.48880118131637570000e-001) (8, -4.09340798854827880000e-001) (9, 1.46141096949577330000e-001) (10, 1.99454262852668760000e-001) (11, -5.08048497140407560000e-002) (12, 1.05746254324913020000e-001) (13, -9.33862105011940000000e-002) (14, -5.54219223558902740000e-002) (15, -7.25038573145866390000e-002) (16, -1.27414435148239140000e-001) (17, -8.64813663065433500000e-003) (18, 1.24227873980998990000e-001) (19, 3.83589826524257660000e-002) (20, 1.90694853663444520000e-002) (21, -2.25942991673946380000e-002) (22, -8.62513482570648190000e-002) (23, 1.32903590798377990000e-001) (24, 4.30635698139667510000e-002) (25, 3.46166901290416720000e-002) (26, -1.04411549866199490000e-001) (27, -4.75163534283638000000e-002) (28, -2.24732980132102970000e-001) (29, 7.77822080999612810000e-003) (30, -3.33669334650039670000e-002) (31, -3.80518771708011630000e-002) (32, -5.93959055840969090000e-002) (33, 1.63403451442718510000e-002) (34, -1.61737874150276180000e-001) (35, -3.88113483786582950000e-002) (36, 4.63453456759452820000e-002) (37, 1.96852553635835650000e-002) (38, -1.01066686213016510000e-001) (39, 4.67916801571846010000e-002) (40, -9.16499048471450810000e-002) (41, -1.11720776185393330000e-002) (42, -1.56072452664375310000e-001) (43, -2.16769695281982420000e-001) (44, -1.14410765469074250000e-001) (45, 4.52605113387107850000e-002) (46, 1.86308529227972030000e-002) (47, -3.52234207093715670000e-002) (48, -1.00389169529080390000e-003) (49, -1.52682229876518250000e-001) (50, -1.41091674566268920000e-001) (51, 2.58943699300289150000e-002) (52, -3.04717689752578740000e-001) (0, -5.27241349220275880000e-001) (1, -2.17675760388374330000e-001) (2, -8.00628364086151120000e-001) (3, -2.43701100349426270000e-001) (4, -4.13961261510849000000e-001) (5, -1.08906000852584840000e-001) (6, -1.51720255613327030000e-001) (7, -1.53288871049880980000e-001) (8, -8.19389373064041140000e-002) (9, -1.61571905016899110000e-001) (10, -1.33869081735610960000e-001) (11, -2.67999798059463500000e-001) (12, -1.34125664830207820000e-001) (13, -9.24223586916923520000e-002) (14, -8.19845497608184810000e-002) (15, 8.58185514807701110000e-002) (16, -1.71250570565462110000e-002) (17, -1.10328290611505510000e-002) (18, -1.98772698640823360000e-001) (19, -5.98391070961952210000e-002) (20, 3.13084237277507780000e-002) (21, -1.30393328145146370000e-002) (22, -5.03275655210018160000e-002) (23, -8.33146870136260990000e-002) (24, -1.88230685889720920000e-002) (25, -5.81400655210018160000e-002) (26, 2.47492566704750060000e-002) (27, -1.31152540445327760000e-001) (28, -7.76050984859466550000e-002) (29, -1.43283512443304060000e-002) (30, -1.24431978911161420000e-002) (31, -2.32756771147251130000e-002) (32, -8.26994925737380980000e-002) (33, 7.71899223327636720000e-002) (34, -2.68035195767879490000e-002) (35, 1.99216194450855260000e-002) (36, 2.45050974190235140000e-002) (37, -4.16509136557579040000e-002) (38, 8.58710892498493190000e-003) (39, 1.03341765701770780000e-001) (40, 1.05996675789356230000e-001) (41, 1.95672780275344850000e-001) (42, 2.06100866198539730000e-001) (43, 1.29192382097244260000e-001) (44, 1.54470279812812810000e-001) (45, 6.88448250293731690000e-002) (46, -1.13812228664755820000e-003) (47, 7.65882134437561040000e-002) (48, 1.47385492920875550000e-001) (49, 6.34567253291606900000e-003) (50, 1.87131524085998540000e-001) (51, 1.81040257215499880000e-001) (52, -4.09320503473281860000e-001) (0, 2.17905238270759580000e-001) (1, -7.72660598158836360000e-002) (2, -6.22859448194503780000e-002) (3, 6.66233943775296210000e-003) (4, 2.38943189382553100000e-001) (5, -9.57634821534156800000e-002) (6, 1.34651139378547670000e-001) (7, 1.47602796554565430000e-001) (8, -3.88197034597396850000e-001) (9, -1.31655298173427580000e-002) (10, 9.40380915999412540000e-002) (11, 8.37979540228843690000e-002) (12, 8.62745121121406560000e-002) (13, -8.16187560558319090000e-002) (14, 8.00562053918838500000e-002) (15, 1.29131609573960300000e-002) (16, 2.26919855922460560000e-002) (17, -8.95887091755867000000e-002) (18, 1.13756358623504640000e-001) (19, -4.22970652580261230000e-002) (20, 3.85296009480953220000e-002) (21, 4.98879887163639070000e-002) (22, -6.05178996920585630000e-002) (23, -2.32762470841407780000e-002) (24, 1.15915350615978240000e-001) (25, -5.46255223453044890000e-002) (26, -1.30773276090621950000e-001) (27, -1.10520943999290470000e-001) (28, -1.89042821526527400000e-001) (29, -1.25093236565589900000e-001) (30, -2.60665118694305420000e-002) (31, -1.38447433710098270000e-001) (32, -1.49629145860672000000e-001) (33, -5.28539307415485380000e-002) (34, -8.81487503647804260000e-002) (35, -1.33900374174118040000e-001) (36, -2.47130859643220900000e-002) (37, -1.18749856948852540000e-001) (38, -1.11144840717315670000e-001) (39, -1.36548995971679690000e-001) (40, -1.78045496344566350000e-001) (41, -1.47173106670379640000e-001) (42, -1.01254589855670930000e-001) (43, -5.48700280487537380000e-002) (44, -1.79402142763137820000e-001) (45, -7.62348920106887820000e-002) (46, -4.51869238168001170000e-003) (47, -4.27631661295890810000e-002) (48, 3.92580814659595490000e-002) (49, -1.11181400716304780000e-001) (50, -3.03038321435451510000e-002) (51, 1.52406767010688780000e-002) (52, -3.29681992530822750000e-001) (0, 3.72509807348251340000e-001) (1, -8.09704214334487920000e-002) (2, 1.54585808515548710000e-001) (3, -7.33420997858047490000e-002) (4, 3.00437241792678830000e-001) (5, -1.70487284776754680000e-004) (6, 3.25323730707168580000e-001) (7, 1.86603233218193050000e-001) (8, -5.64495682716369630000e-001) (9, 7.18130394816398620000e-002) (10, 1.89701810479164120000e-001) (11, -4.04198691248893740000e-002) (12, 2.02081382274627690000e-001) (13, -9.08412262797355650000e-002) (14, -8.50842297077178960000e-002) (15, -2.24078316241502760000e-002) (16, -1.06343254446983340000e-001) (17, -1.95837035775184630000e-001) (18, 1.46328955888748170000e-001) (19, -4.43384386599063870000e-002) (20, -1.22035183012485500000e-001) (21, -7.49516412615776060000e-002) (22, -5.88130839169025420000e-002) (23, -2.19022650271654130000e-002) (24, 2.16056108474731450000e-002) (25, -8.68938714265823360000e-002) (26, -1.21211431920528410000e-001) (27, -1.36525407433509830000e-001) (28, -1.33516222238540650000e-001) (29, -9.07379686832427980000e-002) (30, -1.50465592741966250000e-001) (31, -1.62250325083732600000e-001) (32, -1.19666196405887600000e-001) (33, -1.70676052570343020000e-001) (34, -6.69159889221191410000e-002) (35, -1.13861151039600370000e-001) (36, -1.55347585678100590000e-001) (37, -3.28621901571750640000e-002) (38, -5.44564723968505860000e-002) (39, -4.14851531386375430000e-002) (40, -7.52439498901367190000e-002) (41, -1.78006440401077270000e-001) (42, -1.29421308636665340000e-001) (43, -1.19491420686244960000e-001) (44, -1.97422698140144350000e-001) (45, 2.39973198622465130000e-002) (46, 3.48493866622447970000e-002) (47, -1.12986303865909580000e-001) (48, -1.62123844027519230000e-001) (49, -1.29029387608170510000e-003) (50, -2.45264023542404170000e-002) (51, -1.02242402732372280000e-001) (52, -3.42131704092025760000e-001) (0, 1.84846460819244380000e-001) (1, -1.97178293019533160000e-002) (2, -1.96463009342551230000e-003) (3, -3.11903506517410280000e-002) (4, 2.95007616281509400000e-001) (5, -7.30177909135818480000e-002) (6, 2.42602884769439700000e-001) (7, 2.41943731904029850000e-001) (8, -3.56478214263916020000e-001) (9, 1.60013988614082340000e-001) (10, 2.40588635206222530000e-001) (11, -4.52413549646735190000e-003) (12, 1.96310862898826600000e-001) (13, -5.25630600750446320000e-002) (14, 1.55117344111204150000e-002) (15, -1.22661972418427470000e-002) (16, -1.13985441625118260000e-001) (17, -1.54986396431922910000e-001) (18, 2.17560492455959320000e-002) (19, -1.11299216747283940000e-001) (20, -3.66283245384693150000e-002) (21, 6.35636374354362490000e-002) (22, -7.86560401320457460000e-002) (23, 7.27570280432701110000e-002) (24, 5.84065131843090060000e-002) (25, 8.89087915420532230000e-002) (26, -7.40955173969268800000e-002) (27, -7.91925005614757540000e-003) (28, -1.87296673655509950000e-001) (29, -1.12332984805107120000e-001) (30, 1.25454561784863470000e-002) (31, -1.52105763554573060000e-001) (32, -9.29014533758163450000e-002) (33, -5.42612746357917790000e-002) (34, -1.02484665811061860000e-001) (35, -4.95018959045410160000e-002) (36, -5.60859218239784240000e-002) (37, 1.43974842503666880000e-002) (38, 1.50200435891747470000e-002) (39, -1.29709810018539430000e-001) (40, -8.54610204696655270000e-002) (41, -6.75374940037727360000e-002) (42, -9.22971591353416440000e-002) (43, -2.29044094681739810000e-001) (44, -1.82234928011894230000e-001) (45, -7.56092891097068790000e-002) (46, -3.41786332428455350000e-002) (47, -1.81139126420021060000e-001) (48, -4.54737246036529540000e-003) (49, -1.43884450197219850000e-001) (50, 2.74045653641223910000e-002) (51, -4.52028289437294010000e-002) (52, -4.15047556161880490000e-001) (0, -4.42294597625732420000e-001) (1, -1.78441897034645080000e-001) (2, -7.65478134155273440000e-001) (3, -2.35787495970726010000e-001) (4, -2.72022187709808350000e-001) (5, -9.50837060809135440000e-002) (6, -1.27419799566268920000e-001) (7, -1.46078214049339290000e-001) (8, -1.59689307212829590000e-001) (9, -9.07609090209007260000e-002) (10, -1.05658888816833500000e-001) (11, -1.02080933749675750000e-001) (12, -2.08232745528221130000e-001) (13, -8.26217681169509890000e-002) (14, 7.46392980217933650000e-002) (15, 9.04074162244796750000e-002) (16, 2.13252902030944820000e-002) (17, 3.82412821054458620000e-002) (18, -1.42040297389030460000e-001) (19, 1.00056631490588190000e-002) (20, -5.22858873009681700000e-002) (21, -9.62358638644218440000e-002) (22, -8.91655460000038150000e-002) (23, -2.45220363140106200000e-002) (24, -1.07204422354698180000e-001) (25, -1.04325510561466220000e-001) (26, 9.57792624831199650000e-002) (27, 7.73770213127136230000e-002) (28, -4.30054925382137300000e-002) (29, 6.77673295140266420000e-002) (30, 7.06109032034873960000e-002) (31, -8.26541557908058170000e-002) (32, 3.50300059653818610000e-003) (33, -9.13267359137535100000e-002) (34, 9.40691977739334110000e-002) (35, -7.57533609867095950000e-002) (36, 3.49295558407902720000e-003) (37, 1.32222101092338560000e-001) (38, 7.27801769971847530000e-002) (39, -5.85892014205455780000e-002) (40, -4.85794469714164730000e-002) (41, -1.39491641893982890000e-002) (42, 1.52514144778251650000e-001) (43, 3.16979698836803440000e-002) (44, 1.14070467650890350000e-001) (45, 4.98285815119743350000e-002) (46, -6.09014071524143220000e-002) (47, 4.25051786005496980000e-002) (48, 6.57600015401840210000e-002) (49, 1.34354864712804560000e-003) (50, -1.47087378427386280000e-002) (51, -4.33952808380126950000e-002) (52, -3.27990800142288210000e-001) (0, -2.25485175848007200000e-001) (1, -2.29959726333618160000e-001) (2, -4.75497126579284670000e-001) (3, -9.16001424193382260000e-002) (4, -1.06840692460536960000e-001) (5, -3.36998477578163150000e-002) (6, -3.34879755973815920000e-002) (7, -9.36809331178665160000e-002) (8, -2.15423926711082460000e-001) (9, -1.40605628490448000000e-001) (10, -1.28042355179786680000e-001) (11, -7.14938566088676450000e-002) (12, 4.51177358627319340000e-002) (13, -8.29880535602569580000e-002) (14, -2.09213234484195710000e-002) (15, 3.39131541550159450000e-002) (16, -9.11339968442916870000e-002) (17, -1.33375510573387150000e-001) (18, 1.52698131278157230000e-002) (19, -1.11931644380092620000e-001) (20, 5.35671934485435490000e-002) (21, -1.17105059325695040000e-001) (22, -3.97520288825035100000e-002) (23, -5.75586296617984770000e-002) (24, 5.86880855262279510000e-002) (25, -1.08527459204196930000e-001) (26, -1.59779423847794530000e-003) (27, 3.16840372979640960000e-002) (28, -1.25650227069854740000e-001) (29, 6.39153346419334410000e-002) (30, -7.49218463897705080000e-002) (31, -5.41304647922515870000e-002) (32, -1.01713471114635470000e-001) (33, 1.53351519256830220000e-002) (34, -1.57130733132362370000e-002) (35, 1.76387280225753780000e-002) (36, 1.03855803608894350000e-001) (37, -3.54446507990360260000e-002) (38, -9.05716866254806520000e-002) (39, -5.24138621985912320000e-002) (40, -2.50227209180593490000e-002) (41, -7.25596258416771890000e-003) (42, -4.46634814143180850000e-002) (43, 1.03308878839015960000e-001) (44, 1.34504139423370360000e-001) (45, 1.04663036763668060000e-001) (46, 6.97326362133026120000e-002) (47, 4.84471581876277920000e-002) (48, 1.05582103133201600000e-001) (49, 2.72741205990314480000e-002) (50, 2.10912581533193590000e-002) (51, -4.29957397282123570000e-002) (52, -2.96529740095138550000e-001) (0, 9.46416705846786500000e-002) (1, -9.93193164467811580000e-002) (2, -1.83566465973854060000e-001) (3, -1.03367390111088750000e-002) (4, 1.54417961835861210000e-001) (5, -1.13231256604194640000e-001) (6, 8.91323536634445190000e-002) (7, 8.37429761886596680000e-002) (8, -2.10642874240875240000e-001) (9, 3.33697013556957240000e-002) (10, 4.65209446847438810000e-002) (11, -5.73758259415626530000e-002) (12, 1.56593039631843570000e-001) (13, 1.10948681831359860000e-002) (14, -1.02964654564857480000e-001) (15, -4.60476316511631010000e-002) (16, -1.00935153663158420000e-001) (17, -1.60636514425277710000e-001) (18, 5.90896941721439360000e-002) (19, 2.97265350818634030000e-002) (20, -6.40668421983718870000e-002) (21, -4.16069924831390380000e-002) (22, 3.05579286068677900000e-002) (23, -2.64664739370346070000e-002) (24, -4.16964702308177950000e-002) (25, 4.95588257908821110000e-002) (26, -1.23354479670524600000e-001) (27, 2.68075522035360340000e-002) (28, -1.63013190031051640000e-002) (29, -7.23309768363833430000e-003) (30, -5.21255545318126680000e-002) (31, -7.48618412762880330000e-003) (32, -8.93649160861968990000e-002) (33, -3.08577846735715870000e-002) (34, -9.85233858227729800000e-002) (35, -7.26872235536575320000e-002) (36, -1.02761454880237580000e-001) (37, 1.77585296332836150000e-002) (38, 1.16611253470182420000e-002) (39, 4.67352382838726040000e-002) (40, -1.43163695931434630000e-001) (41, -1.31832882761955260000e-001) (42, -9.16314199566841130000e-002) (43, -7.87447616457939150000e-002) (44, -3.32304788753390310000e-003) (45, 7.27117583155632020000e-002) (46, -1.10393717885017400000e-001) (47, -2.01797410845756530000e-002) (48, -6.18123486638069150000e-002) (49, -6.19103200733661650000e-003) (50, 1.26322219148278240000e-002) (51, -4.70723509788513180000e-002) (52, -3.79994630813598630000e-001) (0, -1.89360961318016050000e-001) (1, -2.15150579810142520000e-001) (2, -4.47680354118347170000e-001) (3, -1.66093826293945310000e-001) (4, -1.62673056125640870000e-001) (5, -1.60172253847122190000e-001) (6, -9.19014066457748410000e-002) (7, -1.63325026631355290000e-001) (8, -2.64296591281890870000e-001) (9, -6.69000390917062760000e-003) (10, -8.00042152404785160000e-002) (11, -8.10698643326759340000e-002) (12, -1.15086197853088380000e-001) (13, -1.02991014719009400000e-001) (14, 7.79685601592063900000e-002) (15, -7.96000808477401730000e-002) (16, 2.56946235895156860000e-002) (17, -1.15525647997856140000e-001) (18, -6.40409737825393680000e-002) (19, 6.33580759167671200000e-002) (20, -7.71115273237228390000e-002) (21, -3.40730249881744380000e-002) (22, -3.88705320656299590000e-002) (23, -4.91236560046672820000e-002) (24, -2.75585297495126720000e-002) (25, -1.04490742087364200000e-001) (26, -3.57118099927902220000e-002) (27, -9.79423802345991130000e-003) (28, -1.19183519855141640000e-002) (29, 6.84281289577484130000e-002) (30, 3.81803661584854130000e-002) (31, -2.51642130315303800000e-002) (32, -9.61053669452667240000e-002) (33, -3.85314933955669400000e-002) (34, -2.91699431836605070000e-002) (35, -1.23782873153686520000e-001) (36, 7.74985402822494510000e-002) (37, -5.60684502124786380000e-003) (38, 2.35618650913238530000e-002) (39, 5.61942979693412780000e-002) (40, 9.08295717090368270000e-003) (41, 1.90574489533901210000e-002) (42, -4.05448339879512790000e-002) (43, 8.38875595945864920000e-004) (44, 1.52496369555592540000e-002) (45, -3.01632806658744810000e-002) (46, 8.31667706370353700000e-002) (47, 4.36039455235004430000e-003) (48, 4.26351316273212430000e-002) (49, 6.15254752337932590000e-002) (50, 5.55195994675159450000e-002) (51, -7.27030709385871890000e-002) (52, -3.40909600257873540000e-001) (0, -4.63470846414566040000e-001) (1, -1.90335288643836980000e-001) (2, -7.49186396598815920000e-001) (3, -2.61392444372177120000e-001) (4, -2.49460518360137940000e-001) (5, -1.16792060434818270000e-001) (6, -2.70160645246505740000e-001) (7, -2.26459324359893800000e-001) (8, -1.15057550370693210000e-001) (9, -2.00208023190498350000e-001) (10, -2.53606349229812620000e-001) (11, -1.49006813764572140000e-001) (12, -1.84820860624313350000e-001) (13, -1.21871434152126310000e-001) (14, -7.37956017255783080000e-002) (15, -6.84389993548393250000e-002) (16, 7.93081223964691160000e-002) (17, 1.03420307859778400000e-002) (18, -1.45468875765800480000e-001) (19, -6.48870021104812620000e-002) (20, -7.26984068751335140000e-002) (21, -2.34575569629669190000e-002) (22, -5.35553023219108580000e-002) (23, -4.55088540911674500000e-002) (24, -1.65988609194755550000e-001) (25, -4.01330366730690000000e-002) (26, 2.96356715261936190000e-002) (27, 3.38824093341827390000e-002) (28, -1.35852649807929990000e-001) (29, 4.82995882630348210000e-002) (30, 3.77783253788948060000e-002) (31, 3.10651361942291260000e-002) (32, -3.52189503610134120000e-002) (33, 2.83641517162323000000e-002) (34, 3.54199707508087160000e-002) (35, 2.52541061490774150000e-002) (36, 1.12066291272640230000e-001) (37, 6.67109936475753780000e-002) (38, 6.42390623688697810000e-002) (39, -1.03257559239864350000e-002) (40, 3.07923853397369380000e-002) (41, 1.82647675275802610000e-001) (42, 1.12728483974933620000e-001) (43, 1.51861280202865600000e-001) (44, 2.87772238254547120000e-001) (45, -1.95212997496128080000e-002) (46, -2.56919451057910920000e-002) (47, 2.34603226184844970000e-001) (48, 3.04370988160371780000e-002) (49, 4.03552651405334470000e-002) (50, 6.31824731826782230000e-002) (51, 1.93089365959167480000e-001) (52, -4.19406443834304810000e-001) (0, -7.22016632556915280000e-001) (1, -5.24628646671772000000e-002) (2, -1.23211407661437990000e+000) (3, -4.24698680639266970000e-001) (4, -4.66952681541442870000e-001) (5, -6.53103590011596680000e-002) (6, -3.96901190280914310000e-001) (7, -4.19118046760559080000e-001) (8, -9.92640927433967590000e-002) (9, -2.69186764955520630000e-001) (10, -3.44640880823135380000e-001) (11, -1.69990375638008120000e-001) (12, -2.22261503338813780000e-001) (13, -2.48097628355026250000e-001) (14, -2.83065475523471830000e-002) (15, 8.20544362068176270000e-002) (16, -4.68638399615883830000e-003) (17, -1.13617964088916780000e-001) (18, -2.10356250405311580000e-001) (19, -5.47099336981773380000e-002) (20, -6.92649930715560910000e-002) (21, -2.01566256582736970000e-002) (22, 1.99312306940555570000e-002) (23, -1.76416978240013120000e-001) (24, -1.51416331529617310000e-001) (25, -1.32048696279525760000e-001) (26, -1.21834270656108860000e-001) (27, -2.13120490312576290000e-001) (28, -1.41638591885566710000e-001) (29, -1.38399124145507810000e-001) (30, -8.56571793556213380000e-002) (31, 7.08614289760589600000e-003) (32, 8.72618034482002260000e-002) (33, 1.21363392099738120000e-002) (34, 1.38893112540245060000e-001) (35, 5.16691356897354130000e-002) (36, 2.13887188583612440000e-002) (37, 1.13454267382621770000e-001) (38, 3.14106568694114690000e-002) (39, 1.15005418658256530000e-001) (40, 7.01004639267921450000e-002) (41, 2.67586320638656620000e-001) (42, 2.90232151746749880000e-001) (43, 3.68437349796295170000e-001) (44, 3.24421554803848270000e-001) (45, 6.13977164030075070000e-002) (46, 1.25216081738471980000e-001) (47, 2.96510308980941770000e-001) (48, 1.07500642538070680000e-001) (49, 6.57648518681526180000e-002) (50, 1.18718914687633510000e-001) (51, 2.62810587882995610000e-001) (52, -4.38003212213516240000e-001) (0, 2.29772508144378660000e-001) (1, -4.33963872492313390000e-002) (2, -2.29114577174186710000e-001) (3, 3.36726717650890350000e-002) (4, 6.28445371985435490000e-002) (5, 7.78789864853024480000e-003) (6, 3.51714752614498140000e-002) (7, 1.23199159279465680000e-002) (8, -4.16185081005096440000e-001) (9, -1.93931814283132550000e-002) (10, 9.92974936962127690000e-002) (11, -6.33436962962150570000e-002) (12, 6.25379085540771480000e-002) (13, 6.71371258795261380000e-003) (14, -3.87685038149356840000e-002) (15, -6.37297108769416810000e-002) (16, -6.05227611958980560000e-002) (17, -2.05407142639160160000e-001) (18, 7.53218829631805420000e-002) (19, 1.65050793439149860000e-002) (20, -3.58943864703178410000e-002) (21, -1.34552925825119020000e-001) (22, -9.84030589461326600000e-002) (23, -3.02286520600318910000e-002) (24, -8.29225480556488040000e-002) (25, -8.48961248993873600000e-002) (26, 3.21765318512916560000e-002) (27, -3.92740219831466670000e-002) (28, -1.82565331459045410000e-001) (29, -1.25626651570200920000e-002) (30, -1.94800761528313160000e-003) (31, -1.38829648494720460000e-001) (32, -3.34036387503147130000e-002) (33, -1.78361698985099790000e-001) (34, -9.17551573365926740000e-003) (35, -1.76473911851644520000e-002) (36, -3.80433984100818630000e-002) (37, 4.23582419753074650000e-002) (38, -1.21899642050266270000e-001) (39, -1.05946809053421020000e-001) (40, 2.41297893226146700000e-002) (41, -1.37315958738327030000e-001) (42, 2.37528868019580840000e-002) (43, -8.82594212889671330000e-002) (44, -9.54649373888969420000e-002) (45, 8.26750099658966060000e-002) (46, -8.13508704304695130000e-002) (47, 2.31932364404201510000e-002) (48, -1.03133879601955410000e-001) (49, -1.42502062954008580000e-003) (50, 5.21944053471088410000e-002) (51, 6.73251077532768250000e-002) (52, -3.10550659894943240000e-001) (0, 3.42227101325988770000e-001) (1, 4.06696228310465810000e-003) (2, 1.03008404374122620000e-001) (3, -2.52035520970821380000e-002) (4, 3.80945563316345210000e-001) (5, 7.03912153840065000000e-002) (6, 1.58164918422698970000e-001) (7, 1.70402511954307560000e-001) (8, -4.78750050067901610000e-001) (9, 1.98496609926223750000e-001) (10, 2.30006560683250430000e-001) (11, 1.49853061884641650000e-002) (12, 7.72114768624305730000e-002) (13, -1.04176677763462070000e-001) (14, 1.78002808243036270000e-002) (15, -3.88721488416194920000e-002) (16, -9.28767919540405270000e-002) (17, -4.52717170119285580000e-002) (18, 1.57416880130767820000e-001) (19, 1.93276144564151760000e-002) (20, -1.12235583364963530000e-002) (21, -1.00351639091968540000e-001) (22, -1.00819446146488190000e-001) (23, 1.57930806279182430000e-001) (24, 6.26020729541778560000e-002) (25, 8.45541507005691530000e-002) (26, -1.53502047061920170000e-001) (27, -4.42792708054184910000e-003) (28, -2.68599003553390500000e-001) (29, -7.30625307187438010000e-003) (30, -7.50293896999210120000e-004) (31, -5.38249947130680080000e-002) (32, -1.20335154235363010000e-001) (33, -1.30155786871910100000e-001) (34, -8.28437581658363340000e-002) (35, -1.02275177836418150000e-001) (36, -5.39003424346446990000e-002) (37, -9.52335223555564880000e-002) (38, -1.17474809288978580000e-001) (39, -8.88906642794609070000e-002) (40, -2.38265302032232280000e-002) (41, -9.61372256278991700000e-002) (42, -1.51848062872886660000e-001) (43, -2.23766282200813290000e-001) (44, -1.44982606172561650000e-001) (45, -7.40177482366561890000e-002) (46, 5.71468360722064970000e-002) (47, -2.48342566192150120000e-002) (48, -9.69406217336654660000e-002) (49, -1.43192872405052190000e-001) (50, -2.33017541468143460000e-002) (51, -1.40940710902214050000e-001) (52, -4.40803706645965580000e-001) (0, 1.35126993060112000000e-001) (1, -1.67725846171379090000e-001) (2, -1.39624983072280880000e-001) (3, 6.28365278244018550000e-002) (4, 1.73786893486976620000e-001) (5, 2.12502740323543550000e-002) (6, 1.72194149345159530000e-002) (7, 1.88514500856399540000e-001) (8, -3.60415697097778320000e-001) (9, 1.56408045440912250000e-002) (10, 2.97016389667987820000e-002) (11, -2.87999901920557020000e-002) (12, 4.47575077414512630000e-002) (13, -1.68962240219116210000e-001) (14, -8.38243216276168820000e-002) (15, -1.20966501533985140000e-001) (16, 4.08770889043807980000e-002) (17, -5.98514378070831300000e-002) (18, -6.91830664873123170000e-002) (19, -6.94218501448631290000e-002) (20, -1.26400977373123170000e-001) (21, 5.29952943325042720000e-002) (22, 9.25928633660078050000e-003) (23, 8.95860865712165830000e-002) (24, 5.82435205578804020000e-002) (25, -5.11972643435001370000e-002) (26, -1.31359398365020750000e-001) (27, 7.36880069598555560000e-003) (28, -8.10892283916473390000e-002) (29, -1.35831296443939210000e-001) (30, 2.27645747363567350000e-002) (31, -6.60837069153785710000e-002) (32, -1.05756677687168120000e-001) (33, 1.33269438520073890000e-002) (34, -1.06904536485672000000e-001) (35, -5.42411617934703830000e-002) (36, -1.22180245816707610000e-001) (37, 7.99561105668544770000e-003) (38, -3.63586395978927610000e-002) (39, -8.91657359898090360000e-003) (40, -1.49503514170646670000e-001) (41, -3.90673335641622540000e-003) (42, 1.82734355330467220000e-002) (43, -7.82918259501457210000e-002) (44, -5.64541555941104890000e-002) (45, 2.34673079103231430000e-002) (46, -8.10012128204107280000e-003) (47, 4.39074933528900150000e-002) (48, -4.06864993274211880000e-002) (49, 2.71113831549882890000e-002) (50, 1.35737638920545580000e-002) (51, -1.23285189270973210000e-001) (52, -3.97799402475357060000e-001) (0, -2.25378014147281650000e-002) (1, -3.89734357595443730000e-002) (2, -1.74850881099700930000e-001) (3, -1.26419425010681150000e-001) (4, 3.60751375555992130000e-002) (5, -2.35011391341686250000e-002) (6, -1.46996015682816510000e-002) (7, 7.66365835443139080000e-003) (8, -2.94984012842178340000e-001) (9, -7.66150206327438350000e-002) (10, 4.06674630939960480000e-002) (11, -3.10666281729936600000e-002) (12, 1.04698568582534790000e-001) (13, -1.70867815613746640000e-001) (14, -9.28904637694358830000e-002) (15, -2.69663054496049880000e-002) (16, -1.07520677149295810000e-001) (17, -1.36208936572074890000e-001) (18, 7.84364789724349980000e-002) (19, -1.13463193178176880000e-001) (20, -9.16592776775360110000e-003) (21, -1.41075225546956060000e-002) (22, -3.53852137923240660000e-002) (23, 5.59404119849205020000e-002) (24, 2.88959015160799030000e-002) (25, -9.54527780413627620000e-002) (26, 1.30761237815022470000e-002) (27, 8.21460504084825520000e-003) (28, -2.21652209758758540000e-001) (29, 4.20224852859973910000e-002) (30, -4.41166013479232790000e-002) (31, -1.47422663867473600000e-002) (32, -6.66404217481613160000e-002) (33, -1.03056378662586210000e-001) (34, -1.27033740282058720000e-001) (35, -7.57353752851486210000e-002) (36, -6.54048770666122440000e-002) (37, 3.12443934381008150000e-002) (38, 6.63699805736541750000e-002) (39, 6.23538233339786530000e-002) (40, -2.32103690505027770000e-002) (41, -4.07819729298353200000e-003) (42, -7.61899575591087340000e-002) (43, -2.33954936265945430000e-003) (44, -1.27674356102943420000e-001) (45, -8.00952911376953130000e-002) (46, 5.10935075581073760000e-002) (47, -2.37486194819211960000e-002) (48, -9.71686765551567080000e-002) (49, 2.62077227234840390000e-002) (50, 2.15141121298074720000e-002) (51, -7.32501875609159470000e-003) (52, -3.93999367952346800000e-001) (0, -3.79726216197013850000e-002) (1, -1.73844873905181880000e-001) (2, -3.31982135772705080000e-001) (3, -9.61972400546073910000e-002) (4, -3.01814684644341470000e-003) (5, -9.74030345678329470000e-002) (6, 4.00401018559932710000e-002) (7, -1.73146165907382970000e-002) (8, -2.54093408584594730000e-001) (9, 9.46212634444236760000e-002) (10, 2.86436472088098530000e-002) (11, -5.47741167247295380000e-002) (12, 6.13666586577892300000e-002) (13, -4.57711936905980110000e-003) (14, -3.32581833936274050000e-003) (15, 1.54235782101750370000e-002) (16, -5.15454001724720000000e-002) (17, -6.67452160269021990000e-003) (18, -3.23726572096347810000e-002) (19, -5.25219775736331940000e-002) (20, -6.09036348760128020000e-002) (21, -1.36683523654937740000e-001) (22, -1.08357883989810940000e-001) (23, 1.02866522967815400000e-001) (24, -5.53616732358932500000e-002) (25, -1.14319510757923130000e-001) (26, -1.83313935995101930000e-002) (27, -5.86455762386322020000e-002) (28, -1.38061806559562680000e-001) (29, 5.72815537452697750000e-003) (30, -6.12355358898639680000e-002) (31, -1.08617126941680910000e-001) (32, -4.97914515435695650000e-002) (33, -5.88522292673587800000e-002) (34, -7.34133049845695500000e-002) (35, -1.26893192529678340000e-001) (36, -8.52568149566650390000e-002) (37, -5.02348877489566800000e-002) (38, 5.46296797692775730000e-002) (39, -1.01722449064254760000e-001) (40, -8.79055634140968320000e-003) (41, 1.34651949629187580000e-002) (42, -2.16363165527582170000e-002) (43, -1.97292082011699680000e-002) (44, 5.90541064739227290000e-002) (45, -7.79184252023696900000e-002) (46, 2.14712657034397130000e-002) (47, 6.41412511467933650000e-002) (48, 7.89676457643508910000e-002) (49, 2.72769909352064130000e-002) (50, 6.66812732815742490000e-002) (51, 2.11490616202354430000e-002) (52, -3.02189856767654420000e-001) (0, -3.51299010217189790000e-002) (1, -1.85002923011779790000e-001) (2, -3.03765743970870970000e-001) (3, -9.78630557656288150000e-002) (4, -2.10775844752788540000e-002) (5, -1.88461780548095700000e-001) (6, -3.45365218818187710000e-002) (7, 8.44759196043014530000e-002) (8, -3.12414050102233890000e-001) (9, -9.54418480396270750000e-002) (10, 2.91149318218231200000e-002) (11, -3.05319279432296750000e-002) (12, -9.51207615435123440000e-003) (13, -8.97341128438711170000e-003) (14, -1.54180340468883510000e-002) (15, 2.06250976771116260000e-002) (16, -4.53576110303401950000e-002) (17, -1.02310188114643100000e-001) (18, -3.27264256775379180000e-002) (19, -8.29453989863395690000e-002) (20, -3.88752780854702000000e-002) (21, 4.17097359895706180000e-002) (22, -1.01278454065322880000e-001) (23, -2.98813097178936000000e-002) (24, 1.77585389465093610000e-002) (25, -2.79960432089865210000e-003) (26, 2.01011206954717640000e-002) (27, -6.73463568091392520000e-002) (28, -1.29253506660461430000e-001) (29, -1.23935714364051820000e-001) (30, 4.11518178880214690000e-002) (31, -8.27401205897331240000e-002) (32, -8.45467671751976010000e-002) (33, -9.54944938421249390000e-002) (34, 8.14805645495653150000e-003) (35, -7.37618505954742430000e-002) (36, -1.15130834281444550000e-001) (37, 4.96800011023879050000e-003) (38, -1.59938377328217030000e-003) (39, 5.92097733169794080000e-003) (40, -1.08099140226840970000e-001) (41, -7.18635097146034240000e-002) (42, -8.05179551243782040000e-002) (43, 6.35663571301847700000e-004) (44, -4.53651845455169680000e-002) (45, -5.64134120941162110000e-002) (46, 4.35133464634418490000e-002) (47, 1.32168140262365340000e-002) (48, 5.53053282201290130000e-002) (49, -1.53306303545832630000e-002) (50, -5.75486756861209870000e-002) (51, 7.16322585940361020000e-002) (52, -2.83663630485534670000e-001) (0, -4.14363950490951540000e-001) (1, -1.88816979527473450000e-001) (2, -7.82318651676177980000e-001) (3, -1.35015890002250670000e-001) (4, -2.60773241519927980000e-001) (5, -1.13746300339698790000e-001) (6, -2.05306366086006160000e-001) (7, -2.76052713394165040000e-001) (8, -1.13985762000083920000e-001) (9, -2.78078794479370120000e-001) (10, -6.57642185688018800000e-002) (11, -2.43761703372001650000e-001) (12, -5.82405701279640200000e-002) (13, -1.43413990736007690000e-001) (14, -7.93301761150360110000e-002) (15, -2.98778060823678970000e-002) (16, -3.02029401063919070000e-002) (17, -1.97491683065891270000e-002) (18, -1.58009603619575500000e-002) (19, -8.84089395403862000000e-002) (20, -1.18354246020317080000e-001) (21, -4.97445836663246150000e-003) (22, 2.35863961279392240000e-002) (23, -9.40298214554786680000e-002) (24, -8.78187790513038640000e-002) (25, 3.09914611279964450000e-002) (26, -4.80742342770099640000e-002) (27, -6.29153922200202940000e-002) (28, -2.32412945479154590000e-002) (29, -6.86394795775413510000e-002) (30, -1.00037075579166410000e-001) (31, 2.93407570570707320000e-002) (32, -2.55786795169115070000e-002) (33, -4.30162027478218080000e-002) (34, 8.44402760267257690000e-002) (35, 4.88350652158260350000e-002) (36, 5.15165850520133970000e-002) (37, -2.17682998627424240000e-002) (38, 6.29301667213439940000e-002) (39, -8.39909762144088750000e-002) (40, 2.96268183737993240000e-002) (41, 1.82036116719245910000e-001) (42, 1.06315195560455320000e-001) (43, 6.09425641596317290000e-002) (44, 2.04412370920181270000e-001) (45, -2.35101133584976200000e-002) (46, -1.46966436877846720000e-002) (47, 2.06420242786407470000e-001) (48, 1.50462493300437930000e-001) (49, 3.43556217849254610000e-002) (50, 1.25395581126213070000e-001) (51, 2.71290689706802370000e-002) (52, -3.58200669288635250000e-001) (0, -5.23875534534454350000e-001) (1, -2.05566331744194030000e-001) (2, -7.36024856567382810000e-001) (3, -2.45084285736083980000e-001) (4, -4.15151447057724000000e-001) (5, -2.08572745323181150000e-001) (6, -2.17293635010719300000e-001) (7, -1.41439095139503480000e-001) (8, -1.41466841101646420000e-001) (9, -3.06544154882431030000e-001) (10, -2.78146922588348390000e-001) (11, -1.94866448640823360000e-001) (12, -2.22017019987106320000e-001) (13, -1.20361328125000000000e-001) (14, -3.30823138356208800000e-002) (15, 8.35822448134422300000e-002) (16, 9.50496271252632140000e-002) (17, -4.13246080279350280000e-002) (18, -6.00269176065921780000e-002) (19, 4.43396382033824920000e-002) (20, -6.76948651671409610000e-002) (21, 8.51599276065826420000e-002) (22, 1.07348663732409480000e-002) (23, -4.04474884271621700000e-002) (24, -2.83683277666568760000e-002) (25, 3.21476198732852940000e-002) (26, -8.62864777445793150000e-002) (27, 2.17434875667095180000e-002) (28, -6.92708715796470640000e-002) (29, 3.39058488607406620000e-002) (30, -8.02177414298057560000e-002) (31, 9.41006764769554140000e-002) (32, -3.60749997198581700000e-002) (33, -8.00149440765380860000e-002) (34, 2.91239712387323380000e-002) (35, -5.99951148033142090000e-002) (36, 1.67679768055677410000e-002) (37, 2.18033697456121440000e-002) (38, 4.32327911257743840000e-002) (39, 3.99275571107864380000e-002) (40, 3.85689223185181620000e-003) (41, 1.40569597482681270000e-001) (42, 3.54391671717166900000e-002) (43, 2.73987740278244020000e-001) (44, 1.62709727883338930000e-001) (45, 1.39173954725265500000e-001) (46, 6.34601041674613950000e-002) (47, 1.19050271809101100000e-001) (48, 1.29222795367240910000e-001) (49, 5.65606504678726200000e-002) (50, 1.94554790854454040000e-001) (51, 1.16161383688449860000e-001) (52, -3.20677369832992550000e-001) (0, 1.22576341032981870000e-001) (1, -8.36901068687438960000e-002) (2, -1.11117966473102570000e-001) (3, -4.13676425814628600000e-002) (4, 8.48080664873123170000e-002) (5, 3.87050844728946690000e-002) (6, 4.39017042517662050000e-002) (7, 1.12340420484542850000e-001) (8, -4.38130378723144530000e-001) (9, 6.17018863558769230000e-002) (10, 8.47415924072265630000e-002) (11, -5.48508316278457640000e-002) (12, 2.08171717822551730000e-002) (13, -3.18985502235591410000e-003) (14, -2.78457850217819210000e-002) (15, -2.19277869910001750000e-002) (16, -5.92506378889083860000e-002) (17, -8.74528065323829650000e-002) (18, 1.35339871048927310000e-002) (19, 4.07100729644298550000e-002) (20, 3.55231091380119320000e-002) (21, -5.79334460198879240000e-002) (22, -6.16878122091293330000e-002) (23, 5.49563877284526820000e-002) (24, 3.26297208666801450000e-002) (25, 2.87170000374317170000e-002) (26, -5.99924251437187190000e-002) (27, 5.02173304557800290000e-002) (28, -7.10997879505157470000e-002) (29, -8.37105289101600650000e-002) (30, -6.26087784767150880000e-002) (31, -1.43013358116149900000e-001) (32, -9.94098633527755740000e-002) (33, -3.38148698210716250000e-002) (34, -9.77668762207031250000e-002) (35, -9.16977897286415100000e-002) (36, 2.88592018187046050000e-002) (37, -1.22379712760448460000e-001) (38, -7.08965510129928590000e-002) (39, 1.30559783428907390000e-002) (40, -4.29150648415088650000e-003) (41, -1.21226809918880460000e-001) (42, -1.46883979439735410000e-001) (43, -1.72757998108863830000e-001) (44, -1.42122982069849970000e-002) (45, 2.36031170934438710000e-002) (46, -2.32474748045206070000e-002) (47, -8.02127346396446230000e-002) (48, -8.90819877386093140000e-002) (49, 1.44762834534049030000e-002) (50, 1.58495884388685230000e-002) (51, 4.97302934527397160000e-002) (52, -3.14199805259704590000e-001) (0, -4.19005900621414180000e-001) (1, -2.23219782114028930000e-001) (2, -6.97435975074768070000e-001) (3, -1.48959338665008540000e-001) (4, -2.95299500226974490000e-001) (5, -1.70726299285888670000e-001) (6, -7.37167075276374820000e-002) (7, -1.98985204100608830000e-001) (8, -1.67530700564384460000e-001) (9, -2.43804290890693660000e-001) (10, -1.00657388567924500000e-001) (11, -1.29292920231819150000e-001) (12, -4.32205758988857270000e-002) (13, -2.09973916411399840000e-001) (14, -9.30952206254005430000e-002) (15, 6.16717450320720670000e-002) (16, 1.27055436372756960000e-001) (17, -7.91372582316398620000e-002) (18, -9.29563790559768680000e-002) (19, -3.67888994514942170000e-002) (20, 2.18030102550983430000e-002) (21, -4.29108627140522000000e-002) (22, -9.53267961740493770000e-002) (23, 3.37893925607204440000e-002) (24, -1.17787346243858340000e-001) (25, -1.29341647028923030000e-001) (26, 3.30383554100990300000e-002) (27, -1.31910547614097600000e-001) (28, -3.79981249570846560000e-002) (29, -1.09009211882948880000e-002) (30, 5.25791151449084280000e-003) (31, 8.57799425721168520000e-002) (32, -5.84827251732349400000e-002) (33, 4.32688929140567780000e-002) (34, 4.56479266285896300000e-002) (35, 1.80612560361623760000e-002) (36, 8.60267952084541320000e-002) (37, -4.12681922316551210000e-002) (38, 9.01258178055286410000e-003) (39, 8.75525847077369690000e-002) (40, -6.34785890579223630000e-002) (41, 5.09900711476802830000e-002) (42, 1.43649920821189880000e-001) (43, 2.34125852584838870000e-001) (44, 1.49432450532913210000e-001) (45, 1.21824860572814940000e-001) (46, 1.36552587151527400000e-001) (47, 3.64046134054660800000e-002) (48, 2.95088514685630800000e-002) (49, 1.37077152729034420000e-001) (50, 1.29154801368713380000e-001) (51, -2.15592645108699800000e-002) (52, -3.12929362058639530000e-001) (0, -5.26996135711669920000e-001) (1, -1.04313045740127560000e-001) (2, -8.71220409870147710000e-001) (3, -3.36696684360504150000e-001) (4, -3.68573307991027830000e-001) (5, -2.15885087847709660000e-001) (6, -3.11392456293106080000e-001) (7, -3.27572852373123170000e-001) (8, -1.21112458407878880000e-001) (9, -2.22288593649864200000e-001) (10, -2.50926434993743900000e-001) (11, -2.30507671833038330000e-001) (12, -2.65951901674270630000e-001) (13, -2.22708016633987430000e-001) (14, -7.41932988166809080000e-002) (15, -4.95651364326477050000e-002) (16, 2.28019896894693370000e-002) (17, -1.02433852851390840000e-001) (18, -1.65155470371246340000e-001) (19, 1.57556477934122090000e-002) (20, 5.85252419114112850000e-002) (21, -9.53246504068374630000e-002) (22, -8.82978960871696470000e-002) (23, -1.15703821182250980000e-001) (24, -2.16673240065574650000e-001) (25, -6.30847811698913570000e-002) (26, -6.68667107820510860000e-002) (27, -1.81042626500129700000e-001) (28, -3.82900424301624300000e-002) (29, -7.85727873444557190000e-002) (30, -8.35375636816024780000e-002) (31, 7.26641491055488590000e-002) (32, -5.79265542328357700000e-002) (33, -6.03595934808254240000e-002) (34, 1.32136106491088870000e-001) (35, -1.48367434740066530000e-002) (36, 1.58933177590370180000e-002) (37, 1.13195545971393590000e-001) (38, 1.64914652705192570000e-002) (39, -1.74951348453760150000e-002) (40, -1.42509788274765010000e-002) (41, 1.97617962956428530000e-001) (42, 2.13270872831344600000e-001) (43, 2.39103302359580990000e-001) (44, 2.86292672157287600000e-001) (45, 9.34478864073753360000e-002) (46, 3.56415323913097380000e-002) (47, 2.79508978128433230000e-001) (48, 2.22474575042724610000e-001) (49, 2.12092518806457520000e-001) (50, 8.84172618389129640000e-002) (51, 1.12886272370815280000e-001) (52, -3.40002238750457760000e-001) (0, -1.20777912437915800000e-001) (1, -1.57484740018844600000e-001) (2, -5.17798542976379390000e-001) (3, -1.04406699538230900000e-001) (4, -3.16569879651069640000e-002) (5, -1.63927271962165830000e-001) (6, -9.92627069354057310000e-002) (7, -1.25562455505132680000e-002) (8, -2.30822235345840450000e-001) (9, -1.04567766189575200000e-001) (10, -1.17143802344799040000e-001) (11, -4.43512573838233950000e-002) (12, -2.15114951133728030000e-002) (13, -8.58661234378814700000e-002) (14, -5.64914830029010770000e-002) (15, -1.98032297194004060000e-002) (16, 3.08848954737186430000e-002) (17, -8.59118103981018070000e-002) (18, -1.78908333182334900000e-002) (19, -4.05544675886631010000e-002) (20, -1.53314601629972460000e-002) (21, 5.91697208583354950000e-002) (22, 2.63713020831346510000e-002) (23, -2.45539676398038860000e-002) (24, -6.08463399112224580000e-002) (25, 4.92179952561855320000e-002) (26, -1.86815261840820310000e-002) (27, -8.15779715776443480000e-003) (28, -7.75840952992439270000e-002) (29, 4.46278899908065800000e-002) (30, -9.41088423132896420000e-002) (31, 4.53131422400474550000e-002) (32, -1.23095005750656130000e-001) (33, 5.04508800804615020000e-003) (34, -1.13794440403580670000e-002) (35, -3.49918045103549960000e-002) (36, -2.56689880043268200000e-002) (37, 3.69102843105793000000e-002) (38, -8.67407396435737610000e-002) (39, 7.29546919465065000000e-002) (40, -1.11778050661087040000e-001) (41, 5.70436045527458190000e-002) (42, 3.48673053085803990000e-002) (43, 9.67851057648658750000e-002) (44, -2.21391636878252030000e-002) (45, 8.14663097262382510000e-002) (46, -5.73703870177268980000e-002) (47, 1.15434564650058750000e-002) (48, 7.59204775094985960000e-002) (49, -8.85116029530763630000e-003) (50, 3.69768147356808190000e-003) (51, 1.04167483747005460000e-001) (52, -3.16132098436355590000e-001) (0, 2.71430790424346920000e-001) (1, -4.72280345857143400000e-002) (2, 6.85091093182563780000e-002) (3, 6.44058883190155030000e-002) (4, 3.54208290576934810000e-001) (5, 7.93224945664405820000e-002) (6, 2.04225495457649230000e-001) (7, 2.22481116652488710000e-001) (8, -4.94104117155075070000e-001) (9, 1.78400129079818730000e-001) (10, 8.76629725098609920000e-002) (11, -8.64528715610504150000e-002) (12, 1.27054169774055480000e-001) (13, -9.34629142284393310000e-002) (14, -5.27472347021102910000e-002) (15, 5.01457601785659790000e-002) (16, -1.63988634943962100000e-001) (17, -2.18913629651069640000e-002) (18, 1.25557497143745420000e-001) (19, -5.58360777795314790000e-002) (20, -6.87539801001548770000e-002) (21, -1.17477796971797940000e-001) (22, -1.23399533331394200000e-001) (23, 2.61709876358509060000e-002) (24, 2.15408988296985630000e-002) (25, 5.47448173165321350000e-002) (26, -4.89950254559516910000e-002) (27, -1.07183106243610380000e-001) (28, -1.17574736475944520000e-001) (29, -1.42920002341270450000e-001) (30, 9.95348021388053890000e-003) (31, -8.98908451199531560000e-002) (32, 8.11940152198076250000e-003) (33, -1.64500772953033450000e-001) (34, -1.89011916518211360000e-001) (35, 1.17718474939465520000e-002) (36, 3.12084350734949110000e-002) (37, -2.01527029275894170000e-002) (38, -1.38499796390533450000e-001) (39, -1.30838289856910710000e-001) (40, -1.40825748443603520000e-001) (41, -1.02766871452331540000e-001) (42, -2.09828138351440430000e-001) (43, -2.07752808928489690000e-001) (44, -1.17119833827018740000e-001) (45, -9.85516086220741270000e-002) (46, -1.21624972671270370000e-002) (47, -1.70846402645111080000e-001) (48, -1.54881566762924190000e-001) (49, -8.76514390110969540000e-002) (50, -1.54112532734870910000e-001) (51, -1.62877172231674190000e-001) (52, -3.15527081489562990000e-001) (0, -4.53161567449569700000e-001) (1, -6.62754774093627930000e-002) (2, -8.56694877147674560000e-001) (3, -2.77303129434585570000e-001) (4, -3.33050042390823360000e-001) (5, -1.81047037243843080000e-001) (6, -1.99270233511924740000e-001) (7, -2.73312181234359740000e-001) (8, -1.27828314900398250000e-001) (9, -1.46385341882705690000e-001) (10, -2.44592338800430300000e-001) (11, -9.13573801517486570000e-002) (12, -2.37379759550094600000e-001) (13, -2.83657819032669070000e-001) (14, 4.32964153587818150000e-002) (15, 1.03489525616168980000e-001) (16, -3.67940887808799740000e-002) (17, -4.28681038320064540000e-002) (18, -2.14913263916969300000e-001) (19, -3.49058136343955990000e-002) (20, -1.15408197045326230000e-001) (21, -5.71606121957302090000e-002) (22, 3.33917140960693360000e-002) (23, 2.24357913248240950000e-003) (24, -1.59346699714660640000e-001) (25, -1.23461849987506870000e-001) (26, 5.52427535876631740000e-003) (27, -1.13780945539474490000e-001) (28, 1.22941257432103160000e-002) (29, 3.48358079791069030000e-002) (30, 1.87009386718273160000e-002) (31, 5.91550357639789580000e-002) (32, -1.07885956764221190000e-001) (33, -2.66016032546758650000e-002) (34, 2.09100376814603810000e-002) (35, -4.35348637402057650000e-002) (36, 4.44068647921085360000e-002) (37, 4.08973284065723420000e-002) (38, 6.63824239745736120000e-003) (39, -4.27798144519329070000e-002) (40, 1.06634430587291720000e-001) (41, 1.86986252665519710000e-001) (42, 4.68191392719745640000e-002) (43, 2.33668357133865360000e-001) (44, 2.43657246232032780000e-001) (45, 8.63259434700012210000e-002) (46, 1.47843167185783390000e-001) (47, 1.10530570149421690000e-001) (48, 2.03538000583648680000e-001) (49, 3.30058485269546510000e-002) (50, 7.11222887039184570000e-002) (51, 1.51737451553344730000e-001) (52, -3.46897691488265990000e-001) (0, -3.56098800897598270000e-001) (1, -2.55966335535049440000e-001) (2, -6.82463228702545170000e-001) (3, -9.16025936603546140000e-002) (4, -1.72295466065406800000e-001) (5, -1.56185865402221680000e-001) (6, -2.10912466049194340000e-001) (7, -1.00847981870174410000e-001) (8, -1.33396923542022710000e-001) (9, -1.82569324970245360000e-001) (10, -5.13628907501697540000e-002) (11, -1.45382776856422420000e-001) (12, -4.45667468011379240000e-002) (13, -2.35144197940826420000e-001) (14, 2.43863258510828020000e-002) (15, -5.40719255805015560000e-002) (16, 6.48070499300956730000e-002) (17, 1.26247378066182140000e-002) (18, -1.39695769175887110000e-002) (19, 3.13994362950325010000e-002) (20, -3.96954640746116640000e-002) (21, -2.15870118699967860000e-003) (22, -8.98903682827949520000e-002) (23, 3.58315184712409970000e-002) (24, -8.15424993634223940000e-002) (25, -5.83713576197624210000e-002) (26, -7.49119371175765990000e-002) (27, -1.15892641246318820000e-001) (28, -4.51833494007587430000e-002) (29, 1.08352713286876680000e-002) (30, 3.82662303745746610000e-002) (31, -5.70463240146636960000e-002) (32, -4.75431531667709350000e-002) (33, 1.66783593595027920000e-002) (34, -3.72115038335323330000e-002) (35, -6.35936409235000610000e-002) (36, -2.09200941026210780000e-002) (37, 8.29312503337860110000e-002) (38, 8.01236480474472050000e-002) (39, -4.13573160767555240000e-002) (40, -9.02178324759006500000e-003) (41, -3.12515012919902800000e-002) (42, 6.98461830615997310000e-002) (43, 5.68922907114028930000e-002) (44, 2.41404756903648380000e-001) (45, 6.12214803695678710000e-002) (46, 1.03592082858085630000e-001) (47, 1.27013586461544040000e-002) (48, -2.77622118592262270000e-002) (49, 1.36660337448120120000e-001) (50, -3.16562801599502560000e-002) (51, 4.83547709882259370000e-002) (52, -2.85602897405624390000e-001) (0, 1.06257647275924680000e-001) (1, -1.32133066654205320000e-001) (2, -1.91259309649467470000e-001) (3, -7.03228637576103210000e-002) (4, 1.92143261432647710000e-001) (5, -5.63910044729709630000e-002) (6, 9.94858145713806150000e-002) (7, 1.05595424771308900000e-001) (8, -3.27132821083068850000e-001) (9, -5.22899255156517030000e-002) (10, 1.52249544858932500000e-001) (11, -4.81790974736213680000e-002) (12, 9.12121012806892400000e-002) (13, 2.31719110161066060000e-002) (14, -7.17002749443054200000e-002) (15, 2.15282794088125230000e-002) (16, -5.16504533588886260000e-002) (17, -1.80393069982528690000e-001) (18, -5.45421876013278960000e-002) (19, -2.58795227855443950000e-002) (20, -1.25470578670501710000e-001) (21, -8.28747153282165530000e-002) (22, -7.44750127196311950000e-002) (23, 6.98004364967346190000e-002) (24, 9.11207199096679690000e-002) (25, 8.71039927005767820000e-003) (26, -4.64887358248233800000e-002) (27, 5.69543838500976560000e-002) (28, -1.92892804741859440000e-001) (29, -7.88873732089996340000e-002) (30, -5.13888075947761540000e-002) (31, -7.91475176811218260000e-003) (32, 1.79031230509281160000e-002) (33, -4.06573042273521420000e-002) (34, -7.76040107011795040000e-002) (35, 3.15085649490356450000e-002) (36, 5.34012243151664730000e-002) (37, -5.67429140210151670000e-002) (38, -6.42746463418006900000e-002) (39, 2.49868668615818020000e-002) (40, 2.46303975582122800000e-002) (41, 3.22136133909225460000e-002) (42, 7.51449493691325190000e-003) (43, -4.42888177931308750000e-002) (44, 8.63396190106868740000e-003) (45, -1.17745297029614450000e-002) (46, 8.71451720595359800000e-002) (47, -1.30549535155296330000e-001) (48, 2.06230375915765760000e-002) (49, -1.19190163910388950000e-001) (50, -3.40950228273868560000e-002) (51, -8.13972055912017820000e-002) (52, -4.01046693325042720000e-001) (0, -4.53913629055023190000e-001) (1, -1.43474221229553220000e-001) (2, -7.63629794120788570000e-001) (3, -2.45906189084053040000e-001) (4, -3.03734451532363890000e-001) (5, -2.00544223189353940000e-001) (6, -1.53779506683349610000e-001) (7, -2.45228722691535950000e-001) (8, -5.50405420362949370000e-002) (9, -2.56053477525711060000e-001) (10, -2.01682567596435550000e-001) (11, -1.41147255897521970000e-001) (12, -1.32452785968780520000e-001) (13, -2.11601614952087400000e-001) (14, -1.65863614529371260000e-003) (15, 4.29503247141838070000e-002) (16, -2.91714835911989210000e-002) (17, 2.47257053852081300000e-002) (18, -5.58194257318973540000e-002) (19, 4.62221726775169370000e-002) (20, -4.73705269396305080000e-002) (21, -8.17188546061515810000e-002) (22, -9.96886193752288820000e-002) (23, -1.16388872265815730000e-001) (24, -7.05480128526687620000e-002) (25, 4.51880544424057010000e-002) (26, -8.64617228507995610000e-002) (27, 5.84799349308013920000e-002) (28, 6.21759630739688870000e-002) (29, 4.46824990212917330000e-002) (30, 3.35976704955101010000e-002) (31, -2.39652898162603380000e-002) (32, 5.09858354926109310000e-002) (33, -4.02469821274280550000e-002) (34, -3.84560972452163700000e-002) (35, -2.34888568520545960000e-002) (36, 8.15576910972595210000e-002) (37, -2.70298216491937640000e-002) (38, 1.28951698541641240000e-001) (39, -4.41536232829093930000e-002) (40, -4.81725074350833890000e-002) (41, 1.14826902747154240000e-001) (42, 7.10188522934913640000e-002) (43, 1.35028675198554990000e-001) (44, 1.59579768776893620000e-001) (45, 4.80677746236324310000e-002) (46, 5.00636175274848940000e-002) (47, 2.25345063954591750000e-002) (48, -1.83433983474969860000e-002) (49, 1.06064587831497190000e-001) (50, 2.38563269376754760000e-002) (51, -6.58808508887887000000e-003) (52, -4.12494421005249020000e-001) (0, 2.26823136210441590000e-001) (1, -1.79246440529823300000e-001) (2, -4.27388064563274380000e-002) (3, -4.59854789078235630000e-002) (4, 2.15144544839859010000e-001) (5, -1.51070237159729000000e-001) (6, 1.34562730789184570000e-001) (7, 4.27780486643314360000e-002) (8, -4.44620549678802490000e-001) (9, -2.27029286324977870000e-002) (10, 9.40846651792526250000e-002) (11, -8.47699120640754700000e-002) (12, 1.24371491372585300000e-001) (13, 3.68122793734073640000e-002) (14, -9.28946584463119510000e-002) (15, -1.30809247493743900000e-001) (16, -1.04418858885765080000e-001) (17, -6.49256780743598940000e-002) (18, 7.71965757012367250000e-002) (19, 3.22148716077208520000e-003) (20, -1.23493775725364690000e-001) (21, -1.12953171133995060000e-001) (22, -1.21963538229465480000e-001) (23, 9.87871065735816960000e-002) (24, 8.99743139743804930000e-002) (25, -3.45026850700378420000e-002) (26, -1.30933746695518490000e-001) (27, -4.10694926977157590000e-002) (28, -1.86649098992347720000e-001) (29, -1.56224155798554420000e-002) (30, -3.73357348144054410000e-002) (31, -1.09690047800540920000e-001) (32, -1.35355189442634580000e-001) (33, -8.18344503641128540000e-002) (34, -1.09892204403877260000e-001) (35, -6.75471201539039610000e-002) (36, -1.11124768853187560000e-001) (37, -2.79348390176892280000e-003) (38, -8.74370634555816650000e-002) (39, -6.55246749520301820000e-002) (40, -1.00176990032196040000e-001) (41, -8.32973942160606380000e-002) (42, -1.01981014013290410000e-001) (43, -7.27514848113060000000e-002) (44, -5.26496842503547670000e-002) (45, 4.59564067423343660000e-002) (46, -8.78875926136970520000e-002) (47, -9.51600596308708190000e-002) (48, -1.22224316000938420000e-002) (49, -2.30440031737089160000e-002) (50, -2.04172404482960700000e-003) (51, 2.35442742705345150000e-002) (52, -2.85787552595138550000e-001) (0, -4.56664592027664180000e-001) (1, -2.42725834250450130000e-001) (2, -8.21578919887542720000e-001) (3, -1.88171133399009700000e-001) (4, -2.88192927837371830000e-001) (5, -1.04034118354320530000e-001) (6, -2.96852380037307740000e-001) (7, -2.36311420798301700000e-001) (8, -1.13467358052730560000e-001) (9, -1.17412276566028590000e-001) (10, -1.02878928184509280000e-001) (11, -1.99181243777275090000e-001) (12, -7.73726031184196470000e-002) (13, -1.52076601982116700000e-001) (14, -9.18265357613563540000e-002) (15, -3.84300872683525090000e-002) (16, 3.29507850110530850000e-002) (17, -6.51760697364807130000e-002) (18, -1.45233541727066040000e-001) (19, 1.03013506159186360000e-002) (20, -1.66811142116785050000e-002) (21, 6.96879774332046510000e-002) (22, -1.74071136862039570000e-002) (23, -1.19225516915321350000e-001) (24, -9.47753041982650760000e-002) (25, -2.35783141106367110000e-002) (26, -1.37109989300370220000e-002) (27, -1.39816120266914370000e-001) (28, -1.05627343058586120000e-001) (29, -6.01313002407550810000e-002) (30, 7.67814144492149350000e-002) (31, 8.03808197379112240000e-002) (32, -2.35679987818002700000e-002) (33, 6.58482909202575680000e-002) (34, -4.67824228107929230000e-002) (35, 2.91151646524667740000e-002) (36, 2.98841856420040130000e-002) (37, 4.77186813950538640000e-002) (38, 6.48939833045005800000e-002) (39, 1.08363047242164610000e-001) (40, 5.19600287079811100000e-002) (41, 1.77412316203117370000e-001) (42, 2.01654974371194840000e-002) (43, 1.87194779515266420000e-001) (44, 1.98464691638946530000e-001) (45, 3.89004014432430270000e-002) (46, 1.34853869676589970000e-002) (47, 5.49707338213920590000e-002) (48, -8.61232075840234760000e-003) (49, 1.69309210032224660000e-002) (50, 1.43822744488716130000e-001) (51, 3.84336113929748540000e-002) (52, -3.12160730361938480000e-001) (0, -1.84310466051101680000e-001) (1, -1.14483021199703220000e-001) (2, -5.02426862716674800000e-001) (3, -1.06341823935508730000e-001) (4, -1.63733169436454770000e-001) (5, -1.56635016202926640000e-001) (6, -1.00475177168846130000e-001) (7, -1.63829848170280460000e-001) (8, -1.70978620648384090000e-001) (9, -2.81662568449974060000e-002) (10, 1.43440878018736840000e-002) (11, -1.76117718219757080000e-001) (12, -1.24903447926044460000e-001) (13, -6.11424744129180910000e-002) (14, 3.56097295880317690000e-002) (15, 4.87006902694702150000e-002) (16, 1.20115466415882110000e-003) (17, -6.33163452148437500000e-002) (18, -1.32101759314537050000e-001) (19, -3.94621342420578000000e-002) (20, -1.78385227918624880000e-002) (21, -1.08915738761425020000e-001) (22, -6.53319358825683590000e-002) (23, -5.28097078204154970000e-002) (24, -4.73705120384693150000e-002) (25, 3.08481566607952120000e-002) (26, -2.78902035206556320000e-002) (27, 5.36464005708694460000e-002) (28, -1.54856845736503600000e-001) (29, 3.64574529230594640000e-002) (30, -4.75550740957260130000e-002) (31, -3.44329997897148130000e-002) (32, -7.64374136924743650000e-002) (33, -1.20946638286113740000e-001) (34, 2.16645710170269010000e-002) (35, 2.42139939218759540000e-002) (36, -3.32428924739360810000e-002) (37, -3.54706756770610810000e-002) (38, 7.46244862675666810000e-002) (39, 1.97141971439123150000e-002) (40, -3.73189859092235570000e-002) (41, -5.20071052014827730000e-002) (42, 6.78807944059371950000e-002) (43, 1.61734789609909060000e-001) (44, -1.93807613104581830000e-002) (45, -8.04566219449043270000e-002) (46, -8.28430950641632080000e-002) (47, 1.21386520564556120000e-001) (48, 8.98006856441497800000e-002) (49, 2.61595100164413450000e-002) (50, -3.62977944314479830000e-002) (51, -1.66079066693782810000e-002) (52, -3.14384520053863530000e-001) (0, 3.49314272403717040000e-001) (1, -9.44363549351692200000e-002) (2, 1.57793179154396060000e-001) (3, 2.52441987395286560000e-002) (4, 3.29688727855682370000e-001) (5, -6.00480288267135620000e-002) (6, 3.34857195615768430000e-001) (7, 3.08136016130447390000e-001) (8, -5.30493021011352540000e-001) (9, 1.05929173529148100000e-001) (10, 9.54700186848640440000e-002) (11, 8.69524851441383360000e-002) (12, 1.62142440676689150000e-001) (13, -1.17130950093269350000e-001) (14, -1.09702505171298980000e-001) (15, -3.45749445259571080000e-002) (16, -1.76423534750938420000e-001) (17, -6.93300813436508180000e-002) (18, 5.34728839993476870000e-002) (19, 4.71079051494598390000e-002) (20, -7.56955221295356750000e-002) (21, -4.32285703718662260000e-002) (22, 2.37882956862449650000e-002) (23, 9.95248109102249150000e-002) (24, -4.06470661982893940000e-003) (25, -5.90584054589271550000e-002) (26, -8.66319686174392700000e-002) (27, -1.28179103136062620000e-001) (28, -1.36313781142234800000e-001) (29, -1.37117281556129460000e-001) (30, -1.55494855716824530000e-002) (31, -3.98222245275974270000e-002) (32, -1.41890544909983870000e-003) (33, -1.23786933720111850000e-001) (34, -1.21752180159091950000e-001) (35, 2.10158787667751310000e-002) (36, -1.44099086523056030000e-001) (37, -2.52204644493758680000e-003) (38, -4.69618141651153560000e-002) (39, -9.74664315581321720000e-002) (40, -1.87543153762817380000e-001) (41, -3.73685434460639950000e-002) (42, -1.86119690537452700000e-001) (43, -9.48650017380714420000e-002) (44, -3.15361529588699340000e-001) (45, -1.07026301324367520000e-001) (46, -1.02643974125385280000e-001) (47, -6.19260109961032870000e-002) (48, -4.94797192513942720000e-002) (49, -7.44248181581497190000e-002) (50, -1.39323219656944270000e-001) (51, -1.55967563390731810000e-001) (52, -3.62501710653305050000e-001) (0, -7.39692524075508120000e-002) (1, -2.04668343067169190000e-001) (2, -4.55974549055099490000e-001) (3, -1.39927200507372620000e-003) (4, -1.16834593936800960000e-002) (5, -1.45920187234878540000e-001) (6, -1.13094553351402280000e-001) (7, -1.19106516242027280000e-001) (8, -3.06562006473541260000e-001) (9, -1.23627133667469020000e-001) (10, 3.19459699094295500000e-002) (11, -5.54822422564029690000e-002) (12, 1.19619648903608320000e-002) (13, -1.32666245102882390000e-001) (14, 8.79083201289176940000e-003) (15, -3.03754806518554690000e-002) (16, 7.46442526578903200000e-002) (17, -3.20147238671779630000e-002) (18, -1.28811165690422060000e-001) (19, -9.90328416228294370000e-002) (20, 7.06195924431085590000e-003) (21, -4.88430969417095180000e-002) (22, -5.67239783704280850000e-002) (23, -5.50687164068222050000e-002) (24, -1.11894011497497560000e-001) (25, 5.06272241473197940000e-002) (26, -2.24459506571292880000e-002) (27, -1.15445673465728760000e-001) (28, -3.12519110739231110000e-002) (29, -5.18436096608638760000e-002) (30, -8.32784324884414670000e-002) (31, 5.33754527568817140000e-002) (32, -7.03855380415916440000e-002) (33, 2.89675928652286530000e-002) (34, 4.42004166543483730000e-002) (35, 4.21123672276735310000e-003) (36, -2.46556382626295090000e-002) (37, 7.93713983148336410000e-003) (38, 2.88844313472509380000e-002) (39, -7.52585753798484800000e-002) (40, 3.07156220078468320000e-002) (41, 8.82504880428314210000e-002) (42, 1.33973369374871250000e-002) (43, 6.79101198911666870000e-002) (44, 8.01872834563255310000e-003) (45, -2.72559691220521930000e-002) (46, -6.02515637874603270000e-002) (47, 8.82097184658050540000e-002) (48, -1.74384079873561860000e-002) (49, -4.27314005792140960000e-002) (50, 1.01312277838587760000e-002) (51, -7.05269575119018550000e-002) (52, -3.55623364448547360000e-001) (0, -6.52609944343566890000e-001) (1, -1.47308722138404850000e-001) (2, -9.63037848472595210000e-001) (3, -2.78138846158981320000e-001) (4, -4.63514685630798340000e-001) (5, -1.24851077795028690000e-001) (6, -3.95212203264236450000e-001) (7, -3.25326919555664060000e-001) (8, -6.43557459115982060000e-002) (9, -2.88608044385910030000e-001) (10, -3.11354279518127440000e-001) (11, -2.57695198059082030000e-001) (12, -1.81006118655204770000e-001) (13, -2.91883975267410280000e-001) (14, -7.48390927910804750000e-002) (15, 2.53545343875885010000e-002) (16, 5.15164285898208620000e-002) (17, -1.92073211073875430000e-001) (18, -2.90698379278182980000e-001) (19, -5.94505555927753450000e-002) (20, 7.84581601619720460000e-002) (21, 3.83508168160915370000e-002) (22, 1.02445483207702640000e-001) (23, -4.92977984249591830000e-002) (24, -1.71329528093338010000e-001) (25, -8.32439213991165160000e-002) (26, -6.36313110589981080000e-002) (27, -8.26448500156402590000e-002) (28, -7.51167386770248410000e-002) (29, 6.75084367394447330000e-002) (30, 1.16299793124198910000e-001) (31, -2.61439457535743710000e-002) (32, -1.01100420579314230000e-002) (33, -6.51468932628631590000e-002) (34, 1.20592594146728520000e-001) (35, 3.11611555516719820000e-002) (36, -3.08455456979572770000e-003) (37, 6.63551539182662960000e-002) (38, -1.92487938329577450000e-003) (39, -2.36998051404953000000e-002) (40, 6.36071637272834780000e-002) (41, 1.36071607470512390000e-001) (42, 1.25845044851303100000e-001) (43, 2.40645617246627810000e-001) (44, 3.65695059299468990000e-001) (45, 1.16931930184364320000e-001) (46, 6.19270242750644680000e-002) (47, 2.27796182036399840000e-001) (48, 1.19757227599620820000e-001) (49, 2.10949763655662540000e-001) (50, 1.33496254682540890000e-001) (51, 1.74243316054344180000e-001) (52, -4.12078499794006350000e-001) (0, 1.32523551583290100000e-001) (1, -1.51998445391654970000e-001) (2, -2.33017653226852420000e-001) (3, -7.97405764460563660000e-002) (4, 6.10003992915153500000e-002) (5, -9.35232490301132200000e-002) (6, 1.15958094596862790000e-001) (7, 1.64231017231941220000e-001) (8, -2.81603038311004640000e-001) (9, -1.12159620039165020000e-003) (10, 6.67922645807266240000e-002) (11, -8.61582234501838680000e-002) (12, 8.87387096881866460000e-002) (13, -1.06192149221897130000e-001) (14, 6.26702755689620970000e-002) (15, -3.84225770831108090000e-002) (16, -4.59629371762275700000e-002) (17, -9.04310569167137150000e-002) (18, -1.82548332959413530000e-002) (19, -1.71199925243854520000e-002) (20, -4.81144934892654420000e-002) (21, -1.35051324963569640000e-001) (22, -8.19909870624542240000e-002) (23, -5.29158525168895720000e-002) (24, 2.75359544903039930000e-002) (25, -1.17021247744560240000e-001) (26, -7.15470612049102780000e-002) (27, -9.54334512352943420000e-002) (28, -1.51286110281944270000e-001) (29, -5.21830767393112180000e-002) (30, -8.20281505584716800000e-002) (31, -9.82560887932777400000e-002) (32, 3.81313404068350790000e-003) (33, -1.75144806504249570000e-001) (34, -1.09883965924382210000e-002) (35, -1.27039209008216860000e-001) (36, -9.80948507785797120000e-002) (37, -6.56729638576507570000e-002) (38, 1.70784797519445420000e-002) (39, 3.31699624657630920000e-002) (40, -6.99735209345817570000e-002) (41, -3.49481403827667240000e-002) (42, -1.56087771058082580000e-001) (43, -4.34974133968353270000e-002) (44, -2.96728238463401790000e-002) (45, -5.84104470908641820000e-002) (46, 8.67677927017211910000e-002) (47, -9.48633700609207150000e-002) (48, 4.16904129087924960000e-002) (49, -1.18191726505756380000e-002) (50, 7.28305950760841370000e-002) (51, 6.08676522970199580000e-002) (52, -3.07302653789520260000e-001) (0, -3.53614836931228640000e-001) (1, -8.08123275637626650000e-002) (2, -8.37672650814056400000e-001) (3, -2.22706884145736690000e-001) (4, -2.10292518138885500000e-001) (5, -4.21282276511192320000e-002) (6, -1.69025450944900510000e-001) (7, -2.67011553049087520000e-001) (8, -4.79044206440448760000e-002) (9, -1.01571418344974520000e-001) (10, -1.84804901480674740000e-001) (11, -1.71752259135246280000e-001) (12, -1.68200865387916560000e-001) (13, -2.38300547003746030000e-001) (14, -8.08077007532119750000e-002) (15, -1.91660840064287190000e-002) (16, 1.34095549583435060000e-001) (17, -1.23382909223437310000e-002) (18, -1.51666298508644100000e-001) (19, 2.13671494275331500000e-002) (20, 3.19727174937725070000e-002) (21, 3.45436520874500270000e-002) (22, -3.70715768076479430000e-003) (23, -7.58867114782333370000e-002) (24, -1.41251444816589360000e-001) (25, -2.98543516546487810000e-002) (26, -5.12000806629657750000e-002) (27, -7.92649853974580760000e-003) (28, -2.76453420519828800000e-002) (29, -4.16950846556574110000e-004) (30, 4.00118976831436160000e-002) (31, -1.98716390877962110000e-002) (32, 6.95935934782028200000e-002) (33, 5.33318407833576200000e-002) (34, 9.71240848302841190000e-002) (35, -5.62829338014125820000e-002) (36, 1.14742189645767210000e-001) (37, -4.98881265521049500000e-002) (38, 4.01631556451320650000e-002) (39, 3.28005924820899960000e-002) (40, -5.42938802391290660000e-003) (41, 2.05763295292854310000e-001) (42, 1.80115014314651490000e-001) (43, 1.92030668258666990000e-001) (44, 1.98653042316436770000e-001) (45, -7.65391066670417790000e-003) (46, -2.81739681959152220000e-002) (47, 1.98235422372817990000e-001) (48, 5.45591078698635100000e-002) (49, 2.90952417999506000000e-002) (50, 7.30405524373054500000e-002) (51, 1.56408235430717470000e-001) (52, -4.60652083158493040000e-001) (0, -1.94016203284263610000e-001) (1, -1.99864417314529420000e-001) (2, -3.36365669965744020000e-001) (3, -7.27640539407730100000e-002) (4, -3.95085476338863370000e-002) (5, -2.80381161719560620000e-002) (6, -1.83840021491050720000e-002) (7, -1.23071491718292240000e-001) (8, -2.36953824758529660000e-001) (9, -7.28823840618133540000e-002) (10, 5.56192100048065190000e-002) (11, -8.40224474668502810000e-002) (12, -8.66627842187881470000e-002) (13, -3.57453860342502590000e-002) (14, -4.81451153755187990000e-002) (15, 1.62578783929347990000e-002) (16, -3.08178421109914780000e-002) (17, -5.31376935541629790000e-002) (18, 1.43132433295249940000e-002) (19, 1.51904569938778880000e-002) (20, 4.23707887530326840000e-002) (21, -1.56756595242768530000e-003) (22, -5.11583201587200160000e-002) (23, 4.92101833224296570000e-002) (24, -9.58725661039352420000e-002) (25, -6.01522661745548250000e-002) (26, -4.13108542561531070000e-002) (27, 1.09663149341940880000e-002) (28, -5.26660718023777010000e-002) (29, -6.05163583531975750000e-003) (30, -2.98242885619401930000e-002) (31, 6.52571022510528560000e-002) (32, 7.24043920636177060000e-002) (33, -2.11694706231355670000e-002) (34, -8.40757116675376890000e-002) (35, 1.20549357961863280000e-003) (36, 6.00703582167625430000e-002) (37, -5.10075315833091740000e-002) (38, -6.37639015913009640000e-002) (39, 3.50862704217433930000e-002) (40, -8.99608954787254330000e-002) (41, -5.23379072546958920000e-002) (42, -9.21715572476387020000e-002) (43, -3.25803793966770170000e-002) (44, 3.67794893682003020000e-002) (45, -1.39348031952977180000e-002) (46, 7.19782337546348570000e-002) (47, -3.07246241718530650000e-002) (48, 6.15487806499004360000e-002) (49, -8.73404368758201600000e-002) (50, 9.61373448371887210000e-002) (51, -2.61404402554035190000e-002) (52, -3.49999099969863890000e-001) (0, 4.30653274059295650000e-001) (1, 1.29076912999153140000e-002) (2, 5.31522631645202640000e-002) (3, -8.54895636439323430000e-002) (4, 3.79246592521667480000e-001) (5, -3.88769507408142090000e-002) (6, 3.24994891881942750000e-001) (7, 2.95313507318496700000e-001) (8, -3.70561659336090090000e-001) (9, 1.54416769742965700000e-001) (10, 1.35941624641418460000e-001) (11, -5.24436775594949720000e-003) (12, 2.61817157268524170000e-001) (13, -8.12601223587989810000e-002) (14, -1.12399160861968990000e-001) (15, -2.51626688987016680000e-002) (16, -1.76970496773719790000e-001) (17, -1.16902016103267670000e-001) (18, -2.60677877813577650000e-002) (19, -2.15204805135726930000e-002) (20, 2.14751474559307100000e-002) (21, -7.21706524491310120000e-002) (22, -4.72123315557837490000e-003) (23, 7.97766745090484620000e-002) (24, 3.57127338647842410000e-002) (25, -2.90372911840677260000e-002) (26, -9.90461334586143490000e-002) (27, -9.90318581461906430000e-002) (28, -1.82724267244338990000e-001) (29, -1.66077926754951480000e-001) (30, -1.67090326547622680000e-001) (31, -1.42141371965408330000e-001) (32, -1.03359380736947060000e-002) (33, -3.45666371285915370000e-002) (34, -4.96272593736648560000e-002) (35, -8.76922067254781720000e-003) (36, -2.86892037838697430000e-002) (37, -8.63305386155843730000e-003) (38, 7.05340236891061070000e-004) (39, -1.48253291845321660000e-001) (40, -9.23317000269889830000e-002) (41, -2.16885372996330260000e-001) (42, -5.99284209311008450000e-002) (43, -2.20305562019348140000e-001) (44, -2.40703850984573360000e-001) (45, -1.08880944550037380000e-001) (46, 2.10261624306440350000e-002) (47, -2.13558524847030640000e-001) (48, -3.06603517383337020000e-002) (49, -1.38478860259056090000e-001) (50, -3.24946385808289050000e-003) (51, -1.61531835794448850000e-001) (52, -4.05798286199569700000e-001) (0, 2.20096990466117860000e-001) (1, -7.37635493278503420000e-002) (2, -8.85184928774833680000e-002) (3, 6.47190958261489870000e-003) (4, 2.87975251674652100000e-001) (5, -5.07953651249408720000e-002) (6, 8.56472849845886230000e-002) (7, 2.22054943442344670000e-001) (8, -4.51342552900314330000e-001) (9, 5.37280701100826260000e-002) (10, 1.85196191072463990000e-001) (11, -4.43958770483732220000e-003) (12, 1.75936948508024220000e-002) (13, 4.66968603432178500000e-002) (14, -2.75888219475746150000e-002) (15, -8.45819264650344850000e-002) (16, 2.36698221415281300000e-002) (17, -1.00141994655132290000e-001) (18, -3.42803373932838440000e-002) (19, -7.10578337311744690000e-002) (20, -6.69001340866088870000e-002) (21, -8.38329270482063290000e-002) (22, -1.32047891616821290000e-001) (23, -3.69295403361320500000e-002) (24, 6.51708804070949550000e-003) (25, -3.22004221379756930000e-002) (26, -4.85898600891232490000e-003) (27, -5.76825775206089020000e-002) (28, -1.94977343082427980000e-001) (29, -1.15571483969688420000e-001) (30, 1.16752330213785170000e-002) (31, 1.06219872832298280000e-002) (32, -1.10148273408412930000e-001) (33, -3.16939093172550200000e-002) (34, -1.78744107484817500000e-001) (35, -1.01165808737277980000e-001) (36, -8.27283486723899840000e-002) (37, -5.81434033811092380000e-002) (38, -2.95056868344545360000e-002) (39, -1.13636329770088200000e-001) (40, -1.44897505640983580000e-001) (41, -2.52776145935058590000e-002) (42, -1.71785950660705570000e-001) (43, -2.08965137600898740000e-001) (44, -1.98729082942008970000e-001) (45, -7.87927675992250440000e-003) (46, -8.96233841776847840000e-002) (47, -5.20488694310188290000e-002) (48, -1.05302214622497560000e-001) (49, -2.59872302412986760000e-002) (50, -2.39303298294544220000e-002) (51, -1.18522465229034420000e-001) (52, -2.58714318275451660000e-001) (0, -2.43793308734893800000e-001) (1, -2.22927466034889220000e-001) (2, -5.35749435424804690000e-001) (3, -3.42926681041717530000e-002) (4, -3.84425814263522620000e-003) (5, -1.71690568327903750000e-001) (6, -1.19056537747383120000e-001) (7, -9.23963710665702820000e-002) (8, -2.80893653631210330000e-001) (9, -8.15814360976219180000e-002) (10, -2.00035423040390010000e-002) (11, -3.31909470260143280000e-002) (12, -1.43055140972137450000e-001) (13, -7.75951296091079710000e-002) (14, -2.40010162815451620000e-003) (15, -8.83709713816642760000e-002) (16, 6.69133663177490230000e-002) (17, -1.55224874615669250000e-001) (18, -6.20836950838565830000e-002) (19, 4.95392084121704100000e-002) (20, -1.78742315620183940000e-003) (21, -3.85861247777938840000e-002) (22, 5.39683289825916290000e-002) (23, -8.51442590355873110000e-002) (24, -1.13316506147384640000e-001) (25, 2.27433871477842330000e-002) (26, -7.59522020816802980000e-002) (27, -8.14159065485000610000e-002) (28, -5.34504326060414310000e-003) (29, 4.62686046957969670000e-002) (30, 6.36535286903381350000e-002) (31, -2.79088318347930910000e-002) (32, 6.92042037844657900000e-002) (33, 2.45759878307580950000e-002) (34, -7.55858719348907470000e-002) (35, -1.10308444127440450000e-002) (36, 5.09475283324718480000e-002) (37, -4.34067025780677800000e-002) (38, -2.04086638987064360000e-002) (39, 5.08481264114379880000e-002) (40, -1.07684649527072910000e-001) (41, -5.45066073536872860000e-002) (42, 8.79826694726943970000e-002) (43, 7.62696787714958190000e-002) (44, 1.11050143837928770000e-001) (45, -4.42539751529693600000e-002) (46, -2.36547691747546200000e-003) (47, 1.32192537188529970000e-001) (48, 1.09076038002967830000e-001) (49, 6.91957399249076840000e-002) (50, 7.01051652431488040000e-002) (51, 6.48561641573905940000e-002) (52, -3.15520077943801880000e-001) (0, -4.31923530995845790000e-002) (1, -2.33933210372924800000e-001) (2, -4.78032350540161130000e-001) (3, -9.72675532102584840000e-002) (4, -8.44930112361907960000e-002) (5, -1.53664007782936100000e-001) (6, -8.29285606741905210000e-002) (7, -8.68042930960655210000e-002) (8, -2.32560709118843080000e-001) (9, -9.59300324320793150000e-002) (10, -5.18525950610637660000e-002) (11, -8.23056101799011230000e-002) (12, -5.19975721836090090000e-002) (13, -1.73219367861747740000e-001) (14, 3.22564803063869480000e-002) (15, 9.20692551881074910000e-003) (16, 4.97972220182418820000e-002) (17, -1.46474808454513550000e-001) (18, -6.44944757223129270000e-002) (19, 5.65448924899101260000e-002) (20, -2.91575156152248380000e-002) (21, 5.01518025994300840000e-002) (22, -7.49475285410881040000e-002) (23, 8.07344689965248110000e-002) (24, -1.15513876080513000000e-001) (25, -1.11030794680118560000e-001) (26, -2.51722242683172230000e-002) (27, -2.91051268577575680000e-002) (28, -4.39432151615619660000e-002) (29, 4.12153154611587520000e-002) (30, -3.55989448726177220000e-002) (31, 7.76690058410167690000e-003) (32, -1.03426933288574220000e-001) (33, 2.51521654427051540000e-002) (34, -6.01856783032417300000e-003) (35, -7.77922794222831730000e-002) (36, -1.10978037118911740000e-001) (37, 6.12509734928607940000e-002) (38, 2.31772605329751970000e-002) (39, -1.01104259490966800000e-001) (40, -1.11379344016313550000e-002) (41, 4.58287298679351810000e-002) (42, 1.45523706451058390000e-002) (43, 5.34849166870117190000e-002) (44, -1.05830905959010120000e-002) (45, 3.88922058045864110000e-002) (46, 1.15606877952814100000e-002) (47, -4.72996607422828670000e-002) (48, 8.68059843778610230000e-002) (49, -5.24639338254928590000e-002) (50, -5.29949292540550230000e-002) (51, -5.31231015920639040000e-002) (52, -3.30104827880859380000e-001) (0, 2.08951815962791440000e-001) (1, -1.40757054090499880000e-001) (2, -4.25051748752593990000e-002) (3, 4.77374158799648280000e-002) (4, 2.52868533134460450000e-001) (5, 3.47012579441070560000e-002) (6, 2.36906751990318300000e-001) (7, 1.30058646202087400000e-001) (8, -3.96982491016387940000e-001) (9, 5.51548860967159270000e-002) (10, 8.21310579776763920000e-002) (11, -7.29072242975234990000e-002) (12, 1.47834464907646180000e-001) (13, 6.01247809827327730000e-002) (14, -6.81824460625648500000e-002) (15, -8.95640924572944640000e-002) (16, -6.74343109130859380000e-002) (17, -8.00997614860534670000e-002) (18, 1.43271461129188540000e-001) (19, 1.24320164322853090000e-002) (20, 4.40510660409927370000e-002) (21, -5.91216981410980220000e-002) (22, -4.76914644241333010000e-002) (23, 7.07389786839485170000e-002) (24, 9.59637016057968140000e-002) (25, -7.16013908386230470000e-002) (26, 3.75247560441493990000e-003) (27, -8.60514771193265910000e-003) (28, -1.61917671561241150000e-001) (29, -3.25922816991806030000e-002) (30, -1.13537982106208800000e-001) (31, -1.28884807229042050000e-001) (32, -3.65874022245407100000e-002) (33, -1.06698229908943180000e-001) (34, -3.92533205449581150000e-002) (35, -3.77089083194732670000e-002) (36, 2.31298082508146760000e-003) (37, -6.43374100327491760000e-002) (38, -5.87770864367485050000e-002) (39, 1.55488857999444010000e-002) (40, -3.48621383309364320000e-002) (41, -1.23754896223545070000e-001) (42, -8.45989808440208440000e-002) (43, -1.99660226702690120000e-001) (44, -7.28463008999824520000e-002) (45, -4.16611544787883760000e-002) (46, 1.79946254938840870000e-002) (47, -6.09634034335613250000e-002) (48, -1.20207238942384720000e-002) (49, -1.05074949562549590000e-001) (50, 2.72494014352560040000e-002) (51, 1.44319450482726100000e-002) (52, -3.51251780986785890000e-001) (0, -4.27812457084655760000e-001) (1, -9.68307107686996460000e-002) (2, -6.47326469421386720000e-001) (3, -1.03474877774715420000e-001) (4, -1.81884884834289550000e-001) (5, -9.81765389442443850000e-002) (6, -1.34877562522888180000e-001) (7, -2.37666860222816470000e-001) (8, -1.61744683980941770000e-001) (9, -6.22713081538677220000e-002) (10, -1.50423020124435420000e-001) (11, -1.61962538957595830000e-001) (12, -1.40964344143867490000e-001) (13, -1.16107702255249020000e-001) (14, 2.92501971125602720000e-002) (15, 1.01513743400573730000e-001) (16, 5.54458573460578920000e-002) (17, -8.50646197795867920000e-002) (18, -1.44318640232086180000e-001) (19, 3.14913764595985410000e-002) (20, -8.37556198239326480000e-002) (21, -1.14993803203105930000e-001) (22, -8.21390375494956970000e-002) (23, 2.65412479639053340000e-002) (24, -1.63390189409255980000e-001) (25, -2.39462852478027340000e-002) (26, 2.87322532385587690000e-002) (27, -1.78488437086343770000e-002) (28, -6.11491762101650240000e-002) (29, 5.62129169702529910000e-002) (30, 1.30212102085351940000e-002) (31, 3.16535830497741700000e-002) (32, -3.31595577299594880000e-002) (33, -1.12380452454090120000e-001) (34, 8.90288129448890690000e-002) (35, -1.31209837272763250000e-002) (36, -2.05080714076757430000e-002) (37, 9.84127670526504520000e-002) (38, -5.85085898637771610000e-002) (39, 6.16843104362487790000e-002) (40, 6.55244365334510800000e-002) (41, 6.82431645691394810000e-003) (42, 7.33187422156333920000e-002) (43, 1.41254588961601260000e-001) (44, 2.41656884551048280000e-001) (45, 1.09673559665679930000e-001) (46, 6.36714100837707520000e-002) (47, 2.05774143338203430000e-001) (48, 1.71686604619026180000e-001) (49, 4.31894324719905850000e-002) (50, -1.65579468011856080000e-002) (51, 2.21628211438655850000e-002) (52, -3.99005681276321410000e-001) (0, -2.59357541799545290000e-001) (1, -1.44340053200721740000e-001) (2, -4.28284645080566410000e-001) (3, -4.40775044262409210000e-002) (4, -3.19601632654666900000e-002) (5, -1.22194983065128330000e-001) (6, 3.66319417953491210000e-002) (7, -3.19655202329158780000e-002) (8, -1.95264607667922970000e-001) (9, -1.03423185646533970000e-001) (10, 4.63137850165367130000e-002) (11, -9.07004848122596740000e-002) (12, 4.64630201458930970000e-002) (13, -3.59428040683269500000e-002) (14, -2.20528300851583480000e-002) (15, 6.30527734756469730000e-002) (16, -6.02375529706478120000e-002) (17, -1.33133858442306520000e-001) (18, -1.00616447627544400000e-001) (19, 1.68554522097110750000e-002) (20, -7.36712291836738590000e-002) (21, -1.05243876576423650000e-001) (22, 8.18496197462081910000e-002) (23, 6.75825253129005430000e-002) (24, -8.44095274806022640000e-002) (25, -1.98203846812248230000e-002) (26, 9.49189662933349610000e-002) (27, 7.03523084521293640000e-002) (28, -1.52602970600128170000e-001) (29, 6.52739852666854860000e-002) (30, -1.30719803273677830000e-002) (31, 6.08577467501163480000e-002) (32, 6.95431008934974670000e-002) (33, -1.09393499791622160000e-001) (34, -5.19974566996097560000e-002) (35, 8.78434479236602780000e-002) (36, -3.74858528375625610000e-002) (37, 1.05232663452625270000e-001) (38, 9.45454016327857970000e-002) (39, -9.31130796670913700000e-002) (40, -4.03220765292644500000e-002) (41, -5.24358171969652180000e-003) (42, 1.03435374796390530000e-001) (43, 8.37790966033935550000e-002) (44, -4.64258231222629550000e-002) (45, 8.59267041087150570000e-002) (46, 1.01882368326187130000e-002) (47, 1.20162315666675570000e-001) (48, -6.54958486557006840000e-002) (49, -2.71595679223537450000e-002) (50, -2.86549348384141920000e-002) (51, -2.49928273260593410000e-002) (52, -3.65550935268402100000e-001) (0, -3.85962903499603270000e-001) (1, -2.22747728228569030000e-001) (2, -7.76451051235198970000e-001) (3, -1.94150120019912720000e-001) (4, -2.38150611519813540000e-001) (5, -1.79841145873069760000e-001) (6, -1.56314790248870850000e-001) (7, -2.67057508230209350000e-001) (8, -1.25616237521171570000e-001) (9, -1.34969830513000490000e-001) (10, -8.98810997605323790000e-002) (11, -1.47000998258590700000e-001) (12, -2.18705356121063230000e-001) (13, -9.52820256352424620000e-002) (14, -7.91607871651649480000e-002) (15, -4.97699528932571410000e-002) (16, -1.21840769425034520000e-002) (17, -1.35009929537773130000e-001) (18, -3.11965942382812500000e-002) (19, -6.14856882020831110000e-003) (20, 4.23743296414613720000e-003) (21, 5.53045608103275300000e-002) (22, -5.58884181082248690000e-002) (23, -1.90044026821851730000e-002) (24, -1.60162910819053650000e-001) (25, 7.96868279576301570000e-003) (26, 1.19170211255550380000e-002) (27, 4.66488823294639590000e-002) (28, 2.86017842590808870000e-002) (29, 6.69813677668571470000e-002) (30, -4.04623616486787800000e-003) (31, -3.52012403309345250000e-002) (32, 7.81165584921836850000e-002) (33, -3.18220667541027070000e-002) (34, 2.54946593195199970000e-002) (35, 3.67986187338829040000e-002) (36, 1.04668810963630680000e-001) (37, 4.53454814851284030000e-003) (38, -1.31873239297419790000e-003) (39, -2.32133530080318450000e-002) (40, -6.29161447286605830000e-002) (41, 7.36766532063484190000e-002) (42, 1.87085881829261780000e-001) (43, 1.09374187886714940000e-001) (44, 2.12968289852142330000e-001) (45, -6.08161799609661100000e-002) (46, -6.29768297076225280000e-002) (47, 1.50879114866256710000e-001) (48, 9.29881259799003600000e-002) (49, 8.70474334806203840000e-003) (50, 5.55248074233531950000e-002) (51, 5.61107471585273740000e-002) (52, -2.98570901155471800000e-001) (0, -4.39158082008361820000e-001) (1, 