FANN_FLO_2.1
num_layers=3
learning_rate=0.700000
connection_rate=1.000000
network_type=0
learning_momentum=0.400000
training_algorithm=0
train_error_function=1
train_stop_function=0
cascade_output_change_fraction=0.010000
quickprop_decay=-0.000100
quickprop_mu=1.750000
rprop_increase_factor=1.200000
rprop_decrease_factor=0.500000
rprop_delta_min=0.000000
rprop_delta_max=50.000000
rprop_delta_zero=0.100000
cascade_output_stagnation_epochs=12
cascade_candidate_change_fraction=0.010000
cascade_candidate_stagnation_epochs=12
cascade_max_out_epochs=150
cascade_min_out_epochs=50
cascade_max_cand_epochs=150
cascade_min_cand_epochs=50
cascade_num_candidate_groups=2
bit_fail_limit=3.49999994039535520000e-001
cascade_candidate_limit=1.00000000000000000000e+003
cascade_weight_multiplier=4.00000005960464480000e-001
cascade_activation_functions_count=10
cascade_activation_functions=3 5 7 8 10 11 14 15 16 17 
cascade_activation_steepnesses_count=4
cascade_activation_steepnesses=2.50000000000000000000e-001 5.00000000000000000000e-001 7.50000000000000000000e-001 1.00000000000000000000e+000 
layer_sizes=53 97 7 
scale_included=0
neurons (num_inputs, activation_function, activation_steepness)=(0, 0, 0.00000000000000000000e+000) (0, 0, 0.00000000000000000000e+000) (0, 0, 0.00000000000000000000e+000) (0, 0, 0.00000000000000000000e+000) (0, 0, 0.00000000000000000000e+000) (0, 0, 0.00000000000000000000e+000) (0, 0, 0.00000000000000000000e+000) (0, 0, 0.00000000000000000000e+000) (0, 0, 0.00000000000000000000e+000) (0, 0, 0.00000000000000000000e+000) (0, 0, 0.00000000000000000000e+000) (0, 0, 0.00000000000000000000e+000) (0, 0, 0.00000000000000000000e+000) (0, 0, 0.00000000000000000000e+000) (0, 0, 0.00000000000000000000e+000) (0, 0, 0.00000000000000000000e+000) (0, 0, 0.00000000000000000000e+000) (0, 0, 0.00000000000000000000e+000) (0, 0, 0.00000000000000000000e+000) (0, 0, 0.00000000000000000000e+000) (0, 0, 0.00000000000000000000e+000) (0, 0, 0.00000000000000000000e+000) (0, 0, 0.00000000000000000000e+000) (0, 0, 0.00000000000000000000e+000) (0, 0, 0.00000000000000000000e+000) (0, 0, 0.00000000000000000000e+000) (0, 0, 0.00000000000000000000e+000) (0, 0, 0.00000000000000000000e+000) (0, 0, 0.00000000000000000000e+000) (0, 0, 0.00000000000000000000e+000) (0, 0, 0.00000000000000000000e+000) (0, 0, 0.00000000000000000000e+000) (0, 0, 0.00000000000000000000e+000) (0, 0, 0.00000000000000000000e+000) (0, 0, 0.00000000000000000000e+000) (0, 0, 0.00000000000000000000e+000) (0, 0, 0.00000000000000000000e+000) (0, 0, 0.00000000000000000000e+000) (0, 0, 0.00000000000000000000e+000) (0, 0, 0.00000000000000000000e+000) (0, 0, 0.00000000000000000000e+000) (0, 0, 0.00000000000000000000e+000) (0, 0, 0.00000000000000000000e+000) (0, 0, 0.00000000000000000000e+000) (0, 0, 0.00000000000000000000e+000) (0, 0, 0.00000000000000000000e+000) (0, 0, 0.00000000000000000000e+000) (0, 0, 0.00000000000000000000e+000) (0, 0, 0.00000000000000000000e+000) (0, 0, 0.00000000000000000000e+000) (0, 0, 0.00000000000000000000e+000) (0, 0, 0.00000000000000000000e+000) (0, 0, 0.00000000000000000000e+000) (53, 4, 5.00000000000000000000e-001) (53, 4, 5.00000000000000000000e-001) (53, 4, 5.00000000000000000000e-001) (53, 4, 5.00000000000000000000e-001) (53, 4, 5.00000000000000000000e-001) (53, 4, 5.00000000000000000000e-001) (53, 4, 5.00000000000000000000e-001) (53, 4, 5.00000000000000000000e-001) (53, 4, 5.00000000000000000000e-001) (53, 4, 5.00000000000000000000e-001) (53, 4, 5.00000000000000000000e-001) (53, 4, 5.00000000000000000000e-001) (53, 4, 5.00000000000000000000e-001) (53, 4, 5.00000000000000000000e-001) (53, 4, 5.00000000000000000000e-001) (53, 4, 5.00000000000000000000e-001) (53, 4, 5.00000000000000000000e-001) (53, 4, 5.00000000000000000000e-001) (53, 4, 5.00000000000000000000e-001) (53, 4, 5.00000000000000000000e-001) (53, 4, 5.00000000000000000000e-001) (53, 4, 5.00000000000000000000e-001) (53, 4, 5.00000000000000000000e-001) (53, 4, 5.00000000000000000000e-001) (53, 4, 5.00000000000000000000e-001) (53, 4, 5.00000000000000000000e-001) (53, 4, 5.00000000000000000000e-001) (53, 4, 5.00000000000000000000e-001) (53, 4, 5.00000000000000000000e-001) (53, 4, 5.00000000000000000000e-001) (53, 4, 5.00000000000000000000e-001) (53, 4, 5.00000000000000000000e-001) (53, 4, 5.00000000000000000000e-001) (53, 4, 5.00000000000000000000e-001) (53, 4, 5.00000000000000000000e-001) (53, 4, 5.00000000000000000000e-001) (53, 4, 5.00000000000000000000e-001) (53, 4, 5.00000000000000000000e-001) (53, 4, 5.00000000000000000000e-001) (53, 4, 5.00000000000000000000e-001) (53, 4, 5.00000000000000000000e-001) (53, 4, 5.00000000000000000000e-001) (53, 4, 5.00000000000000000000e-001) (53, 4, 5.00000000000000000000e-001) (53, 4, 5.00000000000000000000e-001) (53, 4, 5.00000000000000000000e-001) (53, 4, 5.00000000000000000000e-001) (53, 4, 5.00000000000000000000e-001) (53, 4, 5.00000000000000000000e-001) (53, 4, 5.00000000000000000000e-001) (53, 4, 5.00000000000000000000e-001) (53, 4, 5.00000000000000000000e-001) (53, 4, 5.00000000000000000000e-001) (53, 4, 5.00000000000000000000e-001) (53, 4, 5.00000000000000000000e-001) (53, 4, 5.00000000000000000000e-001) (53, 4, 5.00000000000000000000e-001) (53, 4, 5.00000000000000000000e-001) (53, 4, 5.00000000000000000000e-001) (53, 4, 5.00000000000000000000e-001) (53, 4, 5.00000000000000000000e-001) (53, 4, 5.00000000000000000000e-001) (53, 4, 5.00000000000000000000e-001) (53, 4, 5.00000000000000000000e-001) (53, 4, 5.00000000000000000000e-001) (53, 4, 5.00000000000000000000e-001) (53, 4, 5.00000000000000000000e-001) (53, 4, 5.00000000000000000000e-001) (53, 4, 5.00000000000000000000e-001) (53, 4, 5.00000000000000000000e-001) (53, 4, 5.00000000000000000000e-001) (53, 4, 5.00000000000000000000e-001) (53, 4, 5.00000000000000000000e-001) (53, 4, 5.00000000000000000000e-001) (53, 4, 5.00000000000000000000e-001) (53, 4, 5.00000000000000000000e-001) (53, 4, 5.00000000000000000000e-001) (53, 4, 5.00000000000000000000e-001) (53, 4, 5.00000000000000000000e-001) (53, 4, 5.00000000000000000000e-001) (53, 4, 5.00000000000000000000e-001) (53, 4, 5.00000000000000000000e-001) (53, 4, 5.00000000000000000000e-001) (53, 4, 5.00000000000000000000e-001) (53, 4, 5.00000000000000000000e-001) (53, 4, 5.00000000000000000000e-001) (53, 4, 5.00000000000000000000e-001) (53, 4, 5.00000000000000000000e-001) (53, 4, 5.00000000000000000000e-001) (53, 4, 5.00000000000000000000e-001) (53, 4, 5.00000000000000000000e-001) (53, 4, 5.00000000000000000000e-001) (53, 4, 5.00000000000000000000e-001) (53, 4, 5.00000000000000000000e-001) (53, 4, 5.00000000000000000000e-001) (53, 4, 5.00000000000000000000e-001) (0, 0, 0.00000000000000000000e+000) (97, 4, 5.00000000000000000000e-001) (97, 4, 5.00000000000000000000e-001) (97, 4, 5.00000000000000000000e-001) (97, 4, 5.00000000000000000000e-001) (97, 4, 5.00000000000000000000e-001) (97, 4, 5.00000000000000000000e-001) (0, 0, 0.00000000000000000000e+000) 
connections (connected_to_neuron, weight)=(0, -1.44388005137443540000e-001) (1, -6.34766578674316410000e-001) (2, -8.79766285419464110000e-001) (3, -3.41201931238174440000e-001) (4, -1.77040025591850280000e-001) (5, -5.52589178085327150000e-001) (6, 3.91099154949188230000e-001) (7, 3.80454659461975100000e-001) (8, -5.19949495792388920000e-001) (9, 6.86370134353637700000e-001) (10, 5.22537589073181150000e-001) (11, 4.60977554321289060000e-002) (12, 1.75174057483673100000e-001) (13, 8.45878273248672490000e-002) (14, 3.80062937736511230000e-001) (15, 1.14943854510784150000e-001) (16, -4.27045613527297970000e-001) (17, -3.89549553394317630000e-001) (18, -3.08299332857131960000e-001) (19, 3.35065014660358430000e-002) (20, 2.85746995359659190000e-002) (21, 4.39083904027938840000e-001) (22, -8.19104984402656560000e-002) (23, 3.60553152859210970000e-003) (24, 1.99161171913146970000e-002) (25, 4.25679385662078860000e-002) (26, 1.83291211724281310000e-002) (27, 8.10690894722938540000e-002) (28, -4.55858439207077030000e-001) (29, -5.08683919906616210000e-001) (30, -3.30795496702194210000e-001) (31, 4.00225892663002010000e-002) (32, 5.74664622545242310000e-002) (33, 2.67654925584793090000e-001) (34, -1.71298682689666750000e-001) (35, -1.36326670646667480000e-001) (36, -2.18376904726028440000e-001) (37, -2.09801465272903440000e-001) (38, -2.38072931766510010000e-001) (39, -4.96451586484909060000e-001) (40, 9.96979996562004090000e-002) (41, 1.41565144062042240000e-001) (42, -1.41761824488639830000e-001) (43, -3.64644795656204220000e-001) (44, -4.33102399110794070000e-001) (45, -1.04529276490211490000e-001) (46, 3.37641946971416470000e-002) (47, 6.78136665374040600000e-003) (48, 7.06857293844223020000e-002) (49, -3.97329665720462800000e-002) (50, 7.67301162704825400000e-003) (51, -9.24673527479171750000e-002) (52, -9.53688144683837890000e-001) (0, -2.37928271293640140000e-001) (1, -9.77457910776138310000e-002) (2, -7.02378869056701660000e-001) (3, -6.53616860508918760000e-002) (4, -2.60344833135604860000e-001) (5, -9.66280162334442140000e-001) (6, 5.59950880706310270000e-002) (7, 1.62940725684165950000e-001) (8, -2.60273754596710210000e-001) (9, 1.09443627297878270000e-002) (10, 5.71325361728668210000e-001) (11, -2.23315775394439700000e-001) (12, -4.44370657205581670000e-002) (13, -2.23497990518808360000e-002) (14, -2.05164372920989990000e-001) (15, 7.58288651704788210000e-002) (16, -2.24268049001693730000e-001) (17, -2.05507203936576840000e-001) (18, -4.03148472309112550000e-001) (19, -4.63238060474395750000e-002) (20, -1.51955977082252500000e-001) (21, 5.71506440639495850000e-001) (22, -2.65419960021972660000e-001) (23, -1.15692712366580960000e-001) (24, 5.43345630168914790000e-001) (25, 6.39481842517852780000e-001) (26, 2.89718210697174070000e-001) (27, -1.26717701554298400000e-001) (28, -4.57662731409072880000e-001) (29, -2.59426474571228030000e-001) (30, -4.27847087383270260000e-001) (31, -1.76715925335884090000e-002) (32, -1.80269077420234680000e-001) (33, -5.69893792271614070000e-002) (34, 1.07587426900863650000e-001) (35, 1.09383650124073030000e-001) (36, -1.68109387159347530000e-001) (37, -1.70495867729187010000e-001) (38, -3.34050394594669340000e-002) (39, -6.89464032649993900000e-001) (40, 6.02498531341552730000e-001) (41, 3.30761313438415530000e-001) (42, 1.67290553450584410000e-001) (43, -3.32928776741027830000e-001) (44, -4.58427488803863530000e-001) (45, -4.95714843273162840000e-002) (46, 2.26697176694870000000e-002) (47, -5.02841435372829440000e-002) (48, -8.55331271886825560000e-002) (49, -8.95553454756736760000e-002) (50, -4.59335669875144960000e-002) (51, 6.16164989769458770000e-002) (52, -6.23516440391540530000e-001) (0, 1.78162455558776860000e-001) (1, -1.75921213626861570000e+000) (2, -6.00434005260467530000e-001) (3, -7.45439410209655760000e-001) (4, -7.44238138198852540000e-001) (5, 4.63689118623733520000e-001) (6, 4.50086802244186400000e-001) (7, 4.63526725769042970000e-001) (8, 8.90587151050567630000e-001) (9, -3.12572747468948360000e-001) (10, 4.68591392040252690000e-001) (11, -1.28819242119789120000e-001) (12, -1.56675390899181370000e-002) (13, -1.98426127433776860000e-001) (14, -7.69847393035888670000e-001) (15, 1.74507517367601390000e-002) (16, 3.97287458181381230000e-001) (17, 2.94437587261199950000e-001) (18, -2.96525925397872920000e-001) (19, -1.13829183578491210000e+000) (20, 1.33876726031303410000e-001) (21, 1.51466822624206540000e+000) (22, -3.69654715061187740000e-001) (23, 3.59513998031616210000e-001) (24, 8.27033817768096920000e-001) (25, 5.29104351997375490000e-001) (26, 1.12021155655384060000e-002) (27, -3.21998238563537600000e-001) (28, 5.78987836837768550000e-001) (29, 1.10867929458618160000e+000) (30, -1.27502357959747310000e+000) (31, 5.90021014213562010000e-001) (32, 5.53857624530792240000e-001) (33, 4.50598567724227910000e-001) (34, -1.02962946891784670000e+000) (35, -3.27841401100158690000e-001) (36, -2.27480143308639530000e-001) (37, -2.87740170955657960000e-001) (38, -1.41133710741996770000e-001) (39, -7.70703256130218510000e-001) (40, -6.03598594665527340000e-001) (41, -1.05137228965759280000e+000) (42, -9.12121593952178960000e-001) (43, 1.59196317195892330000e-001) (44, -1.47473767399787900000e-001) (45, -2.04087927937507630000e-001) (46, -1.53593629598617550000e-001) (47, 8.10326784849166870000e-002) (48, 1.93897873163223270000e-001) (49, 2.02400088310241700000e-001) (50, 2.30616599321365360000e-001) (51, 2.46412515640258790000e-001) (52, -7.84749805927276610000e-001) (0, 8.69858324527740480000e-001) (1, 7.57444053888320920000e-002) (2, 1.90921053290367130000e-001) (3, 4.08308058977127080000e-001) (4, 4.58347678184509280000e-001) (5, -5.78877985477447510000e-001) (6, -1.57910399138927460000e-002) (7, -1.19709379971027370000e-001) (8, -5.60737013816833500000e-001) (9, -5.68018674850463870000e-001) (10, 1.69701054692268370000e-001) (11, 3.86559486389160160000e-001) (12, 1.95533305406570430000e-001) (13, -7.48235955834388730000e-002) (14, -5.22319257259368900000e-001) (15, -2.78369169682264330000e-002) (16, 6.25947415828704830000e-001) (17, 8.88175517320632930000e-002) (18, -2.39722654223442080000e-001) (19, -1.03718459606170650000e+000) (20, 9.97418910264968870000e-002) (21, 4.10080075263977050000e-001) (22, -1.21835134923458100000e-001) (23, 1.47070929408073430000e-001) (24, 8.71188342571258540000e-002) (25, -1.36624589562416080000e-001) (26, -2.79329985380172730000e-001) (27, -5.72644829750061040000e-001) (28, 2.21828341484069820000e-001) (29, 7.33572423458099370000e-001) (30, -8.32578718662261960000e-001) (31, -1.66314214468002320000e-001) (32, -2.09972649812698360000e-001) (33, -7.75631606578826900000e-001) (34, -3.30223798751831050000e-001) (35, 3.12732934951782230000e-001) (36, 2.12835567072033880000e-003) (37, -9.46368575096130370000e-002) (38, -4.59520204458385710000e-004) (39, -3.56426894664764400000e-001) (40, -3.27452838420867920000e-001) (41, -5.70179164409637450000e-001) (42, -1.31994172930717470000e-001) (43, -7.25504979491233830000e-002) (44, -1.21431499719619750000e-001) (45, -1.49467363953590390000e-001) (46, -2.42473613470792770000e-002) (47, -4.70744632184505460000e-002) (48, 2.41577997803688050000e-002) (49, -5.67016229033470150000e-002) (50, 8.08532461524009700000e-002) (51, 9.05639454722404480000e-002) (52, -7.65639305114746090000e-001) (0, 1.34030893445014950000e-001) (1, -1.59710660576820370000e-001) (2, -6.82658135890960690000e-001) (3, -2.08695068955421450000e-001) (4, 1.46809637546539310000e-001) (5, -3.44548046588897710000e-001) (6, 1.38750180602073670000e-001) (7, 9.10330042243003850000e-002) (8, -7.66705989837646480000e-001) (9, -1.66115567088127140000e-001) (10, 8.65388065576553340000e-002) (11, -8.81433561444282530000e-002) (12, 7.17608407139778140000e-002) (13, -1.22880071401596070000e-001) (14, 7.21082389354705810000e-002) (15, -8.29905420541763310000e-002) (16, -1.25403285026550290000e-001) (17, -1.27917513251304630000e-001) (18, -2.93740332126617430000e-001) (19, -9.39100161194801330000e-002) (20, -5.36892451345920560000e-002) (21, 1.67118430137634280000e-001) (22, 1.08829744160175320000e-001) (23, 1.43749862909317020000e-001) (24, 7.51631259918212890000e-002) (25, -6.42863754183053970000e-003) (26, 7.37282484769821170000e-002) (27, 8.43512546271085740000e-003) (28, -2.90992259979248050000e-001) (29, -1.37697190046310420000e-001) (30, -2.95520067214965820000e-001) (31, -1.12400732934474950000e-001) (32, -1.97190456092357640000e-002) (33, -1.01690813899040220000e-001) (34, -3.17113637924194340000e-001) (35, -2.11686030030250550000e-001) (36, -8.35548490285873410000e-002) (37, -7.71248387172818180000e-003) (38, -1.68564707040786740000e-001) (39, -1.50334492325782780000e-001) (40, -4.89953346550464630000e-002) (41, -7.11818560957908630000e-002) (42, -1.72187522053718570000e-001) (43, -1.69731229543685910000e-001) (44, -4.20919120311737060000e-001) (45, -1.25882953405380250000e-001) (46, -1.18296235799789430000e-001) (47, -1.07013352215290070000e-001) (48, -6.17320183664560320000e-003) (49, 2.34730495139956470000e-003) (50, -8.76183882355690000000e-002) (51, -4.80371527373790740000e-002) (52, -1.32146394252777100000e+000) (0, 2.47422426939010620000e-001) (1, -1.74872070550918580000e-001) (2, -5.81591546535491940000e-001) (3, -7.88100063800811770000e-002) (4, 2.20257773995399480000e-001) (5, 1.58905629068613050000e-002) (6, 1.55058205127716060000e-001) (7, 1.84641912579536440000e-001) (8, -4.63406592607498170000e-001) (9, -4.07549947500228880000e-001) (10, 1.86641030013561250000e-002) (11, -2.22196523100137710000e-002) (12, 8.31987038254737850000e-002) (13, 3.92790213227272030000e-002) (14, -1.52108622714877130000e-002) (15, -3.13678532838821410000e-002) (16, -2.73076415061950680000e-001) (17, -3.10765728354454040000e-002) (18, -2.89594352245330810000e-001) (19, -3.26023608446121220000e-001) (20, 6.05637654662132260000e-002) (21, -4.02920395135879520000e-002) (22, 8.02282169461250310000e-002) (23, 1.36781066656112670000e-001) (24, 2.64253318309783940000e-001) (25, 3.35025005042552950000e-002) (26, 2.47839152812957760000e-001) (27, 1.10490664839744570000e-001) (28, -8.64752456545829770000e-002) (29, -2.55972743034362790000e-001) (30, -1.80821478366851810000e-001) (31, -2.01922245323657990000e-002) (32, -1.23341612517833710000e-001) (33, -5.89611306786537170000e-002) (34, -3.22899788618087770000e-001) (35, -2.93017596006393430000e-001) (36, -2.99355387687683110000e-002) (37, -2.05558344721794130000e-001) (38, -1.03415772318840030000e-001) (39, -1.84282168745994570000e-001) (40, -2.39123463630676270000e-001) (41, -1.18725471198558810000e-001) (42, -2.32632711529731750000e-001) (43, -2.71391928195953370000e-001) (44, -3.77744585275650020000e-001) (45, -2.25819200277328490000e-002) (46, -6.74670487642288210000e-002) (47, -1.63399502635002140000e-001) (48, -1.39135066419839860000e-002) (49, -1.05496630072593690000e-001) (50, -2.75670699775218960000e-002) (51, -2.06212680786848070000e-002) (52, -1.16708993911743160000e+000) (0, -8.64721685647964480000e-002) (1, -4.71800178289413450000e-001) (2, -1.19317233562469480000e+000) (3, -3.27081441879272460000e-001) (4, -1.97364911437034610000e-001) (5, -7.23734259605407710000e-001) (6, -6.87452703714370730000e-002) (7, -1.36120608076453210000e-002) (8, -7.47256278991699220000e-001) (9, 6.53667449951171880000e-002) (10, 3.61821763217449190000e-002) (11, -2.13795036077499390000e-001) (12, 8.63480791449546810000e-002) (13, -4.12873506546020510000e-001) (14, -8.22271704673767090000e-002) (15, -1.01957142353057860000e-001) (16, -3.04248370230197910000e-002) (17, -4.32057797908782960000e-001) (18, -8.22842344641685490000e-002) (19, -1.22555546462535860000e-001) (20, 7.11586996912956240000e-002) (21, 2.28643164038658140000e-001) (22, -2.05056458711624150000e-001) (23, 8.87452885508537290000e-002) (24, -1.02218762040138240000e-002) (25, 6.22144490480422970000e-002) (26, -8.98109748959541320000e-003) (27, -8.65662097930908200000e-002) (28, -4.45309191942214970000e-001) (29, -2.49867245554924010000e-001) (30, -1.60577312111854550000e-001) (31, -3.15426662564277650000e-002) (32, 4.92312908172607420000e-002) (33, -1.48279264569282530000e-001) (34, -5.35208918154239650000e-002) (35, -6.14078678190708160000e-002) (36, -6.76592588424682620000e-002) (37, -1.27216735854744910000e-002) (38, 1.11655965447425840000e-001) (39, -2.27096900343894960000e-001) (40, 8.63221585750579830000e-002) (41, 6.07119500637054440000e-002) (42, -4.66003268957138060000e-002) (43, -1.69419527053833010000e-001) (44, -2.05294668674468990000e-001) (45, -8.41782093048095700000e-002) (46, -1.65977582335472110000e-001) (47, -3.34994904696941380000e-002) (48, 9.35802422463893890000e-003) (49, 5.43286167085170750000e-002) (50, 9.30187255144119260000e-002) (51, 1.41200020909309390000e-001) (52, -8.83629739284515380000e-001) (0, -3.00828795880079270000e-002) (1, -4.85350281000137330000e-001) (2, -7.71489739418029790000e-001) (3, -7.13950991630554200000e-002) (4, -1.49020135402679440000e-001) (5, -8.39566767215728760000e-001) (6, -1.05374939739704130000e-001) (7, -1.20291963219642640000e-001) (8, -9.62387561798095700000e-001) (9, 4.32685673236846920000e-001) (10, 1.55942395329475400000e-001) (11, -1.43065884709358220000e-001) (12, -7.69046768546104430000e-002) (13, -1.05159161612391470000e-002) (14, -3.61277014017105100000e-001) (15, 5.84826990962028500000e-002) (16, 4.19553667306900020000e-001) (17, -1.68899044394493100000e-001) (18, 1.11833594739437100000e-001) (19, -1.57610937952995300000e-001) (20, 1.83762591332197190000e-002) (21, 2.40780994296073910000e-001) (22, -2.92815208435058590000e-001) (23, 9.12092253565788270000e-003) (24, -1.34762659668922420000e-001) (25, -6.89322352409362790000e-002) (26, -2.51233249902725220000e-001) (27, -2.36602187156677250000e-001) (28, -3.57691675424575810000e-001) (29, -6.28471150994300840000e-002) (30, -3.11571419239044190000e-001) (31, -1.32994115352630620000e-001) (32, -7.48217031359672550000e-002) (33, -3.01987081766128540000e-001) (34, -1.02031700313091280000e-001) (35, 1.66142582893371580000e-001) (36, 2.26283259689807890000e-002) (37, -7.74937570095062260000e-002) (38, -5.77244609594345090000e-002) (39, -2.73280769586563110000e-001) (40, -9.67028066515922550000e-002) (41, -1.58961892127990720000e-001) (42, -1.83879166841506960000e-001) (43, 3.14099825918674470000e-002) (44, -1.03411376476287840000e-001) (45, -4.69369925558567050000e-002) (46, 8.51963832974433900000e-003) (47, 6.74460530281066890000e-002) (48, 4.54559065401554110000e-002) (49, 6.41326233744621280000e-002) (50, 8.41581523418426510000e-002) (51, 1.07888638973236080000e-001) (52, -7.72895276546478270000e-001) (0, 3.70730996131896970000e-001) (1, -4.79965917766094210000e-002) (2, -6.54699623584747310000e-001) (3, -3.05198013782501220000e-001) (4, 8.79553779959678650000e-002) (5, -6.78043067455291750000e-001) (6, -1.03798760101199150000e-002) (7, -8.92113428562879560000e-003) (8, -8.65067362785339360000e-001) (9, -2.38375559449195860000e-001) (10, 6.59568309783935550000e-002) (11, -1.68708804994821550000e-002) (12, 5.70679493248462680000e-002) (13, -3.16928178071975710000e-001) (14, -1.13557621836662290000e-001) (15, -1.37863665819168090000e-001) (16, 4.99370768666267400000e-002) (17, -2.92188972234725950000e-001) (18, -1.21280536055564880000e-001) (19, -2.83554226160049440000e-001) (20, 2.00896352529525760000e-001) (21, 1.13618247210979460000e-001) (22, -2.46658939868211750000e-002) (23, 6.83194398880004880000e-002) (24, -3.35986576974391940000e-002) (25, -3.88872139155864720000e-002) (26, -1.05108089745044710000e-001) (27, -7.95688033103942870000e-002) (28, -2.47267931699752810000e-001) (29, 1.59248914569616320000e-002) (30, -1.37753412127494810000e-001) (31, -1.25862956047058110000e-001) (32, -1.00240789353847500000e-001) (33, -3.90459388494491580000e-001) (34, -3.13013568520545960000e-002) (35, 3.71270552277565000000e-002) (36, 1.34894445538520810000e-001) (37, 9.73150655627250670000e-002) (38, 2.60078944265842440000e-002) (39, -1.00762806832790370000e-001) (40, -5.01836650073528290000e-004) (41, -2.57489770650863650000e-001) (42, -1.05295717716217040000e-001) (43, -1.25033587217330930000e-001) (44, -2.63673275709152220000e-001) (45, -1.12431555986404420000e-001) (46, -1.07164233922958370000e-001) (47, -1.18634998798370360000e-001) (48, -5.27061745524406430000e-002) (49, 3.42567712068557740000e-002) (50, 5.25978244841098790000e-002) (51, 9.72937270998954770000e-002) (52, -1.14177227020263670000e+000) (0, 4.13673639297485350000e-001) (1, -6.10325764864683150000e-003) (2, -7.47875690460205080000e-001) (3, -2.78724431991577150000e-001) (4, 1.51965975761413570000e-001) (5, -5.57883739471435550000e-001) (6, 6.62842169404029850000e-002) (7, -3.95750738680362700000e-002) (8, -9.91684377193450930000e-001) (9, 5.44159449636936190000e-002) (10, 1.72639340162277220000e-002) (11, -4.29133065044879910000e-002) (12, 8.80902484059333800000e-002) (13, -3.60426783561706540000e-001) (14, -3.11119966208934780000e-002) (15, -5.94932362437248230000e-002) (16, -4.97519709169864650000e-002) (17, -3.96849304437637330000e-001) (18, -9.63437259197235110000e-002) (19, -1.54792025685310360000e-001) (20, 1.25167638063430790000e-001) (21, -9.87789779901504520000e-002) (22, -1.39585971832275390000e-001) (23, 1.07826955616474150000e-001) (24, -7.87185430526733400000e-002) (25, -1.77530556917190550000e-001) (26, -1.01935341954231260000e-001) (27, -7.46009200811386110000e-002) (28, -4.03315305709838870000e-001) (29, -1.03467755019664760000e-001) (30, -1.21691815555095670000e-001) (31, -1.83002874255180360000e-001) (32, -1.12281501293182370000e-001) (33, -3.62848937511444090000e-001) (34, -2.16253865510225300000e-002) (35, 4.47168201208114620000e-002) (36, 1.87527667731046680000e-002) (37, 1.52999445796012880000e-001) (38, 6.19270314928144220000e-004) (39, -4.47199940681457520000e-002) (40, 8.45069363713264470000e-002) (41, -2.51788496971130370000e-001) (42, -3.84315960109233860000e-002) (43, -8.21961611509323120000e-002) (44, -1.54655903577804570000e-001) (45, -9.37243849039077760000e-002) (46, -1.37688204646110530000e-001) (47, -3.64643940702080730000e-003) (48, -3.79614941775798800000e-002) (49, -3.27246934175491330000e-002) (50, 1.04970663785934450000e-001) (51, 7.41662085056304930000e-002) (52, -1.11248970031738280000e+000) (0, -3.27331632375717160000e-001) (1, -5.57025671005249020000e-001) (2, -1.34239411354064940000e+000) (3, -4.85971212387084960000e-001) (4, -5.27959465980529790000e-001) (5, -5.39419174194335940000e-001) (6, -1.62050724029541020000e-001) (7, -2.31966555118560790000e-001) (8, -7.60159790515899660000e-001) (9, 2.56885498762130740000e-001) (10, -4.51662242412567140000e-002) (11, -3.90577703714370730000e-001) (12, -2.03381627798080440000e-001) (13, -3.70790839195251460000e-001) (14, -1.66052788496017460000e-001) (15, 1.05441756546497340000e-001) (16, 2.13981449604034420000e-001) (17, -3.95695626735687260000e-001) (18, 2.09035545587539670000e-001) (19, 1.75220668315887450000e-001) (20, 1.38608161360025410000e-002) (21, 9.78507101535797120000e-003) (22, -2.04525679349899290000e-001) (23, -8.14551338553428650000e-002) (24, -2.37919718027114870000e-001) (25, -2.39390376955270770000e-002) (26, -1.07064977288246150000e-001) (27, -2.18319505453109740000e-001) (28, -1.01452358067035680000e-001) (29, 3.63403335213661190000e-002) (30, -3.06148920208215710000e-002) (31, 6.67963549494743350000e-002) (32, -2.98406835645437240000e-002) (33, 6.83877989649772640000e-002) (34, -5.31646125018596650000e-002) (35, -8.80629271268844600000e-002) (36, -1.11998423933982850000e-001) (37, -1.48955121636390690000e-001) (38, -8.08277651667594910000e-002) (39, -2.57495373487472530000e-001) (40, 4.95672263205051420000e-002) (41, -7.88801163434982300000e-003) (42, -2.89585115388035770000e-003) (43, 6.48770108819007870000e-002) (44, 2.13138446211814880000e-001) (45, 5.39928749203681950000e-002) (46, -1.33541016839444640000e-003) (47, 1.30990324541926380000e-002) (48, 5.55170625448226930000e-002) (49, 4.57575507462024690000e-002) (50, 1.22973017394542690000e-001) (51, 3.10054644942283630000e-002) (52, -5.11451303958892820000e-001) (0, 2.12774515151977540000e-001) (1, -9.42500904202461240000e-002) (2, -1.01050269603729250000e+000) (3, -5.62709748744964600000e-001) (4, -1.03358723223209380000e-001) (5, -7.60858297348022460000e-001) (6, -3.85109633207321170000e-002) (7, 7.43857473134994510000e-002) (8, -6.98189139366149900000e-001) (9, 2.29693911969661710000e-002) (10, -8.33537280559539790000e-002) (11, -1.56895875930786130000e-001) (12, -7.10962563753128050000e-002) (13, -5.61988770961761470000e-001) (14, -2.15578794479370120000e-001) (15, -8.84574949741363530000e-002) (16, 3.03001031279563900000e-002) (17, -4.97005909681320190000e-001) (18, -2.48208530247211460000e-002) (19, -1.22940786182880400000e-001) (20, 1.09393633902072910000e-001) (21, -7.88022056221961980000e-002) (22, -1.61127820611000060000e-001) (23, 1.59451454877853390000e-001) (24, -4.81580570340156560000e-002) (25, -2.00352415442466740000e-001) (26, -2.19125688076019290000e-001) (27, -2.06953600049018860000e-001) (28, -3.77108752727508540000e-001) (29, -4.90776933729648590000e-002) (30, -2.07584217190742490000e-001) (31, -7.85600990056991580000e-002) (32, -6.04388751089572910000e-002) (33, -4.34169054031372070000e-001) (34, 6.84814751148223880000e-002) (35, 4.37283143401145940000e-002) (36, 1.87352672219276430000e-001) (37, 2.47405141592025760000e-001) (38, 1.34886816143989560000e-001) (39, 1.29231497645378110000e-001) (40, 4.47246074676513670000e-001) (41, -1.82597190141677860000e-001) (42, -1.71692490577697750000e-001) (43, -1.71202067285776140000e-002) (44, -1.57930716872215270000e-001) (45, -1.71639367938041690000e-001) (46, -5.42322136461734770000e-002) (47, 1.59719865769147870000e-002) (48, 6.59989640116691590000e-002) (49, 2.43043467402458190000e-001) (50, 1.03688076138496400000e-001) (51, 1.38093367218971250000e-001) (52, -7.56938040256500240000e-001) (0, -1.56732559204101560000e-001) (1, -3.61063569784164430000e-001) (2, -1.28930878639221190000e+000) (3, -4.03252810239791870000e-001) (4, -2.18209907412528990000e-001) (5, -4.29969519376754760000e-001) (6, 6.98421820998191830000e-002) (7, 5.61153851449489590000e-002) (8, -6.98883354663848880000e-001) (9, -4.88124117255210880000e-002) (10, -5.12149594724178310000e-002) (11, -2.16914594173431400000e-001) (12, -6.09095096588134770000e-002) (13, -3.29333782196044920000e-001) (14, 1.89057074021548030000e-003) (15, -1.13819781690835950000e-002) (16, -1.80933833122253420000e-001) (17, -2.92355775833129880000e-001) (18, -1.02381475269794460000e-001) (19, 2.18940507620573040000e-002) (20, -7.34417513012886050000e-002) (21, -1.06784597039222720000e-001) (22, -8.91043841838836670000e-002) (23, 5.43029978871345520000e-002) (24, 7.97307714819908140000e-002) (25, -1.82428490370512010000e-002) (26, 8.10227766633033750000e-002) (27, 1.13831944763660430000e-001) (28, -1.78231984376907350000e-001) (29, -2.52264589071273800000e-001) (30, -7.24404528737068180000e-002) (31, -5.97553513944149020000e-003) (32, 3.33006605505943300000e-002) (33, 2.23161444067955020000e-001) (34, -3.22865307331085210000e-001) (35, -2.89019614458084110000e-001) (36, -5.55248036980628970000e-002) (37, -2.02894076704978940000e-001) (38, -1.00263513624668120000e-001) (39, -2.03548789024353030000e-001) (40, -4.05094921588897710000e-002) (41, -2.64131110161542890000e-002) (42, -6.13907054066658020000e-002) (43, -2.76533335447311400000e-001) (44, -1.47509261965751650000e-001) (45, -1.21677041053771970000e-001) (46, -4.02074269950389860000e-002) (47, 7.93665498495101930000e-002) (48, 1.06414742767810820000e-001) (49, 5.94488438218832020000e-003) (50, 2.59033478796482090000e-002) (51, 8.37218910455703740000e-002) (52, -1.11384713649749760000e+000) (0, 1.41856622695922850000e+000) (1, 7.07790553569793700000e-001) (2, 3.24445486068725590000e-001) (3, -2.14085531234741210000e+000) (4, 1.68295347690582280000e+000) (5, -8.39891508221626280000e-002) (6, 4.46789413690567020000e-001) (7, 5.36877393722534180000e-001) (8, -6.75169467926025390000e-001) (9, -1.54667004942893980000e-001) (10, -7.41957724094390870000e-001) (11, 6.82464897632598880000e-001) (12, 7.05182492733001710000e-001) (13, -5.21031260490417480000e-001) (14, 2.02056616544723510000e-001) (15, -1.24849963188171390000e+000) (16, 2.00295880436897280000e-001) (17, -5.87597846984863280000e-001) (18, -4.87496554851531980000e-001) (19, -1.87849271297454830000e+000) (20, 1.75440406799316410000e+000) (21, -5.40036857128143310000e-001) (22, 9.73348021507263180000e-001) (23, 5.90880632400512700000e-001) (24, -1.63122534751892090000e-001) (25, -7.14067101478576660000e-001) (26, -4.55523431301116940000e-001) (27, -5.92718243598937990000e-001) (28, -1.09858226776123050000e+000) (29, -2.52644240856170650000e-001) (30, -3.62121373414993290000e-001) (31, -2.49391928315162660000e-001) (32, -3.68886113166809080000e-001) (33, -1.42656850814819340000e+000) (34, 1.93080216646194460000e-001) (35, -2.70504981279373170000e-001) (36, 3.86622756719589230000e-001) (37, 4.94831949472427370000e-001) (38, 3.48445266485214230000e-001) (39, 1.08454775810241700000e+000) (40, 8.08435261249542240000e-001) (41, -1.23044586181640630000e+000) (42, -8.12736272811889650000e-001) (43, -4.04785156250000000000e-001) (44, -7.56946265697479250000e-001) (45, -3.01843434572219850000e-001) (46, -4.72302466630935670000e-001) (47, -2.75699496269226070000e-001) (48, 3.92977297306060790000e-002) (49, 9.88314449787139890000e-002) (50, 5.67355416715145110000e-002) (51, 8.32003504037857060000e-002) (52, -7.42414176464080810000e-001) (0, 2.50745881348848340000e-002) (1, -6.48777112364768980000e-002) (2, -4.19888347387313840000e-001) (3, 1.69004276394844060000e-001) (4, -3.95322181284427640000e-002) (5, -1.02362699806690220000e-001) (6, 1.18157245218753810000e-001) (7, 8.52471664547920230000e-002) (8, 1.06276758015155790000e-002) (9, -3.56395781040191650000e-001) (10, -7.85402208566665650000e-002) (11, -1.21485486626625060000e-001) (12, 4.23441268503665920000e-002) (13, -4.42092381417751310000e-002) (14, 2.08092838525772090000e-001) (15, -6.23705275356769560000e-002) (16, -3.20306301116943360000e-001) (17, -8.12279731035232540000e-002) (18, -1.72482758760452270000e-001) (19, 1.23861327767372130000e-001) (20, -2.03031346201896670000e-001) (21, -2.22455844283103940000e-001) (22, -3.37423384189605710000e-002) (23, 1.55978664755821230000e-001) (24, 2.14519247412681580000e-001) (25, 3.35282795131206510000e-002) (26, 2.93873250484466550000e-001) (27, 5.00374853610992430000e-001) (28, 4.45109367370605470000e-001) (29, -1.74105197191238400000e-001) (30, 1.47047892212867740000e-001) (31, 2.37136259675025940000e-001) (32, 3.43410789966583250000e-001) (33, 9.00975644588470460000e-001) (34, -2.98528105020523070000e-001) (35, -2.61035174131393430000e-001) (36, -1.23994998633861540000e-001) (37, -2.43910819292068480000e-001) (38, -2.89522558450698850000e-001) (39, -4.21005725860595700000e-001) (40, -4.92339700460433960000e-001) (41, -1.90398320555686950000e-001) (42, -3.79389524459838870000e-001) (43, -3.97586643695831300000e-001) (44, -4.92680519819259640000e-001) (45, -4.56800386309623720000e-002) (46, -1.04957312345504760000e-001) (47, -1.76854819059371950000e-001) (48, 3.37603017687797550000e-002) (49, -4.46637943387031560000e-002) (50, -1.01792700588703160000e-001) (51, 3.71261476539075370000e-003) (52, -8.65454137325286870000e-001) (0, 2.67091453075408940000e-001) (1, 8.03218185901641850000e-001) (2, -4.79520261287689210000e-002) (3, 1.74587875604629520000e-001) (4, 2.65291541814804080000e-001) (5, -1.43537366390228270000e+000) (6, -7.63159096240997310000e-002) (7, -3.78392860293388370000e-002) (8, -1.13246083259582520000e+000) (9, 5.99976815283298490000e-002) (10, 5.52013456821441650000e-001) (11, -1.07879750430583950000e-001) (12, -7.20311328768730160000e-002) (13, -1.33785698562860490000e-002) (14, -5.95137357711791990000e-001) (15, 2.29655932635068890000e-002) (16, 7.05528259277343750000e-001) (17, 2.14153546839952470000e-002) (18, 1.42265528440475460000e-001) (19, -5.16615331172943120000e-001) (20, -1.12080760300159450000e-001) (21, 8.47069978713989260000e-001) (22, -5.12576639652252200000e-001) (23, -3.35813015699386600000e-002) (24, -1.51809141039848330000e-001) (25, 6.99803465977311130000e-003) (26, -3.04273962974548340000e-001) (27, -3.82284909486770630000e-001) (28, -4.98760491609573360000e-001) (29, -1.56696811318397520000e-001) (30, -3.30643147230148320000e-001) (31, -2.85447865724563600000e-001) (32, -2.73240804672241210000e-001) (33, -1.30414843559265140000e+000) (34, 4.33600097894668580000e-001) (35, 1.39090299606323240000e+000) (36, 1.15845210850238800000e-001) (37, 2.21765682101249690000e-001) (38, 9.74736213684082030000e-002) (39, -3.70189726352691650000e-001) (40, 1.05300536379218100000e-002) (41, -2.54881829023361210000e-002) (42, 3.12285989522933960000e-001) (43, -2.54785776138305660000e-001) (44, -2.67229199409484860000e-001) (45, 5.63741065561771390000e-002) (46, 4.60408907383680340000e-003) (47, 4.50481846928596500000e-002) (48, -5.17067797482013700000e-002) (49, -8.64724293351173400000e-002) (50, 8.61471816897392270000e-002) (51, -9.03237536549568180000e-002) (52, -3.12421947717666630000e-001) (0, 1.31590381264686580000e-001) (1, 2.77880907058715820000e-001) (2, -5.69843113422393800000e-001) (3, 1.00414171814918520000e-001) (4, -5.32944977283477780000e-001) (5, -1.38789057731628420000e+000) (6, 4.98573452234268190000e-001) (7, 4.54713463783264160000e-001) (8, 9.31343376636505130000e-001) (9, -4.58327382802963260000e-001) (10, -3.09371173381805420000e-001) (11, -5.35565555095672610000e-001) (12, 6.62031114101409910000e-001) (13, -1.99089437723159790000e-001) (14, 1.10072278976440430000e+000) (15, -1.15063416957855220000e+000) (16, -8.39779198169708250000e-001) (17, 9.63322818279266360000e-002) (18, 4.42840039730072020000e-001) (19, 2.50849351286888120000e-002) (20, -3.02575975656509400000e-001) (21, -1.27274906635284420000e+000) (22, 4.86687630414962770000e-001) (23, 8.67852091789245610000e-001) (24, 5.73318779468536380000e-001) (25, -4.04221177101135250000e-001) (26, 1.15691387653350830000e+000) (27, 1.54886400699615480000e+000) (28, 2.83596277236938480000e-001) (29, -6.84619069099426270000e-001) (30, -1.63895145058631900000e-001) (31, 4.18726086616516110000e-001) (32, 3.02777528762817380000e-001) (33, 1.16015243530273440000e+000) (34, -1.61511927843093870000e-001) (35, -1.23489391803741460000e+000) (36, -1.27162739634513850000e-001) (37, -2.13466405868530270000e-001) (38, -1.45204722881317140000e-001) (39, -1.03189766407012940000e-001) (40, 9.80680137872695920000e-002) (41, -5.65802276134490970000e-001) (42, -9.47218477725982670000e-001) (43, -5.96516430377960210000e-001) (44, -8.74755263328552250000e-001) (45, -3.70567828416824340000e-001) (46, -3.40941429138183590000e-001) (47, -3.88615578413009640000e-001) (48, -7.45842307806015010000e-002) (49, 8.39362293481826780000e-002) (50, -7.28386119008064270000e-002) (51, 2.54157651215791700000e-002) (52, -1.16546010971069340000e+000) (0, 2.98555850982666020000e-001) (1, 2.12338224053382870000e-001) (2, -3.65372258238494400000e-003) (3, 4.95645761489868160000e-001) (4, 2.99803018569946290000e-001) (5, -1.17394518852233890000e+000) (6, -1.22686279937624930000e-002) (7, 4.55742813646793370000e-002) (8, -6.25480115413665770000e-001) (9, -3.38770657777786250000e-001) (10, 8.88477265834808350000e-001) (11, 2.48370677232742310000e-001) (12, 2.39824205636978150000e-001) (13, 2.88612037897109990000e-001) (14, -5.12333273887634280000e-001) (15, -2.37474683672189710000e-002) (16, 1.66792318224906920000e-001) (17, 2.46838286519050600000e-001) (18, -2.14212119579315190000e-001) (19, -8.22004556655883790000e-001) (20, -3.59807126224040990000e-002) (21, 1.15368533134460450000e+000) (22, -6.95010244846343990000e-001) (23, 1.76468312740325930000e-001) (24, 4.28820401430130000000e-001) (25, 3.07509571313858030000e-001) (26, -1.32317366078495980000e-002) (27, -3.15463781356811520000e-001) (28, -5.03833651542663570000e-001) (29, -1.04008754715323450000e-002) (30, -5.63921093940734860000e-001) (31, -1.85859829187393190000e-001) (32, -9.55521687865257260000e-002) (33, -5.45678973197937010000e-001) (34, -1.92915305495262150000e-001) (35, 4.08941768109798430000e-002) (36, -1.20193913578987120000e-001) (37, -9.29050669074058530000e-002) (38, -7.40085691213607790000e-002) (39, -6.23185157775878910000e-001) (40, 3.97543460130691530000e-002) (41, -5.74700087308883670000e-002) (42, -1.45155340433120730000e-001) (43, -3.33323001861572270000e-001) (44, -5.92834949493408200000e-001) (45, -1.67526289820671080000e-001) (46, -2.90251765400171280000e-002) (47, -1.48095160722732540000e-001) (48, -9.50604304671287540000e-003) (49, -9.11541841924190520000e-003) (50, 1.52376219630241390000e-002) (51, -8.25528353452682500000e-002) (52, -7.39855825901031490000e-001) (0, -7.83062875270843510000e-001) (1, 8.73012065887451170000e-001) (2, -1.13480186462402340000e+000) (3, -4.08791869878768920000e-001) (4, -5.31085073947906490000e-001) (5, -2.34723806381225590000e+000) (6, 4.00206632912158970000e-002) (7, 2.73864269256591800000e-002) (8, 1.58004518598318100000e-002) (9, 2.94561147689819340000e-001) (10, 1.33144998550415040000e+000) (11, -4.69727158546447750000e-001) (12, 1.47349908947944640000e-001) (13, -9.49626863002777100000e-002) (14, 1.14204362034797670000e-001) (15, 6.73081278800964360000e-001) (16, -8.87459933757781980000e-001) (17, -6.00207030773162840000e-001) (18, -4.68192726373672490000e-001) (19, 7.26952016353607180000e-001) (20, -2.93611139059066770000e-001) (21, 5.60086429119110110000e-001) (22, -7.73031592369079590000e-001) (23, -2.83700436353683470000e-001) (24, 2.51330941915512080000e-001) (25, 6.60469889640808110000e-001) (26, 3.88374738395214080000e-002) (27, 5.49382437020540240000e-003) (28, -8.80677282810211180000e-001) (29, -7.46402800083160400000e-001) (30, -5.68678200244903560000e-001) (31, -2.42997437715530400000e-001) (32, -2.26865798234939580000e-001) (33, 6.45384430885314940000e-001) (34, 4.64473754167556760000e-001) (35, 1.87893569469451900000e-001) (36, -1.00265085697174070000e-001) (37, -2.13503345847129820000e-001) (38, -1.04110300540924070000e-001) (39, -1.53856420516967770000e+000) (40, 1.71733796596527100000e+000) (41, 1.11148929595947270000e+000) (42, 7.10213422775268550000e-001) (43, -8.09812188148498540000e-001) (44, -8.99935364723205570000e-001) (45, -5.42696379125118260000e-002) (46, 4.04997356235980990000e-002) (47, 1.58439606428146360000e-001) (48, 2.50916868448257450000e-001) (49, 1.28041163086891170000e-001) (50, 1.23884759843349460000e-001) (51, 2.60090470314025880000e-001) (52, 1.30935341119766240000e-001) (0, 2.76596873998641970000e-001) (1, 1.80826976895332340000e-001) (2, -6.74672067165374760000e-001) (3, -7.19051659107208250000e-001) (4, -2.04448327422142030000e-001) (5, -1.01529204845428470000e+000) (6, -7.29609355330467220000e-002) (7, -8.53022038936614990000e-002) (8, -8.37662696838378910000e-001) (9, 9.72856730222702030000e-002) (10, 2.60557085275650020000e-002) (11, -1.88354983925819400000e-001) (12, -1.82467345148324970000e-002) (13, -4.54253017902374270000e-001) (14, -3.37052255868911740000e-001) (15, 1.07719212770462040000e-001) (16, 3.57794642448425290000e-001) (17, -5.25380373001098630000e-001) (18, 1.43776550889015200000e-001) (19, -2.95906603336334230000e-001) (20, 2.20548868179321290000e-001) (21, 1.22029945254325870000e-001) (22, -2.32872664928436280000e-001) (23, 1.04124188423156740000e-001) (24, -2.59530246257781980000e-001) (25, -1.55067518353462220000e-001) (26, -2.96255797147750850000e-001) (27, -4.29880797863006590000e-001) (28, -3.89225155115127560000e-001) (29, 4.04231855645775790000e-003) (30, -2.83707886934280400000e-001) (31, -1.17238543927669530000e-001) (32, -1.85738131403923030000e-001) (33, -1.00162088871002200000e+000) (34, 5.32555222511291500000e-001) (35, 9.84704673290252690000e-001) (36, 3.55734765529632570000e-001) (37, 3.69266271591186520000e-001) (38, 4.39261287450790410000e-001) (39, 9.74860321730375290000e-003) (40, 3.64694863557815550000e-001) (41, -5.28756976127624510000e-001) (42, -2.27889064699411390000e-002) (43, -2.74952985346317290000e-002) (44, -1.29929095506668090000e-001) (45, -2.02830493450164790000e-001) (46, -3.50693501532077790000e-002) (47, 2.05521248281002040000e-002) (48, 2.68175572156906130000e-001) (49, 3.20507049560546880000e-001) (50, 2.64122873544692990000e-001) (51, 3.07506531476974490000e-001) (52, -3.83475750684738160000e-001) (0, -1.61547198891639710000e-001) (1, -2.69197493791580200000e-001) (2, -8.40703725814819340000e-001) (3, -4.12437587976455690000e-001) (4, 2.13310107588768010000e-001) (5, 3.59531402587890630000e-001) (6, 1.88578441739082340000e-001) (7, 2.52146393060684200000e-001) (8, -8.22578489780426030000e-001) (9, 4.85831350088119510000e-002) (10, 9.49644073843955990000e-002) (11, -1.20141476392745970000e-001) (12, 2.10973873734474180000e-001) (13, -2.04501673579216000000e-001) (14, 3.07815998792648320000e-001) (15, -1.30162239074707030000e-001) (16, -3.10598433017730710000e-001) (17, -4.36081260442733760000e-001) (18, 4.73550818860530850000e-002) (19, 1.36526763439178470000e-001) (20, -1.14812165498733520000e-001) (21, -2.07786902785301210000e-001) (22, -7.52652660012245180000e-002) (23, -1.63144990801811220000e-002) (24, -1.66267365217208860000e-001) (25, -7.23104700446128850000e-002) (26, 1.45755454897880550000e-001) (27, 2.16011196374893190000e-001) (28, -4.39713984727859500000e-001) (29, -5.04840612411499020000e-001) (30, -9.36938449740409850000e-002) (31, -5.90792708098888400000e-002) (32, -6.47555440664291380000e-002) (33, 2.25367527455091480000e-002) (34, -1.65379941463470460000e-001) (35, -2.90728867053985600000e-001) (36, -1.46605834364891050000e-001) (37, -1.90795153379440310000e-001) (38, -9.30350050330162050000e-002) (39, -2.00558021664619450000e-001) (40, -3.09216305613517760000e-002) (41, 2.53815174102783200000e-001) (42, 1.81839913129806520000e-001) (43, -3.50905030965805050000e-001) (44, -3.49185943603515630000e-001) (45, 8.42686668038368230000e-002) (46, -6.25942796468734740000e-002) (47, -3.10694873332977290000e-002) (48, -1.42254292964935300000e-001) (49, -2.92173903435468670000e-002) (50, -2.94188093394041060000e-002) (51, 2.46766638010740280000e-002) (52, -1.06802105903625490000e+000) (0, -1.83898711204528810000e+000) (1, 2.26246881484985350000e+000) (2, -1.39089691638946530000e+000) (3, -1.89575016498565670000e+000) (4, -7.40702092647552490000e-001) (5, -7.93586492538452150000e-001) (6, -9.54487323760986330000e-001) (7, -1.07012963294982910000e+000) (8, 5.18914222717285160000e-001) (9, -2.81984776258468630000e-001) (10, 7.30737984180450440000e-001) (11, -1.48949956893920900000e+000) (12, 4.51823770999908450000e-001) (13, -4.31343734264373780000e-001) (14, 1.21872711181640620000e+000) (15, 1.05428481101989750000e+000) (16, -1.51741170883178710000e+000) (17, -1.28191769123077390000e+000) (18, 3.20265829563140870000e-001) (19, 2.54459428787231450000e+000) (20, -1.62451708316802980000e+000) (21, -1.38350057601928710000e+000) (22, -8.64163100719451900000e-001) (23, -2.79987394809722900000e-001) (24, -6.55766129493713380000e-001) (25, -3.93967300653457640000e-001) (26, -2.67506122589111330000e-001) (27, 3.67453515529632570000e-001) (28, -1.20382463932037350000e+000) (29, -1.44173729419708250000e+000) (30, -6.11963808536529540000e-001) (31, -2.50607311725616460000e-001) (32, -2.77377098798751830000e-001) (33, -1.14751315116882320000e+000) (34, 1.56180691719055180000e+000) (35, -4.72658090293407440000e-002) (36, 2.94991642236709590000e-001) (37, 3.54482591152191160000e-001) (38, 3.54403257369995120000e-001) (39, 1.22228729724884030000e+000) (40, 1.88623392581939700000e+000) (41, 1.58706438541412350000e+000) (42, 7.44125366210937500000e-001) (43, 5.71085035800933840000e-001) (44, 1.20614600181579590000e+000) (45, 7.00021862983703610000e-001) (46, 7.02512085437774660000e-001) (47, 7.42454290390014650000e-001) (48, 7.06850811839103700000e-002) (49, 7.83816352486610410000e-002) (50, 6.75844773650169370000e-002) (51, -6.78401067852973940000e-002) (52, 6.43292307853698730000e-001) (0, -1.44590169191360470000e-001) (1, -3.00548076629638670000e-001) (2, -6.40475571155548100000e-001) (3, -3.66086035966873170000e-001) (4, 1.98882654309272770000e-001) (5, 3.76030325889587400000e-001) (6, 1.87474608421325680000e-001) (7, 1.66051238775253300000e-001) (8, -6.11300647258758540000e-001) (9, 4.51985426479950550000e-004) (10, 1.82015717029571530000e-001) (11, -1.65624007582664490000e-001) (12, 1.01763777434825900000e-001) (13, -1.58886432647705080000e-001) (14, 3.01794707775115970000e-001) (15, -1.93530201911926270000e-001) (16, -3.85425716638565060000e-001) (17, -4.28225308656692500000e-001) (18, -1.68703779578208920000e-001) (19, -1.13250710070133210000e-001) (20, -9.47992131114006040000e-002) (21, -1.21592707931995390000e-001) (22, 9.77343767881393430000e-002) (23, 2.36729364842176440000e-002) (24, -1.11640475690364840000e-001) (25, -5.28489463031291960000e-002) (26, 1.52533501386642460000e-001) (27, 3.64129066467285160000e-001) (28, -4.59338307380676270000e-001) (29, -6.39389038085937500000e-001) (30, -3.73315930366516110000e-001) (31, -2.23214998841285710000e-001) (32, -1.43405422568321230000e-001) (33, -5.08810043334960940000e-001) (34, 5.27245737612247470000e-002) (35, -2.04582497477531430000e-001) (36, 1.95934828370809560000e-002) (37, 6.04870058596134190000e-002) (38, 3.23070958256721500000e-002) (39, 2.52724528312683110000e-001) (40, 3.33927214145660400000e-001) (41, 4.70691084861755370000e-001) (42, 2.05557629466056820000e-001) (43, -2.81524628400802610000e-001) (44, -4.13155972957611080000e-001) (45, -6.10879436135292050000e-002) (46, -3.58672393485903740000e-003) (47, -1.98930144309997560000e-001) (48, -9.45439338684082030000e-002) (49, -2.46831402182579040000e-002) (50, -9.15584433823823930000e-003) (51, -2.26497440598905090000e-003) (52, -9.05623793601989750000e-001) (0, -6.90092325210571290000e-001) (1, 6.09282493591308590000e-001) (2, -9.28214132785797120000e-001) (3, -5.11143982410430910000e-001) (4, -3.56736630201339720000e-001) (5, -1.18975830078125000000e+000) (6, 2.32058092951774600000e-001) (7, 1.55123502016067500000e-001) (8, -5.16208350658416750000e-001) (9, 5.61311960220336910000e-001) (10, 8.74320685863494870000e-001) (11, -3.53228837251663210000e-001) (12, 4.26394134759902950000e-001) (13, -4.55963015556335450000e-001) (14, 3.32946360111236570000e-001) (15, 3.01238864660263060000e-001) (16, -7.38109886646270750000e-001) (17, -8.42071115970611570000e-001) (18, -1.23538173735141750000e-001) (19, 5.00650703907012940000e-001) (20, -2.29096621274948120000e-001) (21, 1.94317735731601720000e-002) (22, -4.41657036542892460000e-001) (23, -1.45468652248382570000e-001) (24, -3.92603725194931030000e-001) (25, -1.84177279472351070000e-001) (26, -2.61676698923110960000e-001) (27, -9.55401137471199040000e-002) (28, -1.02940118312835690000e+000) (29, -8.11970770359039310000e-001) (30, -4.25641536712646480000e-001) (31, -3.37582707405090330000e-001) (32, -3.86740386486053470000e-001) (33, -1.20151245594024660000e+000) (34, 5.68531572818756100000e-001) (35, 4.16436880826950070000e-001) (36, 1.76989585161209110000e-001) (37, 3.07269334793090820000e-001) (38, 3.17840605974197390000e-001) (39, -1.52627393603324890000e-001) (40, 1.61219751834869380000e+000) (41, 1.22720754146575930000e+000) (42, 1.01356613636016850000e+000) (43, -2.55523085594177250000e-001) (44, -8.86636003851890560000e-002) (45, 2.31374010443687440000e-001) (46, 1.41890436410903930000e-001) (47, 1.60948663949966430000e-001) (48, -1.31759226322174070000e-001) (49, 1.15754185244441030000e-002) (50, -6.61283954977989200000e-002) (51, -9.17043536901474000000e-003) (52, -1.98908001184463500000e-001) (0, -3.55431497097015380000e-001) (1, -3.34776401519775390000e-001) (2, -4.62431281805038450000e-001) (3, 1.20595440268516540000e-001) (4, -6.89343631267547610000e-001) (5, 8.00861299037933350000e-001) (6, -3.32935333251953130000e-001) (7, -2.79865086078643800000e-001) (8, -1.92354321479797360000e-001) (9, -9.32294949889183040000e-002) (10, -1.12867318093776700000e-001) (11, -6.41435801982879640000e-001) (12, -2.70565718412399290000e-001) (13, -1.94117709994316100000e-001) (14, -5.30760623514652250000e-002) (15, 1.27342462539672850000e-001) (16, 1.60645678639411930000e-001) (17, -8.01152363419532780000e-002) (18, -2.01620995998382570000e-001) (19, -5.64877726137638090000e-002) (20, -1.16364292800426480000e-001) (21, -3.18891346454620360000e-001) (22, -5.59142753481864930000e-002) (23, -3.14955949783325200000e-001) (24, -9.91746783256530760000e-002) (25, 1.42667993903160100000e-001) (26, -3.55660885572433470000e-001) (27, -3.86682957410812380000e-001) (28, 1.08412003517150880000e+000) (29, 6.81029915809631350000e-001) (30, 9.23549592494964600000e-001) (31, -1.14753745496273040000e-001) (32, 2.23983898758888240000e-002) (33, 1.87269225716590880000e-001) (34, 1.24555081129074100000e-001) (35, 3.26590657234191890000e-001) (36, -2.82770067453384400000e-001) (37, -1.92145273089408870000e-001) (38, -2.39484071731567380000e-001) (39, -3.71623873710632320000e-001) (40, -4.20957207679748540000e-001) (41, -5.77021956443786620000e-001) (42, -7.30425179004669190000e-001) (43, 2.04691588878631590000e-001) (44, 8.72910022735595700000e-001) (45, 5.73388397693634030000e-001) (46, 4.60156112909317020000e-001) (47, 3.21709781885147090000e-001) (48, -1.63637828081846240000e-002) (49, -4.48000840842723850000e-002) (50, -2.78323050588369370000e-002) (51, -1.42578452825546260000e-001) (52, -3.53031396865844730000e-001) (0, -3.41985702514648440000e-001) (1, -4.28381502628326420000e-001) (2, -1.27961790561676030000e+000) (3, -4.12700533866882320000e-001) (4, -3.86807680130004880000e-001) (5, -7.72163987159729000000e-001) (6, -5.17090484499931340000e-002) (7, -3.57666537165641780000e-002) (8, -5.16455233097076420000e-001) (9, 1.35554507374763490000e-001) (10, 1.79665237665176390000e-001) (11, -4.31826025247573850000e-001) (12, -3.59960608184337620000e-002) (13, -4.52313989400863650000e-001) (14, 7.27375894784927370000e-002) (15, -1.18146151304245000000e-001) (16, -1.68553695082664490000e-001) (17, -4.46565151214599610000e-001) (18, -2.37472471781075000000e-003) (19, 8.76661837100982670000e-002) (20, -7.86561518907547000000e-002) (21, 2.14054360985755920000e-001) (22, -8.24875161051750180000e-002) (23, -1.70450553297996520000e-001) (24, -3.47818285226821900000e-002) (25, 3.60044613480567930000e-002) (26, 5.41184954345226290000e-002) (27, 1.15474248304963110000e-002) (28, -4.68389004468917850000e-001) (29, -3.29140692949295040000e-001) (30, -2.82263010740280150000e-001) (31, 1.21369153261184690000e-001) (32, -2.51415395177900790000e-003) (33, 1.95775642991065980000e-001) (34, 2.75004394352436070000e-002) (35, -2.09220796823501590000e-002) (36, -1.83550566434860230000e-001) (37, -5.69454580545425420000e-002) (38, -1.46258175373077390000e-001) (39, -3.05840045213699340000e-001) (40, 2.83205807209014890000e-001) (41, 4.30483102798461910000e-001) (42, 2.69885212182998660000e-001) (43, -1.76895827054977420000e-001) (44, -2.49919131398200990000e-001) (45, 3.78471463918685910000e-002) (46, -5.10329566895961760000e-003) (47, -3.84201221168041230000e-002) (48, 2.79441084712743760000e-002) (49, 3.95773611962795260000e-002) (50, 1.11995495855808260000e-001) (51, 1.34004816412925720000e-001) (52, -6.58317923545837400000e-001) (0, -3.76077383756637570000e-001) (1, -2.31669402122497560000e+000) (2, -8.66282463073730470000e-001) (3, 9.69832390546798710000e-002) (4, -5.54874956607818600000e-001) (5, -6.78230822086334230000e-001) (6, 2.35433772206306460000e-001) (7, 2.27902010083198550000e-001) (8, 8.68877321481704710000e-002) (9, 1.00675654411315920000e+000) (10, 1.74870193004608150000e+000) (11, -4.70419168472290040000e-001) (12, 1.20057485997676850000e-001) (13, -2.72998839616775510000e-001) (14, -5.72584211826324460000e-001) (15, 1.33002460002899170000e-001) (16, -7.72995352745056150000e-001) (17, -6.04297935962677000000e-001) (18, -7.87604808807373050000e-001) (19, -9.56202805042266850000e-001) (20, -2.74082958698272710000e-001) (21, 1.80650651454925540000e+000) (22, 4.02232736349105830000e-001) (23, -3.61076653003692630000e-001) (24, 1.05756700038909910000e+000) (25, 1.25280511379241940000e+000) (26, 2.04122483730316160000e-001) (27, 6.18407875299453740000e-002) (28, -5.98707020282745360000e-001) (29, -2.92860448360443120000e-001) (30, -4.59183305501937870000e-001) (31, 4.57174152135849000000e-001) (32, 5.69535076618194580000e-001) (33, 1.87105500698089600000e+000) (34, 6.15106746554374690000e-002) (35, 8.93313765525817870000e-001) (36, -3.21741342544555660000e-001) (37, -2.96021193265914920000e-001) (38, -2.48206719756126400000e-001) (39, -1.22784960269927980000e+000) (40, 2.57431641221046450000e-002) (41, -2.52065777778625490000e-001) (42, -6.11224830150604250000e-001) (43, -2.93644845485687260000e-001) (44, -5.20746767520904540000e-001) (45, -1.21956437826156620000e-001) (46, -1.53218463063240050000e-001) (47, 2.16121841222047810000e-002) (48, 1.20173811912536620000e-001) (49, 1.82704195380210880000e-001) (50, 1.58528208732604980000e-001) (51, 1.68049693107604980000e-001) (52, -8.80786478519439700000e-002) (0, -3.51025968790054320000e-001) (1, -7.17257201671600340000e-001) (2, -1.22951948642730710000e+000) (3, -4.20925229787826540000e-001) (4, -7.24779009819030760000e-001) (5, -2.04294055700302120000e-001) (6, -2.27487847208976750000e-001) (7, -2.08957582712173460000e-001) (8, -6.45663321018218990000e-001) (9, 3.02760899066925050000e-001) (10, -2.99328844994306560000e-002) (11, -5.22024929523468020000e-001) (12, -2.81624108552932740000e-001) (13, -3.19595277309417720000e-001) (14, -2.30465576052665710000e-001) (15, -1.98415648192167280000e-002) (16, 4.10854548215866090000e-001) (17, -1.69881358742713930000e-001) (18, 2.90967404842376710000e-001) (19, 2.22510397434234620000e-002) (20, -2.13630720973014830000e-001) (21, 1.59306690096855160000e-001) (22, -2.45115906000137330000e-001) (23, -1.29138842225074770000e-001) (24, -1.35535486042499540000e-002) (25, 1.07180945575237270000e-001) (26, -1.19210235774517060000e-001) (27, -1.29779770970344540000e-001) (28, 1.10766656696796420000e-001) (29, 9.69313159584999080000e-002) (30, -6.53411298990249630000e-002) (31, 8.01845863461494450000e-002) (32, 2.13546678423881530000e-001) (33, 1.89297989010810850000e-001) (34, -1.19602210819721220000e-001) (35, -1.57817043364048000000e-002) (36, -1.44944787025451660000e-001) (37, -1.85343891382217410000e-001) (38, -1.47026076912879940000e-001) (39, -4.97844099998474120000e-001) (40, -6.04501403868198390000e-002) (41, -1.07782714068889620000e-001) (42, -2.11884871125221250000e-001) (43, 2.61336117982864380000e-001) (44, 4.32444125413894650000e-001) (45, 3.29066589474678040000e-002) (46, 1.38881891965866090000e-001) (47, 1.13873772323131560000e-001) (48, 2.12564449757337570000e-002) (49, 1.30386784672737120000e-001) (50, 5.88174872100353240000e-002) (51, -3.34921255707740780000e-002) (52, -2.87804901599884030000e-001) (0, -3.95879149436950680000e-001) (1, -3.04951459169387820000e-001) (2, -7.18336582183837890000e-001) (3, -1.80080637335777280000e-001) (4, -3.40870767831802370000e-001) (5, -4.98600542545318600000e-001) (6, 1.76624089479446410000e-001) (7, 2.87763118743896480000e-001) (8, -2.81959176063537600000e-001) (9, 8.75693619251251220000e-001) (10, 7.99651503562927250000e-001) (11, -1.03225015103816990000e-001) (12, 5.50380766391754150000e-001) (13, 3.77427861094474790000e-002) (14, 8.91526281833648680000e-001) (15, 5.74325323104858400000e-001) (16, -1.35113549232482910000e+000) (17, -5.86991369724273680000e-001) (18, -1.00228548049926760000e+000) (19, 4.86352652311325070000e-001) (20, -4.19973246753215790000e-002) (21, 4.47476178407669070000e-001) (22, 1.90096534788608550000e-002) (23, -1.42169699072837830000e-001) (24, 4.63922768831253050000e-001) (25, 5.24158656597137450000e-001) (26, 4.61135923862457280000e-001) (27, 6.61343634128570560000e-001) (28, -2.79291570186614990000e-001) (29, -8.27610969543457030000e-001) (30, -6.77831530570983890000e-001) (31, -6.59872516989707950000e-002) (32, -3.78072373569011690000e-002) (33, 7.63881623744964600000e-001) (34, 4.32398207485675810000e-002) (35, -1.00670211017131810000e-001) (36, -3.03589344024658200000e-001) (37, -1.40412285923957820000e-001) (38, -2.52338230609893800000e-001) (39, -4.35273975133895870000e-001) (40, -5.83414249122142790000e-002) (41, 6.16773009300231930000e-001) (42, 2.56057441234588620000e-001) (43, -5.73529958724975590000e-001) (44, -6.22620880603790280000e-001) (45, -1.10089950263500210000e-001) (46, 3.76455485820770260000e-002) (47, -1.61180466413497920000e-001) (48, -4.09527309238910680000e-002) (49, -1.17997385561466220000e-001) (50, -4.33208905160427090000e-002) (51, -3.08818947523832320000e-002) (52, -6.33645057678222660000e-001) (0, 5.01219272613525390000e-001) (1, -7.27876245975494380000e-001) (2, -6.11571788787841800000e-001) (3, 4.02703493833541870000e-001) (4, -2.00275301933288570000e-001) (5, -1.04357171058654790000e+000) (6, -3.47862631082534790000e-001) (7, -1.84630468487739560000e-001) (8, 8.23955908417701720000e-002) (9, 2.46064946055412290000e-001) (10, -5.35160422325134280000e-001) (11, 4.30861175060272220000e-001) (12, 2.01128542423248290000e-001) (13, -4.20588135719299320000e-001) (14, -7.28155672550201420000e-001) (15, 9.94825884699821470000e-002) (16, 9.07805800437927250000e-001) (17, -5.61080634593963620000e-001) (18, 3.96687150001525880000e-001) (19, -1.32690697908401490000e-001) (20, 2.44804456830024720000e-001) (21, -4.92511503398418430000e-002) (22, -9.89159867167472840000e-002) (23, 1.49626612663269040000e-001) (24, -2.27389216423034670000e-001) (25, -4.01148647069931030000e-001) (26, -1.72224760055541990000e-001) (27, -2.23243892192840580000e-001) (28, 3.28569531440734860000e-001) (29, 7.04242587089538570000e-001) (30, -2.93522439897060390000e-002) (31, 3.08284521102905270000e-001) (32, 3.65974932909011840000e-001) (33, -3.55791568756103520000e-001) (34, -6.51513040065765380000e-001) (35, -3.86989116668701170000e-001) (36, 1.02891281247138980000e-001) (37, 2.28385508060455320000e-001) (38, 1.87003687024116520000e-001) (39, 4.26521599292755130000e-002) (40, -1.95943593978881840000e-001) (41, -6.88104391098022460000e-001) (42, 6.05492014437913890000e-003) (43, 3.51351678371429440000e-001) (44, 2.63541042804718020000e-001) (45, -1.43394887447357180000e-001) (46, -2.44536161422729490000e-001) (47, -1.14962076768279080000e-002) (48, 3.14130753278732300000e-001) (49, 1.86042472720146180000e-001) (50, 2.10230663418769840000e-001) (51, 1.46284192800521850000e-001) (52, -6.93736672401428220000e-001) (0, 1.12314604222774510000e-001) (1, -2.61521428823471070000e-001) (2, -9.76464867591857910000e-001) (3, -1.16988085210323330000e-001) (4, -5.75444195419549940000e-003) (5, -2.81145900487899780000e-001) (6, -2.08014305680990220000e-002) (7, 2.00372040271759030000e-002) (8, -9.48904693126678470000e-001) (9, 6.36112876236438750000e-004) (10, -1.04629591107368470000e-001) (11, -2.35933825373649600000e-001) (12, -9.87359061837196350000e-002) (13, -1.85137227177619930000e-001) (14, -1.39547064900398250000e-001) (15, -1.82580035179853440000e-002) (16, -1.23406201601028440000e-002) (17, -1.74212172627449040000e-001) (18, -8.71760249137878420000e-002) (19, -5.10780252516269680000e-002) (20, 8.76820646226406100000e-004) (21, -1.58866778016090390000e-001) (22, -1.66742071509361270000e-001) (23, -8.92939493060112000000e-002) (24, -1.64296388626098630000e-001) (25, -7.93849602341651920000e-002) (26, -5.67401088774204250000e-002) (27, -1.03106953203678130000e-001) (28, -1.16327507421374320000e-002) (29, 1.41134098172187810000e-001) (30, -8.84083360433578490000e-002) (31, -5.49126267433166500000e-002) (32, -5.52788451313972470000e-002) (33, -2.59906619787216190000e-001) (34, -1.84778079390525820000e-001) (35, -8.25821459293365480000e-002) (36, -7.79047310352325440000e-002) (37, 3.12748588621616360000e-002) (38, -3.55769358575344090000e-002) (39, -4.12451699376106260000e-002) (40, -2.52521514892578130000e-001) (41, -9.41840559244155880000e-002) (42, -1.74955844879150390000e-001) (43, 5.17522767186164860000e-002) (44, 1.49564281105995180000e-001) (45, -5.49344681203365330000e-002) (46, 4.65364381670951840000e-002) (47, -1.33937755599617960000e-002) (48, -8.79516303539276120000e-002) (49, -9.49691701680421830000e-003) (50, 3.11906426213681700000e-003) (51, -7.79968053102493290000e-002) (52, -1.21265506744384770000e+000) (0, -1.36584803462028500000e-001) (1, -1.63298106193542480000e+000) (2, -1.00284107029438020000e-002) (3, 1.28465759754180910000e+000) (4, -3.26235927641391750000e-002) (5, 2.02015662193298340000e+000) (6, -1.44317179918289180000e-001) (7, -1.30975022912025450000e-001) (8, -1.56203985214233400000e+000) (9, 4.11260388791561130000e-002) (10, 4.05720531940460210000e-001) (11, -2.97844797372817990000e-001) (12, 4.41922731697559360000e-002) (13, 9.79577660560607910000e-001) (14, 1.73120498657226560000e-001) (15, 3.68850290775299070000e-001) (16, -1.61058872938156130000e-001) (17, 8.52615118026733400000e-001) (18, -2.62229114770889280000e-001) (19, 1.10456891357898710000e-001) (20, -3.32678973674774170000e-001) (21, -7.87777125835418700000e-001) (22, 2.19226062297821040000e-001) (23, -1.39167010784149170000e-001) (24, 2.36337929964065550000e-002) (25, 2.31984123587608340000e-001) (26, -6.74405917525291440000e-002) (27, 6.60096853971481320000e-002) (28, -5.02616278827190400000e-002) (29, -5.47436773777008060000e-001) (30, 5.26554882526397710000e-001) (31, -5.70740878582000730000e-001) (32, -5.24672031402587890000e-001) (33, -4.96685117483139040000e-001) (34, 1.20599043369293210000e+000) (35, 6.94858431816101070000e-002) (36, -1.16218633949756620000e-001) (37, -2.28431820869445800000e-001) (38, -2.14186191558837890000e-001) (39, 6.45917654037475590000e-001) (40, 7.22464859485626220000e-001) (41, -6.87758028507232670000e-001) (42, -8.46273362636566160000e-001) (43, -4.91425871849060060000e-001) (44, -2.32957914471626280000e-001) (45, 1.31618529558181760000e-001) (46, 1.41077199950814250000e-002) (47, 2.94839441776275630000e-002) (48, -1.69627219438552860000e-001) (49, -1.85960233211517330000e-001) (50, -2.24607691168785100000e-001) (51, -1.30564749240875240000e-001) (52, -1.05136120319366460000e+000) (0, -3.58429700136184690000e-002) (1, -2.01201605796813960000e+000) (2, -8.94888162612915040000e-001) (3, 2.91267246007919310000e-001) (4, -2.16188952326774600000e-001) (5, -5.56583464145660400000e-001) (6, -2.49697208404541020000e-001) (7, -1.97701543569564820000e-001) (8, 4.54438686370849610000e-001) (9, 8.83026421070098880000e-001) (10, -4.72116202116012570000e-001) (11, 2.67230361700057980000e-001) (12, -8.97250976413488390000e-003) (13, -5.42931616306304930000e-001) (14, -6.22176826000213620000e-001) (15, -1.97593346238136290000e-001) (16, 7.31318175792694090000e-001) (17, -3.37865859270095830000e-001) (18, 6.02346420288085940000e-001) (19, -4.98439252376556400000e-001) (20, 6.16391777992248540000e-001) (21, 1.00930809974670410000e+000) (22, -4.49655711650848390000e-001) (23, 2.73010224103927610000e-001) (24, -6.91430121660232540000e-002) (25, -3.63454580307006840000e-001) (26, -3.20084363222122190000e-001) (27, -3.60371351242065430000e-001) (28, -1.25754162669181820000e-001) (29, 4.54214930534362790000e-001) (30, -3.13200533390045170000e-001) (31, 7.46722698211669920000e-001) (32, 7.36511468887329100000e-001) (33, 4.77700918912887570000e-001) (34, -1.08122682571411130000e+000) (35, -5.23095428943634030000e-001) (36, -1.19223877787590030000e-001) (37, 1.30392704159021380000e-002) (38, 2.46176291257143020000e-002) (39, -6.41061425209045410000e-001) (40, -2.40011766552925110000e-001) (41, -1.26823008060455320000e-001) (42, 4.43956404924392700000e-001) (43, 2.17577859759330750000e-001) (44, -3.47913540899753570000e-002) (45, -2.33685955405235290000e-001) (46, -2.42243066430091860000e-001) (47, 3.67911368608474730000e-001) (48, 4.87284690141677860000e-001) (49, 6.18132352828979490000e-001) (50, 5.40361106395721440000e-001) (51, 6.07396245002746580000e-001) (52, -4.31571513414382930000e-001) (0, -9.21873375773429870000e-002) (1, -4.73066389560699460000e-001) (2, -8.62954437732696530000e-001) (3, 1.44648458808660510000e-002) (4, -1.44950211048126220000e-001) (5, -3.92371147871017460000e-001) (6, 3.15821282565593720000e-002) (7, 1.04946292936801910000e-001) (8, -1.06847476959228520000e+000) (9, 4.19159501791000370000e-001) (10, 6.50119557976722720000e-002) (11, -3.75982135534286500000e-001) (12, -2.39258021116256710000e-001) (13, 1.55809476971626280000e-001) (14, -1.55028432607650760000e-001) (15, 1.75367042422294620000e-001) (16, 5.06602048873901370000e-001) (17, 1.39683291316032410000e-001) (18, 1.64442539215087890000e-001) (19, 2.87523597478866580000e-001) (20, -7.23140239715576170000e-002) (21, 9.61296334862709050000e-002) (22, -1.51797428727149960000e-001) (23, -2.23065435886383060000e-001) (24, -1.05554506182670590000e-001) (25, 1.87188923358917240000e-001) (26, -1.49650499224662780000e-001) (27, -2.12624341249465940000e-001) (28, 2.25711725652217860000e-002) (29, 1.36495843529701230000e-001) (30, -5.11485442984849210000e-004) (31, -9.42312106490135190000e-002) (32, -1.19005203247070310000e-001) (33, 1.80537804961204530000e-001) (34, -3.38803887367248540000e-001) (35, -1.60517483949661250000e-001) (36, -2.22094148397445680000e-001) (37, -2.42858290672302250000e-001) (38, -2.51567900180816650000e-001) (39, -3.34498137235641480000e-001) (40, -4.64654326438903810000e-001) (41, -2.72638350725173950000e-001) (42, -3.65735888481140140000e-001) (43, -2.10672449320554730000e-002) (44, -3.38300550356507300000e-003) (45, -2.48633679002523420000e-002) (46, 6.71044066548347470000e-002) (47, -5.52405305206775670000e-002) (48, 3.91112565994262700000e-002) (49, -4.92554679512977600000e-002) (50, -2.59887985885143280000e-002) (51, 3.35671647917479280000e-004) (52, -9.41672384738922120000e-001) (0, -3.03166985511779790000e-001) (1, -1.34799122810363770000e+000) (2, -8.18645417690277100000e-001) (3, -1.14969646930694580000e+000) (4, -1.19227111339569090000e+000) (5, 1.88707262277603150000e-001) (6, -5.35064041614532470000e-001) (7, -5.70092141628265380000e-001) (8, -3.96670669317245480000e-001) (9, 2.63917326927185060000e+000) (10, 4.94219481945037840000e-001) (11, -1.80690940469503400000e-002) (12, -6.65567398071289060000e-001) (13, -4.88418281078338620000e-001) (14, -1.00561547279357910000e+000) (15, 1.72098684310913090000e+000) (16, 8.73735785484313960000e-001) (17, -3.72920930385589600000e-001) (18, 1.21957516670227050000e+000) (19, 3.33053541183471680000e+000) (20, -1.47603297233581540000e+000) (21, -1.97035074234008790000e-001) (22, 5.80221772193908690000e-001) (23, -6.34395480155944820000e-001) (24, -5.71454226970672610000e-001) (25, 1.25435829162597660000e-001) (26, -6.26648247241973880000e-001) (27, -8.60038995742797850000e-001) (28, 3.20677101612091060000e-001) (29, 4.42491948604583740000e-001) (30, -1.31432205438613890000e-001) (31, 4.85955178737640380000e-002) (32, -2.07344181835651400000e-002) (33, -1.66646707803010940000e-002) (34, 7.62491762638092040000e-001) (35, 9.12924110889434810000e-001) (36, -2.16156542301177980000e-001) (37, -2.27002486586570740000e-001) (38, -1.49463474750518800000e-001) (39, -4.56134289503097530000e-001) (40, -1.26101493835449220000e-001) (41, -7.91235089302062990000e-001) (42, -7.07240045070648190000e-001) (43, 1.10997319221496580000e+000) (44, 2.05646514892578130000e+000) (45, 1.03894770145416260000e+000) (46, 1.03704953193664550000e+000) (47, 9.82527077198028560000e-001) (48, -8.98366719484329220000e-002) (49, -6.65029138326644900000e-002) (50, -8.08605551719665530000e-003) (51, -1.94934941828250890000e-002) (52, -1.69158160686492920000e-001) (0, 2.14114829897880550000e-001) (1, -3.87554988265037540000e-002) (2, -3.33537220954895020000e-001) (3, -2.88589864969253540000e-001) (4, 1.68864086270332340000e-001) (5, -7.05872237682342530000e-001) (6, 4.39207881689071660000e-001) (7, 3.60344499349594120000e-001) (8, -3.71479690074920650000e-001) (9, 1.76366746425628660000e-001) (10, 7.11777865886688230000e-001) (11, -8.14916640520095830000e-002) (12, 4.25422757863998410000e-001) (13, -3.02136451005935670000e-001) (14, 1.15263603627681730000e-001) (15, -2.35488384962081910000e-001) (16, -5.52991271018981930000e-001) (17, -4.07588273286819460000e-001) (18, -2.66798675060272220000e-001) (19, -3.25409442186355590000e-001) (20, 1.93249344825744630000e-001) (21, 2.08420827984809880000e-001) (22, -2.00683504343032840000e-001) (23, 1.80426016449928280000e-001) (24, 8.96430984139442440000e-002) (25, 8.00231844186782840000e-003) (26, -4.99463155865669250000e-002) (27, 2.17717245221138000000e-001) (28, -6.98427915573120120000e-001) (29, -5.98793029785156250000e-001) (30, -5.58313429355621340000e-001) (31, -2.94089794158935550000e-001) (32, -3.32810491323471070000e-001) (33, -8.74892473220825200000e-001) (34, 3.03132921457290650000e-001) (35, 3.25920507311820980000e-002) (36, 1.71468585729599000000e-001) (37, 9.95509847998619080000e-002) (38, 8.68983864784240720000e-002) (39, -1.65504351258277890000e-001) (40, 1.02334725856781010000e+000) (41, 2.94325709342956540000e-001) (42, 1.94369748234748840000e-001) (43, -4.88664478063583370000e-001) (44, -5.59219598770141600000e-001) (45, -1.54161423444747920000e-001) (46, -8.47156494855880740000e-002) (47, -2.67336010932922360000e-001) (48, 1.97657495737075810000e-002) (49, -7.69445449113845830000e-002) (50, 4.97691007331013680000e-003) (51, 2.86463778465986250000e-002) (52, -7.53885626792907710000e-001) (0, 9.80907976627349850000e-002) (1, -4.35941815376281740000e-001) (2, -9.43627119064331050000e-001) (3, -9.39276814460754390000e-002) (4, -3.02945356816053390000e-002) (5, -4.25522029399871830000e-001) (6, -1.77060246467590330000e-001) (7, -1.62600994110107420000e-001) (8, -8.21526408195495610000e-001) (9, -1.08670100569725040000e-001) (10, 5.84550499916076660000e-002) (11, -1.18530236184597020000e-001) (12, -1.63165062665939330000e-001) (13, -2.68986403942108150000e-001) (14, -2.24070668220520020000e-001) (15, -4.67750430107116700000e-002) (16, 9.03672948479652400000e-002) (17, -2.25827977061271670000e-001) (18, -7.13532697409391400000e-003) (19, -1.06519177556037900000e-001) (20, -3.56065295636653900000e-002) (21, -6.12564831972122190000e-002) (22, -1.15548595786094670000e-001) (23, 3.11105381697416310000e-002) (24, -2.19125207513570790000e-002) (25, -3.65800634026527400000e-002) (26, -1.35888502001762390000e-001) (27, -1.37682706117630000000e-001) (28, 2.05057822167873380000e-002) (29, 1.47847265005111690000e-001) (30, -7.25633054971694950000e-002) (31, -1.18095064535737040000e-002) (32, -8.54788497090339660000e-002) (33, -1.92417934536933900000e-001) (34, -2.38169670104980470000e-001) (35, -1.67551934719085690000e-001) (36, -1.23822748661041260000e-001) (37, 5.04448302090168000000e-002) (38, -7.77838602662086490000e-002) (39, -1.15827694535255430000e-001) (40, -2.64521300792694090000e-001) (41, -2.22152113914489750000e-001) (42, -1.32019490003585820000e-001) (43, 3.99308837950229640000e-003) (44, 9.93450284004211430000e-002) (45, -1.02890245616436000000e-001) (46, 4.40763309597969060000e-002) (47, -7.00234025716781620000e-002) (48, -6.75727128982543950000e-002) (49, 8.98378901183605190000e-003) (50, -4.13458421826362610000e-002) (51, -6.43805786967277530000e-002) (52, -1.17236995697021480000e+000) (0, 1.26974537968635560000e-001) (1, -1.64427548646926880000e-001) (2, -7.81172141432762150000e-002) (3, 9.53863561153411870000e-001) (4, 5.95667995512485500000e-002) (5, 1.12965248525142670000e-001) (6, 3.24337691068649290000e-001) (7, 3.68637055158615110000e-001) (8, -1.25432634353637700000e+000) (9, -1.87892928719520570000e-001) (10, 6.42497241497039790000e-001) (11, -1.66130468249320980000e-001) (12, 3.29211167991161350000e-002) (13, 5.83594501018524170000e-001) (14, -8.95734205842018130000e-002) (15, 2.65333414077758790000e-001) (16, -5.92858269810676570000e-002) (17, 3.15272182226181030000e-001) (18, -4.04880911111831670000e-001) (19, -3.35152804851531980000e-001) (20, -4.91136223077774050000e-001) (21, 2.48092710971832280000e-001) (22, -6.81446641683578490000e-002) (23, -1.79449960589408870000e-001) (24, 2.05519586801528930000e-001) (25, 3.46919924020767210000e-001) (26, -2.80472580343484880000e-002) (27, -7.87142887711524960000e-002) (28, -3.79521369934082030000e-001) (29, -3.86023908853530880000e-001) (30, -2.81835764646530150000e-001) (31, -2.84835249185562130000e-001) (32, -2.90261238813400270000e-001) (33, -3.90881210565567020000e-001) (34, 6.94892406463623050000e-002) (35, 1.36253595352172850000e-001) (36, -1.97672262787818910000e-001) (37, -2.04825595021247860000e-001) (38, -7.56385847926139830000e-002) (39, -1.87545433640480040000e-001) (40, 8.30345898866653440000e-002) (41, -1.54739484190940860000e-001) (42, -3.17025214433670040000e-001) (43, -8.90571102499961850000e-002) (44, -1.62203580141067500000e-001) (45, -7.62504944577813150000e-003) (46, 2.19552544876933100000e-003) (47, -1.60871654748916630000e-001) (48, -8.16643685102462770000e-002) (49, -2.00798779726028440000e-001) (50, -1.14574499428272250000e-001) (51, -7.18865245580673220000e-002) (52, -9.27103519439697270000e-001) (0, 5.12005239725112920000e-002) (1, 7.01493173837661740000e-002) (2, -4.09319669008255000000e-001) (3, 2.49578058719635010000e-001) (4, -1.16766355931758880000e-001) (5, -6.26338958740234380000e-001) (6, 2.67051197588443760000e-002) (7, 8.02023634314537050000e-002) (8, -8.35061013698577880000e-001) (9, -2.27673158049583440000e-001) (10, 5.49719631671905520000e-001) (11, -5.80526292324066160000e-002) (12, -4.42153587937355040000e-002) (13, 3.04898619651794430000e-001) (14, -3.68617981672286990000e-001) (15, -7.35830590128898620000e-002) (16, 2.04240590333938600000e-001) (17, 2.32079446315765380000e-001) (18, -2.24511533975601200000e-001) (19, -2.83310472965240480000e-001) (20, -4.37356859445571900000e-001) (21, 6.29007101058959960000e-001) (22, -3.49682509899139400000e-001) (23, -3.89521420001983640000e-002) (24, 3.02927285432815550000e-001) (25, 4.28701728582382200000e-001) (26, 7.07149803638458250000e-002) (27, -2.92959660291671750000e-001) (28, -1.38655945658683780000e-001) (29, 6.16996847093105320000e-002) (30, -3.75161558389663700000e-001) (31, -1.61820471286773680000e-001) (32, -1.27207398414611820000e-001) (33, -1.88461109995841980000e-001) (34, -1.97584852576255800000e-001) (35, 4.59518693387508390000e-002) (36, -1.78668960928916930000e-001) (37, -7.90598541498184200000e-002) (38, -1.12824507057666780000e-001) (39, -4.58977222442626950000e-001) (40, -1.21361136436462400000e-001) (41, -2.33098268508911130000e-001) (42, -2.21958234906196590000e-001) (43, -1.23895399272441860000e-001) (44, -2.32759475708007810000e-001) (45, 7.60541483759880070000e-002) (46, 4.99006062746047970000e-002) (47, -1.08871586620807650000e-001) (48, -1.33100494742393490000e-001) (49, -1.40156134963035580000e-001) (50, -1.20887398719787600000e-001) (51, -4.34733170550316570000e-004) (52, -9.26255166530609130000e-001) (0, 5.07928669452667240000e-001) (1, -9.75697487592697140000e-002) (2, 1.93508043885231020000e-002) (3, -5.15341639518737790000e-001) (4, 8.02243471145629880000e-001) (5, 1.42546653747558590000e+000) (6, 3.56440633535385130000e-001) (7, 3.24873387813568120000e-001) (8, -8.06121468544006350000e-001) (9, 1.02666124701499940000e-001) (10, -3.24806004762649540000e-001) (11, 5.27168691158294680000e-001) (12, 6.91138982772827150000e-001) (13, 5.12044012546539310000e-001) (14, 9.28916096687316890000e-001) (15, -6.62640571594238280000e-001) (16, -7.34986007213592530000e-001) (17, 4.09370921552181240000e-002) (18, 2.84295290708541870000e-001) (19, 1.69999197125434880000e-001) (20, -6.14569604396820070000e-001) (21, -1.04298686981201170000e+000) (22, 9.39465761184692380000e-001) (23, 2.54290610551834110000e-001) (24, 7.30040343478322030000e-003) (25, -2.13732138276100160000e-001) (26, 4.09157961606979370000e-001) (27, 4.72727715969085690000e-001) (28, -4.70985651016235350000e-001) (29, -7.96290636062622070000e-001) (30, -9.26985070109367370000e-002) (31, -3.81808459758758540000e-001) (32, -3.62789899110794070000e-001) (33, -3.47273170948028560000e-001) (34, -5.93150496482849120000e-001) (35, -6.33923053741455080000e-001) (36, -1.95560544729232790000e-001) (37, -2.38712430000305180000e-001) (38, -2.52806007862091060000e-001) (39, 6.06925785541534420000e-002) (40, -5.44628739356994630000e-001) (41, 4.25097733736038210000e-001) (42, 3.26336532831192020000e-001) (43, -6.89766943454742430000e-001) (44, -7.88756966590881350000e-001) (45, -5.51731511950492860000e-002) (46, -8.21811556816101070000e-002) (47, -2.24554374814033510000e-001) (48, -3.19849438965320590000e-002) (49, -1.68672874569892880000e-001) (50, -1.25771358609199520000e-001) (51, -1.03469103574752810000e-001) (52, -1.14118444919586180000e+000) (0, -8.15464138984680180000e-001) (1, 1.21093201637268070000e+000) (2, -1.28324460983276370000e+000) (3, 3.59495252370834350000e-001) (4, -1.25050771236419680000e+000) (5, -1.53643012046813960000e+000) (6, -9.72908854484558110000e-001) (7, -9.28322672843933110000e-001) (8, 6.25911176204681400000e-001) (9, 1.87735080718994140000e-001) (10, -6.62311375141143800000e-001) (11, -4.91130053997039790000e-001) (12, -3.95800232887268070000e-001) (13, 5.06416559219360350000e-002) (14, 5.73978304862976070000e-001) (15, 4.75559741258621220000e-001) (16, -5.04478037357330320000e-001) (17, 8.50493162870407100000e-002) (18, 9.30506050586700440000e-001) (19, 3.06844234466552730000e+000) (20, -1.38523209095001220000e+000) (21, -1.79241228103637700000e+000) (22, 3.20581018924713130000e-001) (23, -4.28299248218536380000e-001) (24, -6.31579875946044920000e-001) (25, -3.86939048767089840000e-002) (26, -1.34408220648765560000e-001) (27, 2.49907284975051880000e-001) (28, 8.36008965969085690000e-001) (29, -7.43846893310546880000e-001) (30, 3.33026409149169920000e+000) (31, 8.27510416507720950000e-001) (32, 7.19166934490203860000e-001) (33, 3.98098087310791020000e+000) (34, -6.96990072727203370000e-001) (35, -7.60363876819610600000e-001) (36, -3.57924520969390870000e-001) (37, -2.72536307573318480000e-001) (38, -3.20973843336105350000e-001) (39, 4.04697597026824950000e-001) (40, -1.49943900108337400000e+000) (41, 3.77128183841705320000e-001) (42, -5.84556519985198970000e-001) (43, 2.05555081367492680000e-001) (44, 1.04593563079833980000e+000) (45, 8.30017745494842530000e-001) (46, 8.37164998054504390000e-001) (47, 6.58130645751953130000e-001) (48, -2.13011160492897030000e-001) (49, -1.87638729810714720000e-001) (50, -9.87897142767906190000e-002) (51, -1.35331630706787110000e-001) (52, -7.98904597759246830000e-001) (0, -2.93106555938720700000e-001) (1, -3.64913493394851680000e-001) (2, -1.20858275890350340000e+000) (3, -2.87102729082107540000e-001) (4, -2.71873116493225100000e-001) (5, -4.70855563879013060000e-001) (6, -1.44156962633132930000e-002) (7, 4.19868826866149900000e-002) (8, -6.67173504829406740000e-001) (9, -1.06674417853355410000e-001) (10, 3.21779489517211910000e-001) (11, -1.52482762932777400000e-001) (12, -1.76734775304794310000e-002) (13, -2.47775778174400330000e-001) (14, 1.15668408572673800000e-001) (15, -6.80018216371536250000e-002) (16, -2.69408136606216430000e-001) (17, -3.10647606849670410000e-001) (18, -2.00139373540878300000e-001) (19, -8.01887959241867070000e-002) (20, -1.41690000891685490000e-001) (21, 2.12193220853805540000e-001) (22, -5.54099455475807190000e-002) (23, 7.64369592070579530000e-002) (24, 2.47545346617698670000e-001) (25, 1.88259556889534000000e-001) (26, 2.25334078073501590000e-001) (27, 7.71782621741294860000e-002) (28, -4.03291434049606320000e-001) (29, -3.19132089614868160000e-001) (30, -3.41020047664642330000e-001) (31, 3.99571843445301060000e-002) (32, -6.13673143088817600000e-002) (33, 9.19868648052215580000e-002) (34, 6.09044581651687620000e-002) (35, -3.52080650627613070000e-002) (36, -1.19684465229511260000e-001) (37, -1.30933076143264770000e-001) (38, -7.15888068079948430000e-002) (39, -4.20760691165924070000e-001) (40, 1.55623346567153930000e-001) (41, 1.65313482284545900000e-001) (42, -4.45177182555198670000e-002) (43, -2.57224798202514650000e-001) (44, -4.43444490432739260000e-001) (45, 4.21252399682998660000e-002) (46, 3.04369963705539700000e-002) (47, -1.13309726119041440000e-001) (48, -9.26663354039192200000e-002) (49, -6.77578896284103390000e-002) (50, 9.49435308575630190000e-002) (51, -2.54545696079730990000e-002) (52, -8.97579252719879150000e-001) (0, -2.55297303199768070000e-001) (1, -5.14462411403656010000e-001) (2, -7.98678040504455570000e-001) (3, -1.21624700725078580000e-001) (4, -4.96278315782547000000e-001) (5, -1.41026556491851810000e-001) (6, 5.06451018154621120000e-002) (7, 3.43731231987476350000e-002) (8, -8.33608388900756840000e-001) (9, 2.82883852720260620000e-001) (10, 2.83840298652648930000e-001) (11, -5.57774186134338380000e-001) (12, -9.56658497452735900000e-002) (13, -1.92334614694118500000e-002) (14, -5.20339375361800190000e-003) (15, 1.46490231156349180000e-001) (16, 3.50209712982177730000e-001) (17, -1.36660993099212650000e-001) (18, 2.85202503204345700000e-001) (19, 2.17982247471809390000e-001) (20, -5.29474318027496340000e-002) (21, -1.18616111576557160000e-002) (22, -2.93695867061614990000e-001) (23, -1.30634903907775880000e-001) (24, -2.61004269123077390000e-001) (25, 5.09174652397632600000e-002) (26, -2.51781970262527470000e-001) (27, -2.70105719566345210000e-001) (28, -1.49573758244514470000e-001) (29, -1.55316561460495000000e-001) (30, -4.27675917744636540000e-002) (31, -1.98167189955711360000e-001) (32, -1.00675925612449650000e-001) (33, -4.08300161361694340000e-002) (34, 3.19771379232406620000e-001) (35, 2.91654169559478760000e-001) (36, -7.72515162825584410000e-002) (37, -1.24608710408210750000e-001) (38, -1.30864694714546200000e-001) (39, -2.49666824936866760000e-001) (40, 2.86900568753480910000e-002) (41, -6.95499479770660400000e-002) (42, -2.04352751374244690000e-001) (43, 3.52985203266143800000e-001) (44, 5.16446948051452640000e-001) (45, 2.76193708181381230000e-001) (46, 1.38541474938392640000e-001) (47, 1.79631784558296200000e-001) (48, -8.26587006449699400000e-002) (49, -4.08679395914077760000e-002) (50, -7.21240341663360600000e-002) (51, -8.97143557667732240000e-002) (52, -6.79563343524932860000e-001) (0, -2.35808908939361570000e-001) (1, -3.89679670333862300000e-001) (2, -1.09192132949829100000e+000) (3, -1.04557789862155910000e-001) (4, -1.11402779817581180000e-001) (5, 2.05340489745140080000e-001) (6, 8.78552123904228210000e-002) (7, 1.25812903046607970000e-001) (8, -1.01206839084625240000e+000) (9, -2.69485320895910260000e-002) (10, 1.27706201747059820000e-002) (11, -2.02924057841300960000e-001) (12, -1.27899080514907840000e-001) (13, -2.35894277691841130000e-001) (14, 8.65665078163146970000e-002) (15, -7.42938295006752010000e-002) (16, -1.69220745563507080000e-001) (17, -3.02746981382370000000e-001) (18, 5.01008071005344390000e-002) (19, 2.53638446331024170000e-001) (20, -1.55838623642921450000e-001) (21, -2.06864848732948300000e-001) (22, -2.51219689846038820000e-001) (23, -1.21937848627567290000e-001) (24, -1.27492159605026250000e-001) (25, -6.32020011544227600000e-002) (26, 9.08158626407384870000e-003) (27, 8.23484137654304500000e-002) (28, -2.03204303979873660000e-001) (29, -3.49116057157516480000e-001) (30, -3.87387238442897800000e-002) (31, -2.28821069002151490000e-001) (32, -1.03442594408988950000e-001) (33, -3.31609696149826050000e-002) (34, 3.49970459938049320000e-002) (35, -1.46715223789215090000e-001) (36, -1.00444905459880830000e-001) (37, -1.83391451835632320000e-001) (38, -7.61651322245597840000e-002) (39, -1.77355065941810610000e-001) (40, -1.86647385358810420000e-001) (41, 4.26029078662395480000e-002) (42, 3.52999493479728700000e-002) (43, -2.00009629130363460000e-001) (44, 2.50799469649791720000e-002) (45, 1.92612007260322570000e-001) (46, 1.92770689725875850000e-001) (47, 1.07123062014579770000e-001) (48, -9.82638448476791380000e-002) (49, -1.31534054875373840000e-001) (50, -8.88156145811080930000e-002) (51, -1.16476744413375850000e-001) (52, -1.02819943428039550000e+000) (0, -1.85310304164886470000e-001) (1, -3.05977880954742430000e-001) (2, -4.97021406888961790000e-001) (3, 3.54069262742996220000e-001) (4, -2.81808003783226010000e-002) (5, 2.09110721945762630000e-001) (6, 1.21627271175384520000e-001) (7, 2.61001497507095340000e-001) (8, -1.03309535980224610000e+000) (9, -1.68681934475898740000e-001) (10, 2.34188571572303770000e-001) (11, -1.64013862609863280000e-001) (12, -8.92179608345031740000e-002) (13, 3.94412487745285030000e-001) (14, 8.77886414527893070000e-002) (15, 1.81672766804695130000e-001) (16, 2.03454717993736270000e-002) (17, 7.84058868885040280000e-002) (18, -1.32724657654762270000e-001) (19, -1.24815024435520170000e-001) (20, -3.64909708499908450000e-001) (21, 2.27665916085243230000e-001) (22, 3.82099188864231110000e-002) (23, -1.02112308144569400000e-001) (24, 2.00551658868789670000e-001) (25, 2.99465537071228030000e-001) (26, 1.39204403385519980000e-002) (27, 1.69173017144203190000e-001) (28, -1.00116327404975890000e-001) (29, -3.83330404758453370000e-001) (30, -1.61657661199569700000e-001) (31, -2.28509128093719480000e-001) (32, -1.04754291474819180000e-001) (33, -1.00991129875183110000e-001) (34, 1.18696086108684540000e-001) (35, 5.13078132644295690000e-003) (36, -1.32028669118881230000e-001) (37, -1.74710527062416080000e-001) (38, -2.33615592122077940000e-001) (39, -2.85710096359252930000e-001) (40, -2.73203961551189420000e-002) (41, -8.91687721014022830000e-002) (42, -2.89531618356704710000e-001) (43, -1.90491244196891780000e-001) (44, -1.93012729287147520000e-001) (45, -2.86507122218608860000e-002) (46, 1.98051333427429200000e-002) (47, -2.56366282701492310000e-003) (48, -1.29009231925010680000e-001) (49, -1.37700617313385010000e-001) (50, -1.18480727076530460000e-001) (51, -9.47441458702087400000e-002) (52, -9.64526236057281490000e-001) (0, 5.57922840118408200000e-001) (1, -2.52066165208816530000e-001) (2, -1.92947849631309510000e-001) (3, -5.79440355300903320000e-001) (4, 3.45855742692947390000e-001) (5, -8.25730741024017330000e-001) (6, 7.35177695751190190000e-001) (7, 7.31350839138031010000e-001) (8, 5.97457773983478550000e-002) (9, 4.22023981809616090000e-001) (10, 2.91445046663284300000e-001) (11, 5.22793419659137730000e-002) (12, 5.02105295658111570000e-001) (13, -1.50523349642753600000e-001) (14, 9.11248102784156800000e-003) (15, -4.28844928741455080000e-001) (16, -1.32696837186813350000e-001) (17, -2.74329960346221920000e-001) (18, 1.37375742197036740000e-001) (19, -5.98089218139648440000e-001) (20, 6.90992534160614010000e-001) (21, 4.40399795770645140000e-001) (22, -4.75934803485870360000e-001) (23, 5.46498656272888180000e-001) (24, 2.72299170494079590000e-001) (25, -2.51012891530990600000e-001) (26, 1.40507265925407410000e-001) (27, 1.45823314785957340000e-001) (28, -5.06101787090301510000e-001) (29, -2.47626915574073790000e-001) (30, -4.02691513299942020000e-001) (31, -2.87022978067398070000e-001) (32, -1.17553614079952240000e-001) (33, -5.61548531055450440000e-001) (34, -1.49514347314834590000e-001) (35, -2.66025245189666750000e-001) (36, -2.94571574777364730000e-002) (37, 6.74422234296798710000e-002) (38, 3.23714837431907650000e-002) (39, -3.63962292671203610000e-001) (40, 2.90053457021713260000e-001) (41, -5.21429598331451420000e-001) (42, -5.00175297260284420000e-001) (43, -4.58730906248092650000e-001) (44, -8.12670230865478520000e-001) (45, -2.78628796339035030000e-001) (46, -2.13889017701148990000e-001) (47, -7.45477303862571720000e-002) (48, 1.37229904532432560000e-001) (49, 6.94807320833206180000e-002) (50, 1.61027565598487850000e-001) (51, 1.68687447905540470000e-001) (52, -9.56497848033905030000e-001) (0, -1.29234641790390010000e-001) (1, -3.35726201534271240000e-001) (2, -1.32920038700103760000e+000) (3, -3.71116638183593750000e-001) (4, -3.11958134174346920000e-001) (5, -5.60592293739318850000e-001) (6, 4.93131428956985470000e-002) (7, -8.93159806728363040000e-002) (8, -6.39458060264587400000e-001) (9, -5.69411106407642360000e-002) (10, 2.62343976646661760000e-002) (11, -2.84167706966400150000e-001) (12, 4.22809720039367680000e-002) (13, -3.25785636901855470000e-001) (14, -8.93484987318515780000e-003) (15, 2.25981511175632480000e-003) (16, -2.07734331488609310000e-001) (17, -4.58906531333923340000e-001) (18, -2.35200058668851850000e-002) (19, 3.42791788280010220000e-002) (20, 1.54868951067328450000e-002) (21, -7.07168355584144590000e-002) (22, -2.04221770167350770000e-001) (23, 6.08503408730030060000e-002) (24, 6.21007010340690610000e-003) (25, -9.62661281228065490000e-002) (26, 3.82910072803497310000e-002) (27, -1.65122020989656450000e-002) (28, -3.17813009023666380000e-001) (29, -2.38079950213432310000e-001) (30, -1.85140565037727360000e-001) (31, -2.51333042979240420000e-003) (32, 3.10622528195381160000e-002) (33, 7.01492726802825930000e-002) (34, -2.04818904399871830000e-001) (35, -1.96948125958442690000e-001) (36, -1.72726437449455260000e-002) (37, -1.25683128833770750000e-001) (38, -2.09652744233608250000e-002) (39, -2.75219827890396120000e-001) (40, 7.47339129447937010000e-002) (41, 1.24244481325149540000e-001) (42, -8.77800732851028440000e-002) (43, -1.51114627718925480000e-001) (44, -2.06662371754646300000e-001) (45, -1.12972734495997430000e-002) (46, -1.32830128073692320000e-001) (47, 7.75101929903030400000e-002) (48, 6.06701597571372990000e-002) (49, 4.83837947249412540000e-002) (50, 8.25817063450813290000e-002) (51, 1.32398337125778200000e-001) (52, -1.05692052841186520000e+000) (0, 6.79622352123260500000e-001) (1, -7.32763633131980900000e-002) (2, 6.55997321009635930000e-002) (3, -7.30098411440849300000e-002) (4, 4.60662335157394410000e-001) (5, -5.53117841482162480000e-002) (6, -3.66055294871330260000e-002) (7, -1.45071268081665040000e-001) (8, -6.86132788658142090000e-001) (9, -2.28121459484100340000e-001) (10, -1.17261387407779690000e-001) (11, 7.12651312351226810000e-002) (12, 2.96549573540687560000e-002) (13, -5.97962856292724610000e-001) (14, -3.23069423437118530000e-001) (15, -2.89828423410654070000e-002) (16, 1.76165223121643070000e-001) (17, -5.87947964668273930000e-001) (18, -1.66354358196258540000e-001) (19, -4.29499775171279910000e-001) (20, 1.32939383387565610000e-001) (21, -1.93725973367691040000e-001) (22, 1.36072531342506410000e-001) (23, -1.03358864784240720000e-001) (24, -3.08829277753829960000e-001) (25, -2.98683166503906250000e-001) (26, -3.28911960124969480000e-001) (27, -5.19425451755523680000e-001) (28, -4.91737991571426390000e-001) (29, -8.21447931230068210000e-003) (30, -3.06006073951721190000e-001) (31, -2.05839961767196660000e-001) (32, -2.44054019451141360000e-001) (33, -1.42322242259979250000e+000) (34, 3.64652663469314580000e-001) (35, 6.54785871505737300000e-001) (36, 4.37110930681228640000e-001) (37, 3.00929218530654910000e-001) (38, 3.81788581609725950000e-001) (39, 6.52512490749359130000e-001) (40, -8.08934643864631650000e-002) (41, -4.89219665527343750000e-001) (42, 3.30834656953811650000e-001) (43, 4.42779690027236940000e-001) (44, 4.98355686664581300000e-001) (45, 4.84901554882526400000e-002) (46, -4.51195165514945980000e-002) (47, 4.51868325471878050000e-002) (48, 8.83838087320327760000e-002) (49, -7.14916586875915530000e-002) (50, -9.37145948410034180000e-002) (51, -3.76171879470348360000e-002) (52, -3.19678574800491330000e-001) (0, -1.51183992624282840000e-001) (1, -4.54253435134887700000e-001) (2, -6.61503612995147710000e-001) (3, 4.42056030035018920000e-001) (4, -7.91592746973037720000e-002) (5, 1.93588644266128540000e-001) (6, 3.01143348217010500000e-001) (7, 2.27455869317054750000e-001) (8, -1.42105615139007570000e+000) (9, 3.71371388435363770000e-001) (10, 5.73612339794635770000e-002) (11, -3.15014958381652830000e-001) (12, 3.98301854729652400000e-002) (13, -3.16916522569954400000e-003) (14, 4.95343841612339020000e-002) (15, 2.78188679367303850000e-002) (16, 1.90936654806137080000e-001) (17, -1.83755800127983090000e-001) (18, 1.21196165680885310000e-001) (19, 3.42684149742126460000e-001) (20, -2.32829675078392030000e-001) (21, -1.72844883054494860000e-002) (22, -1.88259407877922060000e-001) (23, -2.03176900744438170000e-001) (24, -2.45260342955589290000e-001) (25, 2.50191241502761840000e-002) (26, -1.86778441071510310000e-001) (27, -3.19564305245876310000e-002) (28, -1.11743241548538210000e-001) (29, -3.27697217464447020000e-001) (30, 5.89295476675033570000e-002) (31, -2.45431736111640930000e-001) (32, -2.23794773221015930000e-001) (33, -2.88933310657739640000e-002) (34, 1.50847479701042180000e-001) (35, -8.98584499955177310000e-002) (36, -1.99508965015411380000e-001) (37, -9.81481000781059270000e-002) (38, -2.32742607593536380000e-001) (39, -1.53919994831085210000e-001) (40, -7.33818411827087400000e-002) (41, -1.09757133759558200000e-003) (42, -2.07108438014984130000e-001) (43, -1.14585578441619870000e-001) (44, 2.26227015256881710000e-001) (45, 1.04960478842258450000e-001) (46, 1.60435304045677190000e-001) (47, 1.23734414577484130000e-001) (48, -1.72387972474098210000e-001) (49, 2.91077233850955960000e-003) (50, -4.38604280352592470000e-002) (51, -1.69128730893135070000e-001) (52, -9.37569797039031980000e-001) (0, 3.98002535104751590000e-001) (1, -5.22526264190673830000e-001) (2, 5.58115392923355100000e-002) (3, 1.89873039722442630000e-001) (4, 6.90142452716827390000e-001) (5, 1.29921770095825200000e+000) (6, 2.29964882135391240000e-001) (7, 2.77096867561340330000e-001) (8, -1.43554306030273440000e+000) (9, 2.18902062624692920000e-002) (10, 2.11656242609024050000e-002) (11, -9.78202838450670240000e-003) (12, 1.16020299494266510000e-001) (13, -1.39883086085319520000e-001) (14, 1.74741774797439580000e-001) (15, -7.39422887563705440000e-002) (16, -1.25648409128189090000e-001) (17, -2.79457747936248780000e-001) (18, -2.97130852937698360000e-001) (19, -1.66070342063903810000e-001) (20, -9.54043865203857420000e-002) (21, -2.32809603214263920000e-001) (22, 6.76057711243629460000e-002) (23, -1.21613316237926480000e-001) (24, -2.15145349502563480000e-001) (25, -2.57814288139343260000e-001) (26, -1.87832027673721310000e-001) (27, -3.23659718036651610000e-001) (28, -7.29411065578460690000e-001) (29, -4.54326212406158450000e-001) (30, -1.36723816394805910000e-001) (31, -3.96744936704635620000e-001) (32, -3.78422111272811890000e-001) (33, -8.08504462242126460000e-001) (34, 3.80755841732025150000e-001) (35, -1.06213629245758060000e-001) (36, -2.56416834890842440000e-002) (37, 4.89859133958816530000e-002) (38, 1.14751189947128300000e-001) (39, 7.62795209884643550000e-001) (40, 1.70436143875122070000e-001) (41, -1.77838443778455260000e-003) (42, 4.99054491519927980000e-002) (43, -3.04728031158447270000e-001) (44, -1.78807631134986880000e-001) (45, 9.32541862130165100000e-002) (46, 7.09885507822036740000e-002) (47, -1.46939963102340700000e-001) (48, -1.46095991134643550000e-001) (49, -1.08895190060138700000e-001) (50, -1.16030178964138030000e-001) (51, -1.18685208261013030000e-001) (52, -1.08764350414276120000e+000) (0, 1.42743837833404540000e+000) (1, -5.04000067710876460000e-001) (2, 6.46435320377349850000e-001) (3, -5.13902127742767330000e-001) (4, 1.21165990829467770000e+000) (5, 3.09697866439819340000e-001) (6, 8.83527874946594240000e-001) (7, 8.17274332046508790000e-001) (8, -5.56843161582946780000e-001) (9, 8.53693604469299320000e-001) (10, -1.09934983775019650000e-002) (11, 1.09354567527771000000e+000) (12, 9.60149407386779790000e-001) (13, 5.56076318025588990000e-002) (14, -2.10578843951225280000e-001) (15, -6.36117219924926760000e-001) (16, 2.25849598646163940000e-001) (17, -7.09048628807067870000e-001) (18, 7.77887582778930660000e-001) (19, -1.11670958995819090000e+000) (20, 7.56380200386047360000e-001) (21, -3.52112382650375370000e-001) (22, -1.03010043501853940000e-001) (23, 3.44163835048675540000e-001) (24, -2.62389987707138060000e-001) (25, -4.96147662401199340000e-001) (26, -3.31104576587677000000e-001) (27, -5.87888836860656740000e-001) (28, -1.04897308349609370000e+000) (29, -2.71348148584365840000e-001) (30, -4.16225582361221310000e-001) (31, -3.21467936038970950000e-001) (32, -3.35035979747772220000e-001) (33, -1.16657996177673340000e+000) (34, -3.25379312038421630000e-001) (35, 3.28190103173255920000e-002) (36, 1.48742392659187320000e-001) (37, 1.78655818104743960000e-001) (38, 2.55749225616455080000e-001) (39, 5.43493986129760740000e-001) (40, -4.40138094127178190000e-002) (41, -4.72418725490570070000e-001) (42, -2.52655446529388430000e-001) (43, -4.66737300157547000000e-001) (44, -6.42375051975250240000e-001) (45, -1.63962081074714660000e-001) (46, -2.90689319372177120000e-001) (47, -2.03223347663879390000e-001) (48, -8.27357580419629810000e-004) (49, 2.65652816742658620000e-002) (50, 